
\data\
ngram 1=5868
ngram 2=11180

\1-grams:
-1.053817	SENT_END
-99	SENT_START	-0.4306639
-3.132998	啊	-0.7269987
-3.945911	阿	-0.30103
-4.246942	阿爸	-0.30103
-4.246942	阿布哈兹	-0.30103
-4.246942	阿彻	-0.30103
-4.246942	阿城	-0.30103
-4.246942	阿尔	-0.30103
-3.734864	阿尔卑斯
-3.734864	阿尔泰
-3.945911	阿富汗	-0.30103
-3.734864	阿惠
-4.246942	阿卡赫	-0.30103
-4.246942	阿克拉	-0.30103
-3.734864	阿拉
-3.547971	阿拉伯	-0.3521825
-4.246942	阿拉塔斯	-0.30103
-4.246942	阿里	-0.30103
-4.246942	阿联酋	-0.30103
-4.246942	阿龙	-0.30103
-3.734864	阿鲁瓦尔
-4.246942	阿妈	-0.30103
-4.246942	阿曼	-0.30103
-3.734864	阿尼
-3.734864	阿片
-3.734864	阿姨
-3.547971	埃及	-0.3521825
-4.246942	埃克伦	-0.30103
-3.734864	挨
-4.246942	挨家挨户	-0.30103
-4.246942	哀求	-0.30103
-4.246942	哀怨	-0.30103
-3.945911	癌症	-0.30103
-3.945911	矮腥	-0.30103
-4.246942	碍事	-0.30103
-4.246942	爱	-0.30103
-3.734864	爱吃
-4.246942	爱戴	-0.30103
-3.76982	爱国	-0.30103
-3.76982	爱护	-0.30103
-4.246942	爱教	-0.30103
-4.246942	爱人	-0.30103
-3.734864	爱沙尼亚
-4.246942	安定	-0.30103
-4.246942	安哥拉	-0.30103
-4.246942	安徽	-0.30103
-4.246942	安徽省	-0.30103
-4.246942	安曼	-0.30103
-3.76982	安排	-0.30103
-3.734864	安丘
-3.547971	安全	-0.3521825
-4.246942	安塞	-0.30103
-4.246942	安慰	-0.30103
-3.734864	安修
-3.945911	安置	-0.4771212
-3.76982	安装	-0.39794
-3.547971	按	-0.30103
-3.945911	按时	-0.30103
-3.644881	按照	-0.30103
-3.734864	暗
-3.734864	暗淡
-3.734864	暗无天日
-4.246942	案	-0.30103
-4.246942	案犯	-0.30103
-3.46879	案件	-0.3424226
-3.734864	案子
-4.246942	肮脏	-0.30103
-3.734864	昂
-4.246942	昂贵	-0.30103
-4.246942	昂起	-0.30103
-3.734864	昂首
-4.246942	昂首挺胸	-0.30103
-3.734864	昂扬
-3.734864	盎然
-3.734864	凹坑
-4.246942	熬	-0.30103
-4.246942	熬粥	-0.30103
-3.945911	奥	-0.4771212
-4.246942	奥地利	-0.30103
-3.100813	奥林匹克	-0.4393327
-3.734864	奥秘
-3.401844	奥委会	-0.4393327
-3.401844	奥运会	-0.3357921
-4.246942	奥运史	-0.30103
-4.246942	澳	-0.30103
-3.945911	澳大利亚	-0.30103
-3.945911	澳门	-0.30103
-3.734864	澳星
-3.734864	叭嗒
-3.644881	吧	-0.4771212
-3.547971	八	-0.30103
-3.644881	八个	-0.3679768
-4.246942	八国	-0.30103
-3.734864	八年
-4.246942	八日	-0.30103
-4.246942	八三	-0.30103
-3.644881	八十	-0.30103
-4.246942	八十五	-0.30103
-4.246942	八四	-0.30103
-4.246942	八万	-0.30103
-4.246942	八五	-0.30103
-4.246942	八一	-0.30103
-3.945911	八月	-0.30103
-3.46879	巴	-0.39794
-3.46879	巴勒斯坦	-0.39794
-3.76982	巴黎	-0.39794
-4.246942	巴颂	-0.30103
-3.734864	跋涉
-2.945911	把	-0.312311
-3.734864	把手
-3.76982	把握	-0.30103
-3.734864	爸爸
-4.246942	白	-0.30103
-4.246942	白人	-0.30103
-3.945911	白色	-0.30103
-4.246942	白洋淀	-0.30103
-4.246942	柏林	-0.30103
-3.945911	百	-0.30103
-3.205549	百分之	-0.30103
-3.734864	百年
-3.734864	摆裙
-4.246942	佰圆券	-0.30103
-3.734864	败絮
-3.734864	拜访
-4.246942	拜会	-0.30103
-4.246942	拜谒	-0.30103
-3.734864	班长
-4.246942	班玛县	-0.30103
-3.76982	般	-0.30103
-3.945911	颁发	-0.30103
-3.644881	颁奖	-0.4771213
-3.734864	板
-4.246942	板结	-0.30103
-3.945911	半	-0.30103
-4.246942	半场	-0.30103
-3.734864	半岛
-4.246942	半个	-0.30103
-4.246942	半生	-0.30103
-4.246942	半数	-0.30103
-3.547971	办	-0.3521825
-4.246942	办法	-0.30103
-3.734864	办理
-3.945911	办事	-0.4771212
-4.246942	办学	-0.30103
-4.246942	帮忙	-0.30103
-3.547971	帮助	-0.30103
-3.945911	绑架	-0.30103
-4.246942	棒	-0.30103
-4.246942	傍海	-0.30103
-4.246942	苞米	-0.30103
-3.945911	包	-0.30103
-4.246942	包干	-0.30103
-3.644881	包括	-0.30103
-4.246942	薄薄	-0.30103
-3.734864	薄呢
-4.246942	保	-0.30103
-3.945911	保持	-0.30103
-3.205549	保护	-0.30103
-4.246942	保护法	-0.30103
-4.246942	保税	-0.30103
-3.945911	保税区	-0.30103
-4.246942	保障	-0.30103
-3.547971	保证	-0.30103
-3.734864	抱怨
-4.246942	抱着	-0.30103
-3.76982	报	-0.30103
-4.246942	报答	-0.30103
-3.46879	报道	-0.4771212
-3.945911	报告	-0.30103
-4.246942	报警	-0.30103
-4.246942	报刊	-0.30103
-3.945911	报名	-0.30103
-3.734864	报摊
-3.734864	报亭
-3.734864	报效
-4.246942	报纸	-0.30103
-4.246942	暴力	-0.30103
-3.945911	爆	-0.30103
-4.246942	爆发	-0.30103
-4.246942	碑	-0.30103
-3.734864	悲哀
-4.246942	悲剧	-0.30103
-3.76982	北	-0.30103
-4.246942	北大	-0.30103
-4.246942	北端	-0.30103
-4.246942	北方	-0.30103
-3.734864	北疆
-3.100813	北京	-0.3802113
-3.76982	北京市	-0.30103
-4.246942	北纬	-0.30103
-3.76982	北约	-0.30103
-4.246942	背	-0.30103
-3.734864	背后
-4.246942	贝布托	-0.30103
-4.246942	贝尔蒂尼	-0.30103
-4.246942	贝戈维奇	-0.30103
-3.734864	倍
-4.246942	倍受	-0.30103
-3.734864	备案
-4.246942	备忘录	-0.30103
-3.016493	被	-0.30103
-4.246942	被动	-0.30103
-4.246942	奔波	-0.30103
-4.246942	奔腾	-0.30103
-3.76982	本	-0.30103
-4.246942	本报	-0.30103
-3.76982	本次	-0.30103
-4.246942	本人	-0.30103
-4.246942	本着	-0.30103
-3.734864	崩塌
-4.246942	泵	-0.30103
-3.401844	比	-0.30103
-3.945911	比较	-0.30103
-4.246942	比利牛斯	-0.30103
-4.246942	比利时	-0.30103
-3.734864	比例
-3.401844	比赛	-0.3357921
-3.734864	比武
-4.246942	笔触	-0.30103
-4.246942	笔调	-0.30103
-3.734864	彼岸
-4.246942	碧绿	-0.30103
-4.246942	碧罗	-0.30103
-3.734864	毕加索
-3.945911	毕业	-0.30103
-4.246942	庇护	-0.30103
-4.246942	闭幕	-0.30103
-4.246942	闭幕式	-0.30103
-4.246942	必将	-0.30103
-3.734864	必然
-4.246942	必需	-0.30103
-3.343852	必须	-0.30103
-3.734864	壁
-4.246942	臂膀	-0.30103
-3.76982	避免	-0.30103
-3.945911	边	-0.30103
-3.945911	边防	-0.30103
-4.246942	边防线	-0.30103
-3.734864	边疆
-3.734864	编
-3.734864	编创
-4.246942	编导	-0.30103
-4.246942	编辑	-0.30103
-4.246942	编剧	-0.30103
-4.246942	编审	-0.30103
-3.734864	编者按
-4.246942	编纂	-0.30103
-3.547971	便	-0.30103
-4.246942	便是	-0.30103
-4.246942	便宜	-0.30103
-3.945911	变	-0.30103
-3.945911	变成	-0.4771213
-4.246942	变得	-0.30103
-3.401844	变化	-0.6532125
-4.246942	变化万千	-0.30103
-4.246942	变量	-0.30103
-4.246942	辩证法	-0.30103
-3.734864	遍
-4.246942	标	-0.30103
-3.945911	标志	-0.4771212
-4.246942	标准	-0.30103
-3.945911	表达	-0.30103
-4.246942	表明	-0.30103
-2.945911	表示	-0.3853509
-3.644881	表现	-0.30103
-3.76982	表演	-0.30103
-3.734864	表演系
-4.246942	表彰	-0.30103
-4.246942	别出心裁	-0.30103
-4.246942	别开生面	-0.30103
-3.76982	别人	-0.30103
-4.246942	别无长物	-0.30103
-4.246942	滨海区	-0.30103
-3.734864	宾川
-4.246942	宾客	-0.30103
-3.734864	兵马俑
-4.246942	冰	-0.30103
-4.246942	冰窟窿	-0.30103
-4.246942	冰面	-0.30103
-4.246942	病	-0.30103
-3.734864	病房
-3.945911	病害	-0.30103
-4.246942	病菌	-0.30103
-4.246942	病人	-0.30103
-3.734864	病死
-4.246942	病重	-0.30103
-2.904519	并	-0.3222193
-4.246942	并不	-0.30103
-4.246942	并非	-0.30103
-3.734864	玻璃钢
-3.734864	播撒
-3.734864	播洒
-4.246942	拨	-0.30103
-4.246942	波	-0.30103
-4.246942	波德莱尔	-0.30103
-3.734864	波恩
-3.945911	波黑	-0.30103
-4.246942	波兰	-0.30103
-4.246942	波澜	-0.30103
-3.734864	波音
-4.246942	博得	-0.30103
-3.734864	博东
-4.246942	博尔格	-0.30103
-4.246942	博士	-0.30103
-4.246942	博物馆	-0.30103
-4.246942	勃勃	-0.30103
-4.246942	渤海	-0.30103
-3.734864	捕鱼
-4.246942	补偿	-0.30103
-3.734864	补偿金
-4.246942	补天	-0.30103
-4.246942	补贴	-0.30103
-2.784544	不	-0.3168243
-3.734864	不安
-3.734864	不测
-3.734864	不辞
-4.246942	不辞而别	-0.30103
-4.246942	不大	-0.30103
-3.76982	不到	-0.30103
-3.945911	不得	-0.30103
-3.734864	不得不
-3.343852	不断	-0.3309932
-3.734864	不饿
-4.246942	不甘	-0.30103
-4.246942	不敢	-0.30103
-4.246942	不顾	-0.30103
-4.246942	不管	-0.30103
-4.246942	不过	-0.30103
-3.644881	不会	-0.30103
-3.734864	不计
-4.246942	不解之缘	-0.30103
-3.547971	不仅	-0.30103
-4.246942	不禁	-0.30103
-4.246942	不尽相同	-0.30103
-4.246942	不久	-0.30103
-4.246942	不可	-0.30103
-3.734864	不可能
-3.734864	不可思议
-3.734864	不理不睬
-3.734864	不力
-4.246942	不灵	-0.30103
-4.246942	不论	-0.30103
-3.734864	不买
-4.246942	不满	-0.30103
-3.734864	不眠
-4.246942	不谋而合	-0.30103
-3.945911	不能	-0.30103
-3.734864	不怕
-3.734864	不让
-4.246942	不容易	-0.30103
-3.547971	不少	-0.3521825
-4.246942	不失	-0.30103
-3.945911	不时	-0.30103
-3.46879	不是	-0.30103
-3.734864	不衰
-4.246942	不停	-0.30103
-4.246942	不通	-0.30103
-3.76982	不同	-0.39794
-3.734864	不为所动
-4.246942	不息	-0.30103
-4.246942	不惜	-0.30103
-3.945911	不懈	-0.30103
-4.246942	不行	-0.30103
-4.246942	不厌	-0.30103
-3.734864	不已
-3.734864	不用
-4.246942	不予	-0.30103
-4.246942	不愿	-0.30103
-4.246942	不愿意	-0.30103
-3.945911	不允许	-0.30103
-4.246942	不再	-0.30103
-3.734864	不只
-4.246942	不准	-0.30103
-4.246942	布	-0.30103
-4.246942	布局	-0.30103
-4.246942	布裤	-0.30103
-3.644881	布隆迪	-0.30103
-3.945911	布鲁塞尔	-0.30103
-4.246942	布鲁斯	-0.30103
-4.246942	布琼布拉	-0.30103
-4.246942	布置	-0.30103
-4.246942	步伐	-0.30103
-4.246942	步骤	-0.30103
-3.76982	部	-0.30103
-3.76982	部长	-0.30103
-3.547971	部队	-0.30103
-3.644881	部分	-0.4771212
-3.644881	部门	-0.30103
-4.246942	部署	-0.30103
-3.945911	部族	-0.30103
-3.945911	擦	-0.30103
-3.734864	擦边球
-3.734864	擦干
-3.734864	擦肩而过
-4.246942	擦碗布	-0.30103
-4.246942	裁	-0.30103
-4.246942	裁判员	-0.30103
-4.246942	材料	-0.30103
-3.945911	才	-0.30103
-3.76982	才能	-0.30103
-4.246942	财产	-0.30103
-4.246942	财力	-0.30103
-3.734864	财团
-4.246942	财政	-0.30103
-3.46879	采访	-0.39794
-4.246942	采集	-0.30103
-3.292699	采取	-0.3273589
-3.644881	采用	-0.3679768
-3.734864	彩电
-4.246942	彩礼	-0.30103
-3.945911	彩色	-0.30103
-4.246942	彩陶	-0.30103
-3.945911	菜	-0.30103
-4.246942	菜篮子	-0.30103
-3.734864	菜农
-4.246942	蔡	-0.30103
-4.246942	餐具	-0.30103
-4.246942	餐饮部	-0.30103
-4.246942	参观	-0.30103
-3.16776	参加	-0.3203351
-3.945911	参谋部	-0.30103
-3.76982	参赛	-0.39794
-3.945911	参与	-0.30103
-4.246942	残暴	-0.30103
-4.246942	残杀	-0.30103
-4.246942	残余	-0.30103
-4.246942	苍松	-0.30103
-4.246942	仓储	-0.30103
-3.734864	藏
-3.734864	藏经洞
-4.246942	藏品	-0.30103
-3.734864	藏青色
-4.246942	藏族	-0.30103
-4.246942	操	-0.30103
-4.246942	操作	-0.30103
-4.246942	草签	-0.30103
-3.547971	草原	-0.4259687
-4.246942	测	-0.30103
-4.246942	测量	-0.30103
-4.246942	测旗	-0.30103
-4.246942	测验	-0.30103
-4.246942	层	-0.30103
-4.246942	插	-0.30103
-3.734864	插话
-3.734864	叉着
-3.734864	叉子
-4.246942	茶馆	-0.30103
-3.734864	茶花
-4.246942	茶客	-0.30103
-3.734864	茶色
-4.246942	茶桶	-0.30103
-4.246942	茶座	-0.30103
-3.734864	查
-3.945911	查办	-0.4771213
-4.246942	查处	-0.30103
-3.734864	查获
-4.246942	差	-0.30103
-4.246942	差不多	-0.30103
-3.734864	差额
-3.734864	差价
-3.734864	差距
-3.734864	拆除
-4.246942	拆迁	-0.30103
-3.945911	拆迁户	-0.4771213
-3.734864	柴门
-3.76982	产量	-0.39794
-3.76982	产品	-0.30103
-4.246942	产权	-0.30103
-3.76982	产生	-0.30103
-3.945911	产销	-0.30103
-3.46879	产业	-0.30103
-3.734864	产业化
-3.945911	产值	-0.30103
-4.246942	阐述	-0.30103
-4.246942	昌玮	-0.30103
-3.734864	猖獗
-4.246942	场	-0.30103
-3.76982	场馆	-0.30103
-4.246942	场上	-0.30103
-3.734864	场所
-4.246942	常备	-0.30103
-4.246942	常年	-0.30103
-4.246942	常识	-0.30103
-4.246942	常委	-0.30103
-4.246942	常委会	-0.30103
-4.246942	常州	-0.30103
-4.246942	常州市	-0.30103
-4.246942	长	-0.30103
-4.246942	长长的	-0.30103
-3.734864	长城
-3.734864	长处
-4.246942	长队	-0.30103
-4.246942	长江	-0.30103
-4.246942	长卷	-0.30103
-3.734864	长廊
-4.246942	长篇	-0.30103
-3.945911	长期	-0.30103
-3.734864	长沙
-4.246942	长远	-0.30103
-3.945911	长志	-0.4771213
-3.76982	厂	-0.30103
-4.246942	厂长	-0.30103
-4.246942	厂房	-0.30103
-3.734864	厂家
-3.734864	厂商
-3.734864	敞
-4.246942	畅所欲言	-0.30103
-3.76982	畅销	-0.39794
-4.246942	畅销书	-0.30103
-4.246942	唱	-0.30103
-4.246942	超	-0.30103
-4.246942	超标	-0.30103
-3.734864	超额
-3.734864	超过
-4.246942	超前	-0.30103
-3.945911	朝	-0.4771213
-4.246942	朝鲜	-0.30103
-4.246942	朝着	-0.30103
-4.246942	潮	-0.30103
-4.246942	炒股	-0.30103
-4.246942	车	-0.30103
-4.246942	车臣	-0.30103
-3.734864	车间
-4.246942	车票	-0.30103
-4.246942	撤出	-0.30103
-4.246942	撤离	-0.30103
-4.246942	撤销	-0.30103
-3.734864	彻底
-4.246942	尘埃	-0.30103
-3.734864	尘土
-4.246942	沉闷	-0.30103
-4.246942	沉实	-0.30103
-3.945911	沉睡	-0.30103
-3.945911	陈	-0.30103
-4.246942	衬衣	-0.30103
-4.246942	撑伞	-0.30103
-4.246942	称	-0.30103
-4.246942	称为	-0.30103
-3.945911	称赞	-0.30103
-3.734864	称作
-3.945911	城	-0.30103
-3.945911	城区	-0.30103
-3.343852	城市	-0.3679768
-4.246942	城乡	-0.30103
-3.343852	成	-0.3309932
-3.945911	成本	-0.30103
-3.945911	成长	-0.30103
-3.76982	成都	-0.30103
-3.401844	成功	-0.30103
-3.734864	成果
-3.945911	成绩	-0.4771212
-4.246942	成就	-0.30103
-3.246942	成立	-0.3521825
-3.945911	成了	-0.30103
-4.246942	成熟	-0.30103
-3.100813	成为	-0.30103
-4.246942	成蟹	-0.30103
-3.46879	成员	-0.30103
-3.945911	成员国	-0.30103
-4.246942	呈	-0.30103
-4.246942	呈现	-0.30103
-3.945911	乘	-0.30103
-3.734864	乘虚而入
-3.734864	程度
-4.246942	程控	-0.30103
-3.734864	程序
-4.246942	惩治	-0.30103
-4.246942	诚意	-0.30103
-4.246942	诚挚	-0.30103
-4.246942	承办	-0.30103
-4.246942	承包	-0.30103
-3.734864	承担
-4.246942	承德	-0.30103
-3.734864	承受
-3.945911	吃	-0.30103
-4.246942	吃饭	-0.30103
-4.246942	吃苦耐劳	-0.30103
-3.734864	吃肉
-3.945911	持	-0.4771213
-3.734864	持久
-3.945911	持续	-0.30103
-4.246942	池渔淀	-0.30103
-4.246942	迟迟	-0.30103
-4.246942	驰	-0.30103
-4.246942	尺度	-0.30103
-4.246942	翅膀	-0.30103
-3.547971	充分	-0.4259687
-4.246942	充满	-0.30103
-3.76982	冲突	-0.30103
-4.246942	虫	-0.30103
-4.246942	崇敬	-0.30103
-4.246942	崇山	-0.30103
-3.734864	宠儿
-3.945911	抽	-0.30103
-3.734864	抽调
-3.945911	初	-0.30103
-4.246942	初步	-0.30103
-4.246942	初测	-0.30103
-4.246942	初期	-0.30103
-2.945911	出	-0.3679768
-3.76982	出版	-0.30103
-4.246942	出版社	-0.30103
-4.246942	出发	-0.30103
-3.734864	出发点
-4.246942	出锅	-0.30103
-4.246942	出境	-0.30103
-4.246942	出口	-0.30103
-3.76982	出来	-0.39794
-4.246942	出色	-0.30103
-4.246942	出生	-0.30103
-4.246942	出示	-0.30103
-4.246942	出售	-0.30103
-3.734864	出书
-4.246942	出席	-0.30103
-3.292699	出现	-0.3590219
-3.734864	出院
-4.246942	出众	-0.30103
-4.246942	出资	-0.30103
-3.734864	出资额
-3.734864	出租
-4.246942	出租车	-0.30103
-3.945911	除	-0.30103
-3.644881	除了	-0.30103
-4.246942	储备	-0.30103
-3.734864	储蓄
-3.734864	触动
-4.246942	触杀	-0.30103
-4.246942	处	-0.30103
-3.734864	处罚
-3.945911	处分	-0.4771212
-3.644881	处理	-0.30103
-4.246942	揣摩	-0.30103
-4.246942	川	-0.30103
-3.734864	川江
-3.76982	穿	-0.30103
-3.734864	穿过
-3.734864	穿行
-4.246942	传承	-0.30103
-4.246942	传达员	-0.30103
-4.246942	传呼	-0.30103
-4.246942	传媒	-0.30103
-3.945911	传入	-0.30103
-3.547971	传统	-0.30103
-3.734864	船
-3.76982	船舶	-0.30103
-4.246942	船厂	-0.30103
-4.246942	船东	-0.30103
-4.246942	船民	-0.30103
-3.734864	窗
-4.246942	窗口	-0.30103
-3.945911	幢	-0.30103
-4.246942	幢幢	-0.30103
-4.246942	闯	-0.30103
-3.945911	创	-0.30103
-4.246942	创办	-0.30103
-4.246942	创举	-0.30103
-4.246942	创始	-0.30103
-3.734864	创业
-3.547971	创造	-0.3521825
-3.945911	创作	-0.30103
-4.246942	春节	-0.30103
-4.246942	春笋	-0.30103
-3.734864	春竹
-3.734864	淳安县
-3.734864	慈容
-3.734864	慈善
-4.246942	词句	-0.30103
-3.945911	此	-0.30103
-4.246942	此次	-0.30103
-3.945911	此间	-0.30103
-3.734864	此类
-3.734864	此时
-3.734864	刺刀
-3.644881	次	-0.30103
-3.734864	聪明
-2.904519	从	-0.30103
-3.734864	从不
-4.246942	从而	-0.30103
-4.246942	从事	-0.30103
-3.734864	从未
-4.246942	从小	-0.30103
-4.246942	丛书	-0.30103
-4.246942	凑合	-0.30103
-3.734864	粗糙
-3.734864	粗粗
-3.734864	粗大
-3.734864	粗放
-3.734864	粗疏
-3.734864	醋
-3.734864	促
-3.246942	促进	-0.3245111
-4.246942	崔	-0.30103
-4.246942	翠柏	-0.30103
-3.547971	村	-0.30103
-3.734864	村办
-4.246942	村部	-0.30103
-4.246942	村长	-0.30103
-4.246942	村东	-0.30103
-4.246942	村里	-0.30103
-3.644881	村民	-0.30103
-4.246942	村南	-0.30103
-3.547971	村庄	-0.544068
-4.246942	存	-0.30103
-4.246942	存单	-0.30103
-4.246942	存量	-0.30103
-3.945911	存在	-0.30103
-3.644881	措施	-0.3679768
-4.246942	挫折	-0.30103
-4.246942	错落	-0.30103
-3.547971	达	-0.30103
-3.76982	达成	-0.30103
-3.76982	达到	-0.39794
-3.76982	达耶	-0.39794
-4.246942	答应	-0.30103
-3.46879	打	-0.30103
-4.246942	打动	-0.30103
-3.76982	打击	-0.30103
-4.246942	打捞	-0.30103
-4.246942	打骂	-0.30103
-3.945911	打破	-0.30103
-4.246942	打伤	-0.30103
-4.246942	打死	-0.30103
-4.246942	打听	-0.30103
-4.246942	打响	-0.30103
-3.734864	打油
-3.343852	大	-0.30103
-4.246942	大案	-0.30103
-4.246942	大袄	-0.30103
-4.246942	大白菜	-0.30103
-3.76982	大部分	-0.30103
-4.246942	大大	-0.30103
-4.246942	大胆	-0.30103
-4.246942	大德	-0.30103
-4.246942	大多数	-0.30103
-4.246942	大额	-0.30103
-4.246942	大恩	-0.30103
-4.246942	大法官	-0.30103
-4.246942	大方	-0.30103
-3.734864	大夫
-4.246942	大幅度	-0.30103
-4.246942	大国	-0.30103
-3.734864	大海
-3.734864	大红
-4.246942	大户	-0.30103
-3.644881	大会	-0.4771213
-4.246942	大火	-0.30103
-4.246942	大家	-0.30103
-3.734864	大姐
-4.246942	大款	-0.30103
-3.734864	大类
-4.246942	大力	-0.30103
-3.945911	大连	-0.30103
-3.945911	大量	-0.30103
-4.246942	大楼	-0.30103
-4.246942	大路	-0.30103
-4.246942	大陆	-0.30103
-3.734864	大陆桥
-4.246942	大略	-0.30103
-4.246942	大妈	-0.30103
-3.734864	大麻
-4.246942	大马士革	-0.30103
-3.734864	大骂
-3.734864	大门
-4.246942	大米	-0.30103
-4.246942	大年	-0.30103
-3.734864	大娘
-3.734864	大女儿
-3.945911	大批	-0.30103
-4.246942	大桥	-0.30103
-3.734864	大邱庄
-4.246942	大赛	-0.30103
-3.945911	大使	-0.4771212
-4.246942	大事	-0.30103
-3.734864	大树
-4.246942	大体	-0.30103
-4.246942	大厅	-0.30103
-3.734864	大为不同
-4.246942	大雾	-0.30103
-4.246942	大西北	-0.30103
-4.246942	大西南	-0.30103
-3.945911	大峡谷	-0.30103
-3.76982	大厦	-0.30103
-4.246942	大兴安岭	-0.30103
-3.76982	大型	-0.30103
-4.246942	大选	-0.30103
-4.246942	大学	-0.30103
-4.246942	大学生	-0.30103
-3.734864	大堰
-3.734864	大洋
-3.734864	大爷
-4.246942	大禹	-0.30103
-3.734864	大丈夫
-4.246942	大中型	-0.30103
-4.246942	大众	-0.30103
-4.246942	大洲	-0.30103
-3.945911	大宗	-0.30103
-4.246942	呆	-0.30103
-4.246942	歹徒	-0.30103
-3.945911	带	-0.30103
-4.246942	带动	-0.30103
-4.246942	带来	-0.30103
-3.945911	带领	-0.30103
-3.945911	带有	-0.30103
-4.246942	带着	-0.30103
-4.246942	代	-0.30103
-3.46879	代表	-0.3424227
-4.246942	代表处	-0.30103
-3.292699	代表团	-0.30103
-4.246942	代代	-0.30103
-4.246942	代价	-0.30103
-4.246942	代亚耶亚	-0.30103
-4.246942	代之	-0.30103
-3.644881	贷款	-0.30103
-3.945911	袋	-0.30103
-4.246942	担负	-0.30103
-4.246942	担任	-0.30103
-4.246942	担心	-0.30103
-4.246942	单	-0.30103
-4.246942	单本	-0.30103
-3.945911	单独	-0.30103
-3.734864	单干
-3.46879	单位	-0.30103
-4.246942	胆敢	-0.30103
-4.246942	胆识	-0.30103
-3.042822	但	-0.30103
-3.945911	但见	-0.30103
-3.945911	但是	-0.30103
-4.246942	淡	-0.30103
-4.246942	淡季	-0.30103
-4.246942	诞生	-0.30103
-3.734864	弹
-4.246942	蛋	-0.30103
-4.246942	蛋糕	-0.30103
-3.644881	当	-0.30103
-4.246942	当成	-0.30103
-4.246942	当代	-0.30103
-3.945911	当地	-0.30103
-4.246942	当机立断	-0.30103
-3.644881	当即	-0.30103
-4.246942	当今	-0.30103
-4.246942	当局	-0.30103
-3.945911	当年	-0.30103
-3.76982	当前	-0.30103
-4.246942	当然	-0.30103
-3.945911	当时	-0.30103
-3.945911	当务之急	-0.30103
-4.246942	当下	-0.30103
-3.246942	党	-0.4259687
-4.246942	党风	-0.30103
-3.76982	党纪	-0.39794
-3.945911	党委	-0.30103
-4.246942	党支部	-0.30103
-3.734864	档次
-4.246942	倒	-0.30103
-4.246942	倒汇	-0.30103
-4.246942	导	-0.30103
-4.246942	导弹	-0.30103
-3.734864	导致
-2.76982	到	-0.3332147
-4.246942	到处	-0.30103
-3.945911	到达	-0.30103
-4.246942	到底	-0.30103
-4.246942	到齐	-0.30103
-3.945911	到位	-0.4771212
-3.945911	道	-0.30103
-4.246942	道富	-0.30103
-3.734864	道理
-3.734864	道路
-4.246942	道谢	-0.30103
-4.246942	盗	-0.30103
-3.76982	德	-0.30103
-3.644881	德国	-0.30103
-4.246942	德纳泽	-0.30103
-4.246942	德瑞克	-0.30103
-3.734864	德兴
-3.100813	得	-0.30103
-3.547971	得到	-0.30103
-4.246942	得克萨斯	-0.30103
-1.425428	的	-0.3583915
-3.734864	的话
-4.246942	灯光	-0.30103
-4.246942	登	-0.30103
-3.734864	登陆艇
-3.734864	登门
-3.734864	登山队
-2.799783	等	-0.3565473
-4.246942	等待	-0.30103
-3.734864	等候
-3.945911	等级	-0.30103
-4.246942	等一等	-0.30103
-4.246942	等于	-0.30103
-3.945911	邓	-0.4771212
-4.246942	邓小平	-0.30103
-3.644881	低	-0.30103
-4.246942	低矮	-0.30103
-3.734864	低估
-4.246942	滴	-0.30103
-3.734864	敌手
-3.945911	抵	-0.30103
-3.644881	抵达	-0.30103
-3.734864	抵债
-3.945911	底	-0.30103
-3.734864	底部
-3.734864	底单
-2.667158	地	-0.3399481
-3.547971	地方	-0.30103
-4.246942	地力	-0.30103
-2.968188	地区	-0.3553877
-3.734864	地铁
-3.945911	地图	-0.30103
-3.734864	地位
-3.76982	地域	-0.39794
-3.734864	地震
-4.246942	地中海	-0.30103
-4.246942	第	-0.30103
-3.734864	第阿
-4.246942	第八	-0.30103
-3.945911	第二	-0.30103
-4.246942	第二次	-0.30103
-3.734864	第二天
-3.945911	第三	-0.30103
-3.734864	第四
-4.246942	第五	-0.30103
-3.46879	第一	-0.3424226
-4.246942	第一次	-0.30103
-3.76982	第一个	-0.30103
-3.945911	第一家	-0.30103
-3.945911	第一名	-0.30103
-4.246942	弟弟	-0.30103
-4.246942	递	-0.30103
-3.76982	点	-0.30103
-4.246942	点名	-0.30103
-3.547971	点五	-0.4259687
-4.246942	点心	-0.30103
-3.945911	典型	-0.30103
-3.734864	垫
-3.945911	电	-0.4771212
-3.945911	电话	-0.30103
-3.734864	电话局
-4.246942	电话员	-0.30103
-3.734864	电汇
-4.246942	电流	-0.30103
-3.734864	电脑
-3.644881	电视	-0.30103
-4.246942	电视剧	-0.30103
-4.246942	电视片	-0.30103
-3.945911	电视台	-0.30103
-4.246942	电台	-0.30103
-4.246942	电网	-0.30103
-3.734864	电信
-3.734864	电压
-3.734864	电影
-4.246942	电子	-0.30103
-4.246942	淀	-0.30103
-4.246942	雕刻	-0.30103
-3.76982	掉	-0.30103
-4.246942	吊环	-0.30103
-4.246942	调	-0.30103
-4.246942	调查	-0.30103
-4.246942	调剂	-0.30103
-3.76982	调控	-0.30103
-4.246942	调试	-0.30103
-3.76982	调整	-0.30103
-4.246942	调子	-0.30103
-4.246942	跌落	-0.30103
-4.246942	跌宕	-0.30103
-4.246942	丁关根	-0.30103
-4.246942	鼎昌	-0.30103
-4.246942	定	-0.30103
-3.734864	定点
-4.246942	定居	-0.30103
-4.246942	定期	-0.30103
-4.246942	丢	-0.30103
-4.246942	丢失	-0.30103
-4.246942	东	-0.30103
-4.246942	东发乡	-0.30103
-3.945911	东方	-0.30103
-4.246942	东方朔	-0.30103
-3.734864	东风
-4.246942	东面	-0.30103
-3.945911	东欧	-0.30103
-3.945911	东西	-0.30103
-3.401844	东亚	-0.3802112
-4.246942	东亚运	-0.30103
-4.246942	冬瓜	-0.30103
-4.246942	冬天	-0.30103
-4.246942	董	-0.30103
-3.945911	动	-0.4771212
-4.246942	动笔	-0.30103
-3.734864	动工
-3.734864	动画片
-4.246942	动人	-0.30103
-4.246942	动物	-0.30103
-3.734864	动摇
-4.246942	动作	-0.30103
-4.246942	兜揽	-0.30103
-3.734864	斗殴
-3.547971	斗争	-0.3521825
-4.246942	斗志	-0.30103
-2.86673	都	-0.3823349
-4.246942	都会	-0.30103
-3.547971	都是	-0.30103
-3.734864	督促
-3.734864	毒鱼
-4.246942	独到	-0.30103
-3.644881	独立	-0.30103
-4.246942	独特	-0.30103
-3.945911	读	-0.30103
-4.246942	读者	-0.30103
-3.734864	读着
-3.734864	堵
-4.246942	堵塞	-0.30103
-3.734864	赌博
-3.734864	镀金
-3.945911	度	-0.30103
-3.734864	端
-4.246942	端茶送水	-0.30103
-3.945911	短	-0.30103
-4.246942	短池	-0.30103
-4.246942	段	-0.30103
-3.734864	断钉
-4.246942	堆	-0.30103
-3.734864	堆着
-4.246942	兑现	-0.30103
-3.343852	队	-0.30103
-3.644881	队伍	-0.3679768
-3.76982	队员	-0.30103
-2.603489	对	-0.3402833
-4.246942	对白	-0.30103
-3.734864	对不起
-4.246942	对策	-0.30103
-3.945911	对此	-0.30103
-4.246942	对方	-0.30103
-3.76982	对话	-0.30103
-3.945911	对手	-0.4771212
-3.644881	对外	-0.3679768
-4.246942	对于	-0.30103
-4.246942	墩	-0.30103
-4.246942	吨	-0.30103
-4.246942	蹲	-0.30103
-3.945911	敦促	-0.30103
-3.734864	敦煌
-4.246942	顿时	-0.30103
-2.784544	多	-0.3542755
-3.76982	多次	-0.30103
-3.734864	多大
-3.734864	多亏
-3.945911	多么	-0.30103
-3.945911	多年	-0.30103
-3.945911	多少	-0.30103
-3.734864	多元
-3.76982	多种	-0.30103
-3.945911	夺得	-0.30103
-3.734864	夺路
-3.734864	夺取
-4.246942	躲	-0.30103
-3.76982	鹅	-0.60206
-3.76982	俄	-0.30103
-4.246942	俄国	-0.30103
-3.547971	俄罗斯	-0.30103
-3.734864	俄语
-4.246942	额	-0.30103
-3.734864	额外
-4.246942	讹诈	-0.30103
-4.246942	恶	-0.30103
-3.734864	恶果
-3.734864	恶化
-3.945911	恶劣	-0.4771213
-4.246942	恶势	-0.30103
-3.734864	恶习
-4.246942	恶性	-0.30103
-3.734864	厄
-4.246942	厄尔尼诺	-0.30103
-4.246942	遏制	-0.30103
-3.945911	鄂	-0.30103
-4.246942	鄂尔多斯	-0.30103
-4.246942	饿	-0.30103
-3.734864	恩
-3.734864	恩爱
-3.76982	恩达	-0.60206
-3.734864	恩恩爱爱
-4.246942	恩恩怨怨	-0.30103
-4.246942	恩克森	-0.30103
-3.734864	恩平
-3.76982	恩施	-0.30103
-4.246942	恩施人	-0.30103
-4.246942	恩特	-0.30103
-2.75558	而	-0.3157533
-4.246942	而来	-0.30103
-3.644881	而且	-0.30103
-3.945911	而是	-0.30103
-3.734864	而言
-3.734864	而已
-3.734864	儿女
-4.246942	儿童	-0.30103
-3.734864	儿童村
-3.644881	儿子	-0.30103
-4.246942	耳	-0.30103
-3.734864	耳朵眼
-4.246942	耳目一新	-0.30103
-3.734864	耳闻
-4.246942	尔后	-0.30103
-3.734864	尔雅
-3.734864	洱海
-3.76982	二	-0.30103
-3.401844	二百	-0.30103
-4.246942	二点	-0.30103
-4.246942	二儿子	-0.30103
-3.734864	二黑
-4.246942	二斤	-0.30103
-4.246942	二零零零	-0.30103
-3.734864	二楼
-4.246942	二期	-0.30103
-4.246942	二三	-0.30103
-3.401844	二十	-0.3802112
-4.246942	二十八日	-0.30103
-3.734864	二十二
-4.246942	二十七	-0.30103
-4.246942	二十三	-0.30103
-3.945911	二十四	-0.30103
-3.734864	二十万
-3.945911	二十五	-0.30103
-4.246942	二十五日	-0.30103
-4.246942	二十一	-0.30103
-4.246942	二亿	-0.30103
-4.246942	二月	-0.30103
-3.644881	发	-0.30103
-3.547971	发表	-0.30103
-4.246942	发布	-0.30103
-3.945911	发布会	-0.30103
-3.945911	发出	-0.30103
-3.945911	发达	-0.4771213
-3.734864	发黑
-3.401844	发挥	-0.3357921
-4.246942	发明	-0.30103
-3.945911	发起	-0.30103
-4.246942	发射	-0.30103
-3.132998	发生	-0.3617279
-3.644881	发现	-0.30103
-4.246942	发行	-0.30103
-3.644881	发言人	-0.3679768
-4.246942	发扬	-0.30103
-2.644881	发展	-0.4045706
-3.945911	发展中国家	-0.30103
-3.734864	发作
-4.246942	罚	-0.30103
-3.76982	法	-0.39794
-4.246942	法定	-0.30103
-4.246942	法官	-0.30103
-4.246942	法规	-0.30103
-3.292699	法国	-0.3590219
-4.246942	法律	-0.30103
-4.246942	法人	-0.30103
-3.734864	法院
-4.246942	法制	-0.30103
-4.246942	翻	-0.30103
-4.246942	翻滚	-0.30103
-3.734864	翻一番
-4.246942	翻译	-0.30103
-4.246942	樊篱	-0.30103
-4.246942	繁	-0.30103
-4.246942	繁复	-0.30103
-4.246942	繁荣	-0.30103
-3.734864	繁重
-3.945911	凡	-0.30103
-4.246942	凡是	-0.30103
-3.734864	烦躁
-4.246942	反差	-0.30103
-4.246942	反常	-0.30103
-3.76982	反对	-0.30103
-4.246942	反对派	-0.30103
-3.734864	反而
-4.246942	反腐败	-0.30103
-3.734864	反复
-4.246942	反馈	-0.30103
-3.734864	反应炉
-4.246942	反映	-0.30103
-3.734864	返
-3.734864	范
-4.246942	范围	-0.30103
-3.945911	犯	-0.30103
-3.547971	犯罪	-0.30103
-4.246942	饭店	-0.30103
-3.644881	方	-0.30103
-3.76982	方案	-0.60206
-4.246942	方便	-0.30103
-4.246942	方略	-0.30103
-3.132998	方面	-0.5006024
-3.945911	方式	-0.4771212
-4.246942	方向	-0.30103
-3.734864	方圆
-4.246942	方针	-0.30103
-4.246942	方正	-0.30103
-3.945911	房	-0.30103
-4.246942	房地产	-0.30103
-4.246942	防盗门	-0.30103
-4.246942	防火	-0.30103
-4.246942	防空	-0.30103
-4.246942	防务	-0.30103
-3.644881	防止	-0.30103
-4.246942	防治	-0.30103
-4.246942	仿佛	-0.30103
-3.76982	访华	-0.39794
-3.246942	访问	-0.4771212
-3.734864	纺织
-3.945911	放	-0.30103
-3.734864	放大
-3.734864	放松
-4.246942	放下	-0.30103
-3.945911	放心	-0.30103
-4.246942	放羊	-0.30103
-4.246942	放养	-0.30103
-3.734864	放在
-4.246942	菲利普	-0.30103
-3.945911	非	-0.30103
-3.547971	非常	-0.30103
-4.246942	非法	-0.30103
-4.246942	非凡	-0.30103
-4.246942	非洲	-0.30103
-3.46879	飞	-0.3424227
-3.76982	飞机	-0.30103
-4.246942	飞速	-0.30103
-4.246942	飞行	-0.30103
-4.246942	肥壮	-0.30103
-3.734864	废墟
-4.246942	费力	-0.30103
-4.246942	费斯图	-0.30103
-3.76982	费用	-0.30103
-3.945911	分	-0.30103
-4.246942	分辨率	-0.30103
-3.644881	分别	-0.30103
-4.246942	分布	-0.30103
-3.734864	分担
-4.246942	分割	-0.30103
-4.246942	分工	-0.30103
-3.734864	分配
-4.246942	分批	-0.30103
-4.246942	分片	-0.30103
-4.246942	分析	-0.30103
-4.246942	分钟	-0.30103
-3.76982	分子	-0.39794
-4.246942	纷繁	-0.30103
-4.246942	纷纷	-0.30103
-4.246942	坟	-0.30103
-4.246942	坟冢	-0.30103
-4.246942	粉碎	-0.30103
-3.945911	奋斗	-0.30103
-3.945911	奋力	-0.30103
-4.246942	份	-0.30103
-4.246942	份儿	-0.30103
-4.246942	愤慨	-0.30103
-3.547971	丰富	-0.3521825
-4.246942	丰厚	-0.30103
-4.246942	丰美	-0.30103
-3.945911	丰收	-0.30103
-3.945911	封	-0.30103
-4.246942	封建	-0.30103
-3.76982	封锁	-0.30103
-3.734864	蜂拥而上
-4.246942	峰峦	-0.30103
-4.246942	锋芒	-0.30103
-4.246942	风	-0.30103
-4.246942	风波	-0.30103
-3.46879	风格	-0.4771212
-4.246942	风骨	-0.30103
-4.246942	风吼	-0.30103
-3.734864	风浪
-4.246942	风貌	-0.30103
-3.734864	风骚
-4.246942	风味	-0.30103
-4.246942	风险	-0.30103
-4.246942	疯丫头	-0.30103
-3.734864	佛
-3.945911	佛教	-0.30103
-3.734864	佛蒙特
-3.734864	佛山市
-3.734864	佛像
-3.945911	佛协	-0.30103
-3.734864	否
-4.246942	否定	-0.30103
-4.246942	否决	-0.30103
-4.246942	否认	-0.30103
-3.734864	夫妇
-3.734864	夫妻
-3.734864	夫人
-3.734864	肤色
-4.246942	拂过	-0.30103
-4.246942	幅度	-0.30103
-3.734864	符合
-3.644881	服务	-0.4771213
-4.246942	服务员	-0.30103
-4.246942	服用	-0.30103
-4.246942	浮	-0.30103
-4.246942	浮雕	-0.30103
-4.246942	福建	-0.30103
-3.734864	福源
-4.246942	福州	-0.30103
-3.734864	弗利泽
-3.734864	抚
-3.734864	抚养
-4.246942	腐败	-0.30103
-3.945911	赴	-0.30103
-3.945911	副	-0.30103
-3.734864	副总
-3.945911	覆盖	-0.30103
-4.246942	赋予	-0.30103
-4.246942	复苏	-0.30103
-3.945911	复杂	-0.30103
-3.734864	付
-4.246942	付出	-0.30103
-3.734864	付款
-4.246942	父母	-0.30103
-3.734864	腹部
-3.734864	腹地
-4.246942	负担	-0.30103
-3.734864	负伤
-3.46879	负责	-0.3424227
-3.945911	负责人	-0.30103
-4.246942	富	-0.30103
-4.246942	富国	-0.30103
-3.945911	富翁	-0.30103
-4.246942	妇女	-0.30103
-3.734864	缚住
-3.132998	该	-0.3187588
-3.945911	改	-0.4771212
-4.246942	改变	-0.30103
-3.292699	改革	-0.447158
-3.734864	改建
-3.644881	改善	-0.30103
-4.246942	盖	-0.30103
-3.76982	干	-0.30103
-3.644881	干部	-0.3679768
-4.246942	干警	-0.30103
-3.734864	干吗
-4.246942	干涉	-0.30103
-4.246942	干预	-0.30103
-3.734864	干燥
-4.246942	甘草	-0.30103
-4.246942	甘肃	-0.30103
-4.246942	甘心	-0.30103
-3.945911	肝	-0.30103
-3.945911	赶	-0.30103
-4.246942	感	-0.30103
-3.644881	感到	-0.30103
-3.734864	感动
-3.734864	感觉
-4.246942	感慨	-0.30103
-4.246942	感情	-0.30103
-3.76982	感受	-0.30103
-3.644881	感谢	-0.4771212
-3.734864	敢
-3.734864	敢于
-4.246942	赣江	-0.30103
-3.945911	刚	-0.30103
-4.246942	刚才	-0.30103
-4.246942	刚刚	-0.30103
-3.734864	刚毅
-3.734864	钢琴
-3.734864	纲
-4.246942	纲领	-0.30103
-3.734864	岗
-4.246942	岗位	-0.30103
-3.734864	港
-4.246942	港澳	-0.30103
-3.945911	港口	-0.30103
-3.945911	港湾	-0.30103
-3.343852	高	-0.30103
-4.246942	高昂	-0.30103
-4.246942	高产	-0.30103
-4.246942	高达	-0.30103
-4.246942	高大	-0.30103
-4.246942	高档	-0.30103
-3.734864	高度
-3.734864	高估
-3.945911	高级	-0.30103
-4.246942	高举	-0.30103
-4.246942	高黎贡	-0.30103
-3.734864	高利
-3.734864	高粱
-3.734864	高楼
-4.246942	高三	-0.30103
-4.246942	高山	-0.30103
-4.246942	高速	-0.30103
-4.246942	高温	-0.30103
-3.734864	高效
-3.76982	高兴	-0.30103
-4.246942	高雅	-0.30103
-4.246942	高原	-0.30103
-3.76982	搞	-0.30103
-3.76982	告诉	-0.30103
-4.246942	歌	-0.30103
-4.246942	歌声	-0.30103
-4.246942	歌舞	-0.30103
-4.246942	戈壁滩	-0.30103
-3.945911	戈兰高地	-0.30103
-4.246942	割据	-0.30103
-3.734864	割破
-3.734864	革车
-4.246942	革新	-0.30103
-3.734864	葛
-3.76982	格	-0.30103
-4.246942	格鲁吉亚	-0.30103
-3.734864	格萨尔
-4.246942	阁下	-0.30103
-3.734864	隔
-4.246942	隔岸	-0.30103
-4.246942	隔河岩	-0.30103
-4.246942	隔膜	-0.30103
-2.945911	个	-0.3245111
-3.734864	个别
-3.76982	个人	-0.30103
-3.734864	个体
-3.734864	个体户
-3.343852	各	-0.4149733
-3.644881	各地	-0.30103
-3.547971	各个	-0.3521825
-3.644881	各国	-0.30103
-3.945911	各户	-0.30103
-3.76982	各级	-0.30103
-3.945911	各家	-0.4771212
-4.246942	各位	-0.30103
-3.547971	各项	-0.4259687
-3.246942	各种	-0.30103
-3.644881	各自	-0.4771212
-3.343852	给	-0.3309932
-3.945911	给我	-0.4771213
-3.945911	给予	-0.30103
-3.76982	根	-0.30103
-3.945911	根本	-0.30103
-4.246942	根茨	-0.30103
-3.547971	根据	-0.30103
-3.945911	跟	-0.30103
-4.246942	跟不上	-0.30103
-3.945911	跟着	-0.30103
-4.246942	跟踪	-0.30103
-4.246942	耕地	-0.30103
-3.401844	更	-0.3357921
-3.734864	更大
-3.644881	更多	-0.4771213
-3.644881	更好	-0.4771213
-3.734864	更换
-3.945911	更加	-0.30103
-3.734864	更容易
-3.734864	更正
-3.945911	工	-0.30103
-3.734864	工厂
-3.042822	工程	-0.3679768
-3.734864	工程师
-3.734864	工地
-3.945911	工具	-0.30103
-4.246942	工区	-0.30103
-3.76982	工人	-0.30103
-4.246942	工商联	-0.30103
-3.644881	工业	-0.30103
-2.885214	工作	-0.4900862
-4.246942	工作室	-0.30103
-4.246942	攻关	-0.30103
-4.246942	攻击	-0.30103
-3.945911	功底	-0.30103
-3.945911	功能	-0.4771212
-3.734864	供热
-3.945911	供水	-0.30103
-4.246942	供应	-0.30103
-4.246942	公安	-0.30103
-4.246942	公报	-0.30103
-4.246942	公共	-0.30103
-3.76982	公斤	-0.30103
-3.945911	公开	-0.30103
-4.246942	公款	-0.30103
-3.547971	公里	-0.544068
-3.547971	公路	-0.30103
-3.644881	公民	-0.3679768
-4.246942	公然	-0.30103
-4.246942	公署	-0.30103
-3.292699	公司	-0.30103
-3.945911	公务	-0.4771212
-4.246942	公正	-0.30103
-3.734864	公主
-3.945911	巩固	-0.30103
-3.945911	拱北	-0.4771213
-3.644881	贡献	-0.69897
-3.343852	共	-0.3309932
-3.76982	共和国	-0.30103
-3.945911	共识	-0.4771212
-3.644881	共同	-0.3679768
-3.734864	沟
-3.734864	狗肉
-4.246942	构思	-0.30103
-3.945911	购买	-0.30103
-4.246942	购置	-0.30103
-4.246942	估量	-0.30103
-3.734864	估算
-3.734864	孤傲
-3.547971	姑娘	-0.3521825
-4.246942	姑娘们	-0.30103
-4.246942	鼓	-0.30103
-4.246942	鼓吹	-0.30103
-4.246942	鼓劲	-0.30103
-3.734864	鼓励
-4.246942	鼓舞	-0.30103
-4.246942	古	-0.30103
-4.246942	古巴	-0.30103
-4.246942	古城	-0.30103
-4.246942	古老	-0.30103
-4.246942	古时	-0.30103
-3.734864	骨干
-3.734864	骨节
-4.246942	谷氨酸	-0.30103
-4.246942	谷底	-0.30103
-4.246942	股	-0.30103
-3.734864	股份
-4.246942	股份制	-0.30103
-4.246942	股民	-0.30103
-3.76982	股票	-0.30103
-4.246942	故宫	-0.30103
-3.734864	故居
-4.246942	故事	-0.30103
-3.945911	故意	-0.4771212
-4.246942	顾不上	-0.30103
-3.734864	顾客
-3.734864	顾虑
-4.246942	固定	-0.30103
-3.734864	雇工
-3.734864	雇员
-4.246942	刮	-0.30103
-3.734864	刮风
-4.246942	寡妇	-0.30103
-3.945911	挂	-0.30103
-4.246942	挂牌	-0.30103
-3.734864	挂着
-4.246942	怪怪	-0.30103
-3.644881	关	-0.3679768
-3.734864	关怀
-4.246942	关贸	-0.30103
-3.945911	关税	-0.30103
-4.246942	关头	-0.30103
-2.885214	关系	-0.4036924
-3.76982	关心	-0.30103
-3.644881	关于	-0.30103
-4.246942	关员	-0.30103
-3.945911	关注	-0.30103
-4.246942	官兵	-0.30103
-3.734864	官方
-4.246942	官员	-0.30103
-4.246942	观测所	-0.30103
-3.734864	观察
-4.246942	观看	-0.30103
-3.734864	观望
-3.644881	观众	-0.30103
-4.246942	管	-0.30103
-3.205549	管理	-0.3756636
-4.246942	灌水	-0.30103
-3.945911	贯彻	-0.30103
-4.246942	贯穿	-0.30103
-3.734864	贯通
-3.734864	光
-4.246942	光辉	-0.30103
-4.246942	光荣	-0.30103
-3.945911	光子	-0.4771212
-4.246942	广播	-0.30103
-3.945911	广场	-0.30103
-3.547971	广大	-0.4259687
-3.644881	广泛	-0.4771212
-4.246942	广告	-0.30103
-3.945911	广阔	-0.30103
-4.246942	广谱	-0.30103
-3.547971	规定	-0.5440681
-4.246942	规范	-0.30103
-3.76982	规划	-0.30103
-3.734864	规划图
-4.246942	规律	-0.30103
-3.945911	规模	-0.30103
-4.246942	规章	-0.30103
-4.246942	轨	-0.30103
-3.945911	轨道	-0.4771212
-4.246942	轨迹	-0.30103
-3.734864	桂兴
-4.246942	跪倒	-0.30103
-3.945911	贵宾	-0.30103
-4.246942	贵荣	-0.30103
-3.734864	贵州
-4.246942	滚打	-0.30103
-3.734864	滚钓
-3.734864	滚滚
-3.945911	郭	-0.30103
-3.945911	国	-0.30103
-4.246942	国产	-0.30103
-4.246942	国大	-0.30103
-4.246942	国法	-0.30103
-3.76982	国防	-0.60206
-4.246942	国防部	-0.30103
-3.734864	国风
-2.86673	国际	-0.3823349
-4.246942	国际化	-0.30103
-4.246942	国际性	-0.30103
-2.799783	国家	-0.3263358
-3.734864	国界
-4.246942	国民	-0.30103
-3.945911	国民党	-0.30103
-3.401844	国内	-0.30103
-3.734864	国旗
-3.734864	国情
-4.246942	国外	-0.30103
-3.734864	国务卿
-3.46879	国务院	-0.30103
-4.246942	国有	-0.30103
-4.246942	国葬	-0.30103
-3.734864	果皮
-3.734864	裹
-3.401844	过	-0.30103
-3.76982	过程	-0.60206
-3.644881	过渡	-0.30103
-3.734864	过分
-3.734864	过来
-3.547971	过去	-0.30103
-3.734864	过水
-3.734864	哈
-4.246942	哈达	-0.30103
-3.734864	哈尔滨
-3.734864	哈哈哈
-3.734864	哈密
-4.246942	哈萨克	-0.30103
-4.246942	哈韦尔	-0.30103
-3.734864	哈着
-4.246942	孩童	-0.30103
-3.401844	孩子	-0.30103
-3.734864	海
-4.246942	海岸	-0.30103
-3.945911	海地	-0.30103
-3.945911	海淀区	-0.30103
-4.246942	海恩斯	-0.30103
-3.401844	海关	-0.30103
-3.734864	海军
-4.246942	海浪	-0.30103
-3.734864	海伦
-4.246942	海内外	-0.30103
-3.76982	海外	-0.30103
-3.401844	海洋	-0.5228788
-4.246942	海洋局	-0.30103
-4.246942	海因茨	-0.30103
-4.246942	海云庵	-0.30103
-4.246942	害	-0.30103
-4.246942	害虫	-0.30103
-4.246942	害民	-0.30103
-3.734864	韩
-3.734864	寒冬
-4.246942	寒冷	-0.30103
-3.945911	喊	-0.30103
-4.246942	捍卫	-0.30103
-4.246942	旱藕	-0.30103
-4.246942	憾	-0.30103
-4.246942	焊接	-0.30103
-3.734864	汗水
-4.246942	汗涔涔	-0.30103
-4.246942	汉子	-0.30103
-4.246942	航班	-0.30103
-4.246942	航测	-0.30103
-3.76982	航空	-0.30103
-4.246942	航天	-0.30103
-4.246942	航站楼	-0.30103
-4.246942	航站区	-0.30103
-3.644881	毫无	-0.30103
-3.401844	好	-0.3802112
-4.246942	好处	-0.30103
-4.246942	好评	-0.30103
-4.246942	好事	-0.30103
-4.246942	好心人	-0.30103
-3.734864	号
-3.734864	喝
-3.734864	荷兰
-4.246942	菏泽	-0.30103
-3.734864	核
-3.734864	核岛
-3.734864	核电
-3.734864	核实
-2.182483	和	-0.3344538
-4.246942	和解	-0.30103
-3.246942	和平	-0.4771213
-3.945911	和谈	-0.4771213
-4.246942	和谐	-0.30103
-4.246942	何尝	-0.30103
-3.734864	何等
-3.734864	合
-3.945911	合法	-0.30103
-4.246942	合格证	-0.30103
-4.246942	合理	-0.30103
-4.246942	合理化	-0.30103
-3.734864	合身
-4.246942	合适	-0.30103
-3.734864	合同
-4.246942	合织	-0.30103
-4.246942	合资	-0.30103
-3.734864	合奏
-2.924722	合作	-0.39794
-3.734864	河
-4.246942	河北	-0.30103
-4.246942	河北省	-0.30103
-3.734864	河洪村
-3.945911	河南	-0.30103
-4.246942	贺电	-0.30103
-4.246942	贺信	-0.30103
-4.246942	黑	-0.30103
-4.246942	黑暗	-0.30103
-3.734864	黑潮
-3.734864	黑发
-3.945911	黑龙江	-0.4771213
-3.945911	黑色	-0.30103
-4.246942	黑穗	-0.30103
-3.945911	黑穗病	-0.30103
-3.16776	很	-0.3203351
-3.945911	很大	-0.4771213
-4.246942	很多	-0.30103
-3.945911	很好	-0.30103
-4.246942	很久	-0.30103
-3.945911	很快	-0.30103
-3.734864	很难
-4.246942	恨	-0.30103
-3.734864	横穿
-4.246942	横跨	-0.30103
-3.734864	衡阳
-4.246942	恒星	-0.30103
-4.246942	恒压	-0.30103
-3.734864	轰轰烈烈
-3.734864	轰鸣
-4.246942	哄抬	-0.30103
-4.246942	洪	-0.30103
-4.246942	洪河	-0.30103
-4.246942	宏安	-0.30103
-3.945911	宏观	-0.4771212
-4.246942	宏阔	-0.30103
-4.246942	宏伟	-0.30103
-3.945911	弘扬	-0.30103
-3.945911	红	-0.30103
-4.246942	红花	-0.30103
-4.246942	红军	-0.30103
-3.734864	红梅
-3.734864	红色
-3.734864	红烧肉
-4.246942	红十字	-0.30103
-4.246942	红桃	-0.30103
-4.246942	红嘴鸥	-0.30103
-3.734864	侯
-4.246942	厚	-0.30103
-4.246942	候车	-0.30103
-4.246942	候车室	-0.30103
-4.246942	候选人	-0.30103
-3.042822	后	-0.4149734
-3.734864	后盾
-3.734864	后人
-4.246942	呼唤	-0.30103
-4.246942	呼伦贝尔	-0.30103
-3.734864	呼吸
-4.246942	呼吁	-0.30103
-4.246942	胡	-0.30103
-4.246942	胡尔阿	-0.30103
-3.945911	湖北	-0.30103
-3.945911	湖北省	-0.30103
-4.246942	湖面	-0.30103
-4.246942	护身符	-0.30103
-3.76982	护照	-0.60206
-3.945911	互	-0.30103
-4.246942	互补性	-0.30103
-4.246942	互访	-0.30103
-4.246942	互惠	-0.30103
-3.76982	互利	-0.39794
-4.246942	互相	-0.30103
-4.246942	沪	-0.30103
-4.246942	沪宁	-0.30103
-3.644881	户	-0.3679768
-3.644881	花	-0.3679768
-3.734864	花甲
-4.246942	花钱	-0.30103
-4.246942	花桥镇	-0.30103
-4.246942	花园	-0.30103
-3.734864	哗然
-3.945911	华	-0.30103
-4.246942	华东	-0.30103
-4.246942	华盛顿	-0.30103
-4.246942	华西	-0.30103
-3.734864	华夏
-4.246942	华业	-0.30103
-4.246942	滑水	-0.30103
-3.945911	画	-0.30103
-3.945911	画面	-0.30103
-3.734864	画史
-4.246942	化	-0.30103
-3.734864	化瘀
-4.246942	话	-0.30103
-4.246942	话剧	-0.30103
-3.734864	话题
-4.246942	怀	-0.30103
-4.246942	怀疑	-0.30103
-4.246942	怀远县	-0.30103
-4.246942	怀着	-0.30103
-3.734864	淮安
-4.246942	欢	-0.30103
-4.246942	欢乐	-0.30103
-3.46879	欢迎	-0.30103
-3.945911	环	-0.30103
-3.734864	环保
-4.246942	环节	-0.30103
-3.246942	环境	-0.3853509
-2.849001	还	-0.3521825
-3.734864	还得
-4.246942	还击	-0.30103
-3.547971	还是	-0.30103
-4.246942	还行	-0.30103
-3.644881	还有	-0.30103
-4.246942	还在	-0.30103
-4.246942	缓	-0.30103
-4.246942	缓急	-0.30103
-4.246942	换	-0.30103
-3.945911	患者	-0.30103
-3.734864	唤
-3.734864	焕发
-4.246942	涣散	-0.30103
-3.734864	幻化
-4.246942	荒地	-0.30103
-4.246942	荒山	-0.30103
-3.734864	黄
-4.246942	黄乎乎	-0.30103
-3.734864	黄家蓬
-4.246942	黄金	-0.30103
-3.734864	黄山
-4.246942	皇帝	-0.30103
-3.734864	晃
-4.246942	灰	-0.30103
-4.246942	灰心	-0.30103
-3.734864	辉
-3.401844	恢复	-0.30103
-4.246942	恢弘	-0.30103
-3.945911	回	-0.30103
-4.246942	回答	-0.30103
-3.734864	回到
-4.246942	回顾	-0.30103
-4.246942	回国	-0.30103
-4.246942	回合	-0.30103
-4.246942	回家	-0.30103
-3.734864	回馈
-3.734864	回来
-3.734864	回去
-3.734864	回天之力
-3.734864	回忆
-3.734864	毁
-4.246942	慧	-0.30103
-4.246942	贿赂	-0.30103
-3.16776	会	-0.30103
-4.246942	会场	-0.30103
-4.246942	会歌	-0.30103
-3.644881	会见	-0.30103
-4.246942	会面	-0.30103
-4.246942	会旗	-0.30103
-3.644881	会谈	-0.30103
-4.246942	会堂	-0.30103
-3.76982	会晤	-0.39794
-3.246942	会议	-0.3245111
-3.76982	会员	-0.30103
-3.734864	汇
-4.246942	汇率	-0.30103
-3.734864	婚
-4.246942	婚礼	-0.30103
-3.734864	婚姻
-4.246942	混存	-0.30103
-4.246942	混放	-0.30103
-4.246942	混合泳	-0.30103
-4.246942	混乱	-0.30103
-3.945911	活	-0.30103
-3.46879	活动	-0.845098
-3.945911	活力	-0.4771212
-3.734864	活跃
-3.76982	伙伴	-0.39794
-3.734864	火车
-4.246942	火车站	-0.30103
-3.945911	火电厂	-0.30103
-4.246942	火腿	-0.30103
-4.246942	火灾	-0.30103
-4.246942	获	-0.30103
-3.644881	获得	-0.30103
-4.246942	获奖	-0.30103
-4.246942	获奖者	-0.30103
-3.734864	获悉
-3.246942	或	-0.3245111
-3.734864	货
-3.734864	货款
-3.734864	货色
-4.246942	货运	-0.30103
-4.246942	击败	-0.30103
-3.76982	基本	-0.30103
-4.246942	基本法	-0.30103
-4.246942	基层	-0.30103
-3.401844	基础	-0.4393327
-4.246942	基地	-0.30103
-4.246942	基尼吉	-0.30103
-4.246942	基石	-0.30103
-3.734864	基因
-4.246942	机	-0.30103
-3.76982	机场	-0.30103
-3.46879	机构	-0.39794
-3.644881	机关	-0.30103
-3.945911	机会	-0.4771212
-3.734864	机井
-3.734864	机器
-4.246942	机身	-0.30103
-3.734864	畸形
-3.246942	积极	-0.4259687
-4.246942	积极性	-0.30103
-4.246942	积雪	-0.30103
-3.734864	肌肉
-4.246942	饥儿	-0.30103
-4.246942	迹象	-0.30103
-4.246942	激发	-0.30103
-4.246942	激进	-0.30103
-4.246942	激烈	-0.30103
-4.246942	激流	-0.30103
-3.945911	鸡	-0.30103
-4.246942	鸡翅	-0.30103
-3.734864	姬
-4.246942	缉查	-0.30103
-3.734864	吉安湾
-4.246942	吉祥	-0.30103
-4.246942	极其	-0.30103
-4.246942	辑录	-0.30103
-3.734864	集体
-3.945911	集团	-0.30103
-3.734864	集约
-3.547971	集镇	-0.30103
-3.945911	集中	-0.30103
-4.246942	集资	-0.30103
-3.644881	及	-0.3679768
-3.945911	及其	-0.30103
-3.734864	及时
-3.945911	急	-0.30103
-3.734864	急促
-4.246942	急剧	-0.30103
-3.734864	急速
-4.246942	急需	-0.30103
-4.246942	疾病	-0.30103
-4.246942	即	-0.30103
-3.945911	即将	-0.30103
-4.246942	即使	-0.30103
-3.734864	级
-4.246942	挤压	-0.30103
-3.644881	几	-0.3679768
-3.734864	几次
-3.734864	几分
-3.945911	几个	-0.30103
-4.246942	几个月	-0.30103
-3.945911	几乎	-0.30103
-3.945911	几年	-0.30103
-4.246942	几千	-0.30103
-3.945911	几十	-0.30103
-4.246942	技法	-0.30103
-3.292699	技术	-0.30103
-4.246942	季度	-0.30103
-3.734864	季风
-4.246942	寄托	-0.30103
-4.246942	寂寞	-0.30103
-3.945911	计	-0.30103
-3.401844	计划	-0.30103
-3.945911	计划生育	-0.30103
-3.945911	计划署	-0.30103
-3.734864	计算
-3.945911	计算机	-0.30103
-4.246942	记录	-0.30103
-4.246942	记忆	-0.30103
-4.246942	记忆犹新	-0.30103
-3.07085	记者	-0.3332147
-4.246942	记住	-0.30103
-3.76982	既	-0.30103
-4.246942	际	-0.30103
-4.246942	继仁	-0.30103
-3.734864	继森
-3.644881	继续	-0.30103
-4.246942	纪录	-0.30103
-4.246942	纪念日	-0.30103
-4.246942	纪要	-0.30103
-4.246942	嘉庚	-0.30103
-3.547971	家	-0.30103
-3.945911	家长	-0.30103
-3.734864	家电
-3.76982	家里	-0.30103
-4.246942	家人	-0.30103
-3.76982	家庭	-0.30103
-3.734864	家乡
-4.246942	加	-0.30103
-3.734864	加倍
-4.246942	加大	-0.30103
-3.945911	加工	-0.30103
-4.246942	加工业	-0.30103
-3.644881	加快	-0.30103
-4.246942	加姆萨	-0.30103
-4.246942	加纳	-0.30103
-3.042822	加强	-0.3484547
-4.246942	加入	-0.30103
-4.246942	加沙	-0.30103
-4.246942	加上	-0.30103
-4.246942	加深	-0.30103
-3.734864	贾
-4.246942	假冒伪劣	-0.30103
-3.734864	价额
-3.46879	价格	-0.30103
-4.246942	价值	-0.30103
-3.734864	架子
-4.246942	驾驶台	-0.30103
-3.76982	监测	-0.39794
-4.246942	监督	-0.30103
-4.246942	监视	-0.30103
-3.644881	坚持	-0.30103
-3.76982	坚决	-0.30103
-3.46879	间	-0.4771212
-4.246942	肩膀	-0.30103
-4.246942	艰巨	-0.30103
-3.734864	艰辛
-3.945911	检	-0.30103
-3.76982	检查	-0.30103
-3.76982	检察	-0.39794
-4.246942	检察长	-0.30103
-3.945911	检察官	-0.30103
-4.246942	检察院	-0.30103
-4.246942	检疫	-0.30103
-4.246942	检疫法	-0.30103
-3.945911	检疫局	-0.30103
-4.246942	柬	-0.30103
-3.644881	柬埔寨	-0.3679768
-4.246942	简洁	-0.30103
-4.246942	简朴	-0.30103
-3.734864	剪裁
-4.246942	剪彩	-0.30103
-4.246942	剪纸	-0.30103
-3.76982	减	-0.39794
-3.945911	减产	-0.30103
-3.945911	减少	-0.30103
-3.76982	鉴定	-0.60206
-4.246942	践踏	-0.30103
-4.246942	见	-0.30103
-4.246942	见解	-0.30103
-3.734864	见效
-4.246942	键盘	-0.30103
-3.945911	件	-0.4771212
-4.246942	健儿	-0.30103
-3.945911	健康	-0.4771213
-4.246942	健美	-0.30103
-4.246942	健全	-0.30103
-4.246942	剑虹	-0.30103
-4.246942	渐进	-0.30103
-3.734864	建
-3.76982	建成	-0.39794
-3.945911	建交	-0.30103
-4.246942	建科	-0.30103
-3.401844	建立	-0.4393327
-2.799783	建设	-0.3679768
-3.644881	建议	-0.30103
-3.734864	建制
-3.547971	建筑	-0.30103
-4.246942	僵持不下	-0.30103
-2.75558	将	-0.3601514
-4.246942	将军	-0.30103
-4.246942	将来	-0.30103
-4.246942	江	-0.30103
-4.246942	江河	-0.30103
-4.246942	江南	-0.30103
-3.945911	江苏	-0.30103
-4.246942	江苏省	-0.30103
-3.76982	江西	-0.30103
-3.945911	江西省	-0.30103
-3.644881	江泽民	-0.3679768
-4.246942	蒋	-0.30103
-3.401844	奖	-0.3802112
-4.246942	奖惩	-0.30103
-4.246942	讲	-0.30103
-3.76982	讲话	-0.39794
-4.246942	讲求	-0.30103
-4.246942	讲演	-0.30103
-3.734864	酱菜
-4.246942	降	-0.30103
-3.945911	降低	-0.30103
-4.246942	降耗	-0.30103
-4.246942	礁堡	-0.30103
-3.945911	交	-0.30103
-4.246942	交出	-0.30103
-4.246942	交换	-0.30103
-3.734864	交换机
-4.246942	交加	-0.30103
-4.246942	交接	-0.30103
-3.547971	交流	-0.3521825
-3.945911	交谈	-0.4771212
-4.246942	交通	-0.30103
-4.246942	交往	-0.30103
-4.246942	交响曲	-0.30103
-3.76982	交易	-0.30103
-4.246942	交易池	-0.30103
-4.246942	交易所	-0.30103
-3.945911	郊区	-0.30103
-4.246942	娇惯	-0.30103
-4.246942	铰花	-0.30103
-4.246942	角度	-0.30103
-4.246942	教练员	-0.30103
-4.246942	教师	-0.30103
-4.246942	教授	-0.30103
-3.734864	教堂
-4.246942	教委	-0.30103
-4.246942	教学	-0.30103
-4.246942	教训	-0.30103
-3.945911	教育	-0.30103
-4.246942	教员	-0.30103
-3.734864	轿车
-3.945911	较	-0.30103
-3.945911	较大	-0.30103
-4.246942	较好	-0.30103
-4.246942	较量	-0.30103
-3.644881	叫	-0.30103
-4.246942	叫好	-0.30103
-4.246942	叫苦不迭	-0.30103
-3.945911	揭幕	-0.30103
-4.246942	揭晓	-0.30103
-4.246942	接	-0.30103
-4.246942	接触	-0.30103
-4.246942	接待	-0.30103
-4.246942	接二连三	-0.30103
-4.246942	接近	-0.30103
-3.734864	接连
-3.734864	接任
-3.547971	接受	-0.3521825
-3.734864	接送
-4.246942	街	-0.30103
-3.734864	街头
-4.246942	阶级	-0.30103
-4.246942	截获	-0.30103
-3.76982	截留	-0.39794
-3.734864	截然
-4.246942	劫掠	-0.30103
-4.246942	节	-0.30103
-4.246942	节目	-0.30103
-3.734864	节能
-4.246942	节日	-0.30103
-4.246942	杰出	-0.30103
-4.246942	杰里	-0.30103
-4.246942	杰里科	-0.30103
-4.246942	睫毛	-0.30103
-4.246942	洁白	-0.30103
-4.246942	洁净	-0.30103
-3.734864	结
-3.644881	结构	-0.3679768
-3.76982	结果	-0.60206
-3.945911	结合	-0.30103
-3.734864	结婚
-3.734864	结婚证
-3.734864	结局
-3.46879	结束	-0.39794
-4.246942	解除	-0.30103
-3.76982	解放	-0.39794
-4.246942	解放军	-0.30103
-3.205549	解决	-0.3467875
-3.734864	戒
-4.246942	戒烟	-0.30103
-3.644881	界	-0.30103
-4.246942	借此	-0.30103
-4.246942	借贷	-0.30103
-3.945911	借方	-0.4771212
-3.644881	借鉴	-0.30103
-3.547971	介绍	-0.4259687
-3.401844	届	-0.30103
-3.945911	金	-0.30103
-3.734864	金额
-4.246942	金华	-0.30103
-4.246942	金矿	-0.30103
-3.734864	金梁
-4.246942	金牌	-0.30103
-4.246942	金日成	-0.30103
-3.547971	金融	-0.3521825
-4.246942	金融业	-0.30103
-4.246942	金属	-0.30103
-3.76982	金温	-0.60206
-3.945911	金字塔	-0.4771212
-3.945911	今后	-0.30103
-3.016493	今年	-0.3143939
-3.945911	今日	-0.30103
-3.042822	今天	-0.3679768
-4.246942	今晚	-0.30103
-4.246942	津	-0.30103
-3.644881	津巴布韦	-0.30103
-3.945911	紧	-0.4771213
-4.246942	紧急	-0.30103
-3.734864	紧紧
-3.734864	紧迫感
-4.246942	紧要	-0.30103
-4.246942	紧张	-0.30103
-3.401844	仅	-0.30103
-4.246942	仅仅	-0.30103
-4.246942	谨	-0.30103
-4.246942	谨慎	-0.30103
-3.945911	进	-0.30103
-4.246942	进步	-0.30103
-3.644881	进程	-0.3679768
-4.246942	进度	-0.30103
-3.734864	进而
-4.246942	进攻	-0.30103
-4.246942	进口	-0.30103
-4.246942	进来	-0.30103
-3.734864	进萍
-4.246942	进球	-0.30103
-3.734864	进去
-3.945911	进入	-0.30103
-2.924722	进行	-0.3640817
-3.343852	进一步	-0.3309933
-3.945911	进展	-0.4771212
-4.246942	进驻	-0.30103
-3.734864	晋中
-3.734864	禁区
-4.246942	禁渔	-0.30103
-4.246942	禁运	-0.30103
-3.343852	近	-0.30103
-3.945911	近几年	-0.30103
-3.76982	近年来	-0.30103
-3.734864	尽
-3.547971	尽管	-0.30103
-3.547971	尽快	-0.30103
-4.246942	尽早	-0.30103
-4.246942	劲风	-0.30103
-4.246942	兢兢业业	-0.30103
-3.76982	京	-0.30103
-4.246942	京调	-0.30103
-4.246942	京九	-0.30103
-3.734864	惊呼
-4.246942	惊叹	-0.30103
-3.945911	惊心动魄	-0.30103
-3.945911	精彩	-0.30103
-3.734864	精纺
-4.246942	精简	-0.30103
-4.246942	精密	-0.30103
-3.734864	精确
-3.292699	精神	-0.39794
-4.246942	精卫	-0.30103
-3.547971	经	-0.30103
-3.945911	经常	-0.30103
-3.734864	经得起
-3.547971	经过	-0.30103
-4.246942	经合	-0.30103
-2.715463	经济	-0.394147
-4.246942	经济学	-0.30103
-4.246942	经纪人	-0.30103
-3.734864	经理
-3.76982	经贸	-0.39794
-4.246942	经商	-0.30103
-4.246942	经受	-0.30103
-3.734864	经纬
-3.547971	经验	-0.4259687
-3.945911	经营	-0.30103
-3.945911	警察	-0.4771213
-4.246942	警方	-0.30103
-3.945911	警告	-0.4771212
-3.945911	警官	-0.30103
-3.945911	警惕	-0.30103
-4.246942	景恩	-0.30103
-4.246942	景胜	-0.30103
-3.734864	静静地
-4.246942	境	-0.30103
-4.246942	境内	-0.30103
-3.945911	竟	-0.30103
-4.246942	竟然	-0.30103
-3.734864	竞价
-4.246942	竞赛	-0.30103
-4.246942	炯	-0.30103
-3.734864	究竟
-4.246942	纠缠	-0.30103
-3.734864	久同
-3.547971	九	-0.30103
-4.246942	九百	-0.30103
-3.76982	九龙	-0.60206
-3.734864	九年
-4.246942	九三	-0.30103
-4.246942	九十	-0.30103
-4.246942	酒厂	-0.30103
-4.246942	酒店	-0.30103
-4.246942	救出	-0.30103
-4.246942	救护	-0.30103
-4.246942	救济	-0.30103
-3.734864	救命
-3.945911	旧	-0.4771212
-2.815578	就	-0.3180633
-4.246942	就得	-0.30103
-3.734864	就会
-3.644881	就能	-0.30103
-3.547971	就是	-0.30103
-4.246942	就位	-0.30103
-4.246942	就像	-0.30103
-4.246942	就绪	-0.30103
-4.246942	就业	-0.30103
-3.76982	就职	-0.39794
-3.734864	鞠躬尽瘁
-3.945911	居	-0.30103
-3.644881	居民	-0.30103
-3.734864	居然
-3.76982	居住	-0.30103
-3.945911	局	-0.30103
-4.246942	局部	-0.30103
-3.945911	局长	-0.30103
-3.945911	局面	-0.30103
-3.734864	局热
-4.246942	局势	-0.30103
-3.76982	举办	-0.39794
-4.246942	举目	-0.30103
-3.132998	举行	-0.4559319
-4.246942	举足轻重	-0.30103
-3.76982	拒绝	-0.30103
-3.343852	据	-0.3309932
-4.246942	据说	-0.30103
-4.246942	据悉	-0.30103
-3.734864	巨
-3.644881	巨大	-0.30103
-3.734864	巨额
-4.246942	巨浪	-0.30103
-4.246942	巨人	-0.30103
-4.246942	巨资	-0.30103
-4.246942	具备	-0.30103
-4.246942	具体	-0.30103
-3.292699	具有	-0.30103
-4.246942	距	-0.30103
-4.246942	距离	-0.30103
-4.246942	俱乐部	-0.30103
-4.246942	句	-0.30103
-3.945911	剧	-0.30103
-4.246942	剧烈	-0.30103
-3.734864	剧团
-3.734864	捐款
-3.734864	卷
-4.246942	觉得	-0.30103
-4.246942	决	-0.30103
-3.76982	决定	-0.30103
-4.246942	决心	-0.30103
-4.246942	决议	-0.30103
-3.945911	决战	-0.30103
-3.945911	绝	-0.30103
-4.246942	绝不会	-0.30103
-3.945911	均	-0.30103
-4.246942	菌瘿	-0.30103
-4.246942	军	-0.30103
-3.547971	军队	-0.30103
-4.246942	军方	-0.30103
-4.246942	军工	-0.30103
-4.246942	军官	-0.30103
-3.734864	军民
-4.246942	军区	-0.30103
-3.734864	军人
-3.644881	军事	-0.30103
-3.734864	军统
-3.644881	军团	-0.3679768
-4.246942	军委会	-0.30103
-4.246942	军心	-0.30103
-4.246942	峻岭	-0.30103
-4.246942	俊贤	-0.30103
-3.734864	卡车
-4.246942	卡尔森	-0.30103
-4.246942	卡片	-0.30103
-4.246942	卡普托	-0.30103
-3.734864	卡西莫多
-3.734864	卡赞扎
-3.945911	开	-0.30103
-4.246942	开办	-0.30103
-3.945911	开辟	-0.30103
-4.246942	开诚布公	-0.30103
-3.734864	开创
-3.734864	开动
-3.734864	开发
-3.945911	开发区	-0.30103
-3.46879	开放	-0.3424227
-4.246942	开封	-0.30103
-3.945911	开工	-0.30103
-4.246942	开朗	-0.30103
-3.734864	开滦
-3.945911	开幕	-0.4771212
-3.945911	开幕式	-0.4771213
-3.734864	开启
-3.292699	开始	-0.30103
-3.945911	开拓	-0.30103
-3.734864	开心
-3.76982	开展	-0.30103
-3.945911	勘测	-0.4771212
-4.246942	砍	-0.30103
-3.547971	看	-0.30103
-4.246942	看出	-0.30103
-3.76982	看到	-0.30103
-3.945911	看法	-0.30103
-4.246942	看来	-0.30103
-4.246942	看一看	-0.30103
-4.246942	康复	-0.30103
-3.734864	抗衡
-4.246942	抗税	-0.30103
-3.945911	考察	-0.4771212
-4.246942	考核	-0.30103
-3.945911	考虑	-0.30103
-3.734864	考验
-3.644881	靠	-0.30103
-4.246942	颗	-0.30103
-4.246942	科	-0.30103
-3.734864	科技
-4.246942	科室	-0.30103
-4.246942	科委	-0.30103
-3.644881	科学	-0.4771213
-3.945911	科学院	-0.30103
-4.246942	科研	-0.30103
-3.734864	咳嗽
-3.343852	可	-0.30103
-4.246942	可比	-0.30103
-3.734864	可否
-4.246942	可贵	-0.30103
-4.246942	可见	-0.30103
-3.734864	可卡因
-4.246942	可靠	-0.30103
-4.246942	可口	-0.30103
-3.46879	可能	-0.30103
-4.246942	可是	-0.30103
-4.246942	可疑	-0.30103
-3.644881	可以	-0.30103
-4.246942	可以说	-0.30103
-4.246942	克	-0.30103
-3.945911	克服	-0.30103
-4.246942	克莱	-0.30103
-4.246942	克莱因	-0.30103
-4.246942	克林顿	-0.30103
-3.734864	客车
-4.246942	客串	-0.30103
-4.246942	客店	-0.30103
-4.246942	客机	-0.30103
-4.246942	客人	-0.30103
-4.246942	客商	-0.30103
-4.246942	课题	-0.30103
-3.734864	坑
-3.644881	空白	-0.69897
-3.734864	空难
-3.734864	空穴来风
-4.246942	空中	-0.30103
-3.734864	恐怕
-3.734864	控
-3.945911	控制	-0.30103
-4.246942	口	-0.30103
-3.945911	口号	-0.30103
-4.246942	口述	-0.30103
-4.246942	口头	-0.30103
-4.246942	口音	-0.30103
-3.734864	哭
-4.246942	哭喊	-0.30103
-3.76982	苦	-0.60206
-3.945911	苦苦	-0.30103
-4.246942	苦恼	-0.30103
-4.246942	苦笑	-0.30103
-4.246942	苦于	-0.30103
-3.945911	库	-0.30103
-4.246942	夸父	-0.30103
-4.246942	跨	-0.30103
-3.734864	跨越
-3.76982	块	-0.39794
-3.547971	快	-0.30103
-3.734864	快门
-3.945911	快速	-0.30103
-3.734864	宽
-4.246942	宽敞	-0.30103
-4.246942	宽宽的	-0.30103
-4.246942	宽阔	-0.30103
-4.246942	宽心	-0.30103
-4.246942	筐	-0.30103
-4.246942	狂风	-0.30103
-4.246942	框架	-0.30103
-3.945911	亏损	-0.30103
-3.734864	捆
-3.401844	困难	-0.4393326
-3.945911	困难户	-0.30103
-4.246942	困扰	-0.30103
-3.76982	扩大	-0.30103
-3.76982	扩建	-0.60206
-3.734864	扩种
-3.734864	拉
-4.246942	拉宾	-0.30103
-3.734864	拉高
-4.246942	拉杰茨基	-0.30103
-4.246942	拉开	-0.30103
-3.734864	拉奴
-4.246942	拉萨	-0.30103
-3.734864	拉舍尔
-4.246942	拉威尔	-0.30103
-4.246942	拉走	-0.30103
-3.945911	喇叭	-0.4771213
-3.734864	腊月
-3.734864	辣
-3.734864	啦
-2.86673	来	-0.39794
-3.76982	来到	-0.30103
-4.246942	来电	-0.30103
-4.246942	来稿	-0.30103
-4.246942	来函	-0.30103
-3.945911	来华	-0.4771213
-3.734864	来临
-4.246942	来钱	-0.30103
-3.734864	来说
-3.734864	来信
-3.547971	来自	-0.30103
-3.734864	赖以
-4.246942	蓝图	-0.30103
-4.246942	烂摊子	-0.30103
-4.246942	浪潮	-0.30103
-4.246942	浪费	-0.30103
-4.246942	浪啸	-0.30103
-3.46879	劳动	-0.30103
-4.246942	劳动力	-0.30103
-3.734864	劳苦
-4.246942	劳伦斯	-0.30103
-3.945911	牢固	-0.30103
-4.246942	牢牢	-0.30103
-4.246942	牢骚	-0.30103
-4.246942	老	-0.30103
-4.246942	老百姓	-0.30103
-4.246942	老板	-0.30103
-4.246942	老汉	-0.30103
-3.945911	老虎	-0.4771212
-4.246942	老话	-0.30103
-3.734864	老泪纵横
-4.246942	老年人	-0.30103
-3.76982	老朋友	-0.39794
-3.945911	老区	-0.30103
-3.945911	老人	-0.30103
-3.734864	老师
-3.734864	老头子
-4.246942	老外	-0.30103
-4.246942	乐此不疲	-0.30103
-4.246942	乐队	-0.30103
-3.734864	乐于
-3.734864	乐园
-3.734864	乐章
-3.734864	雷场
-3.734864	蕾
-3.945911	累	-0.30103
-4.246942	累计	-0.30103
-3.734864	累死
-4.246942	类	-0.30103
-4.246942	冷	-0.30103
-3.734864	冷峻
-3.945911	冷门	-0.4771212
-3.734864	冷却
-3.734864	冷却塔
-3.734864	冷水
-4.246942	黎	-0.30103
-3.945911	黎巴嫩	-0.30103
-3.76982	离	-0.30103
-4.246942	离不开	-0.30103
-3.734864	离婚
-4.246942	离家出走	-0.30103
-3.945911	离开	-0.30103
-4.246942	离去	-0.30103
-4.246942	漓江	-0.30103
-4.246942	理	-0.30103
-4.246942	理解	-0.30103
-4.246942	理论	-0.30103
-4.246942	理想	-0.30103
-3.734864	理性
-3.734864	李
-4.246942	李广	-0.30103
-3.945911	李鹏	-0.30103
-4.246942	李瑞环	-0.30103
-3.042822	里	-0.3309932
-3.734864	里边
-4.246942	里程	-0.30103
-3.734864	里克欧尔
-3.734864	里屋
-4.246942	里亚多夫	-0.30103
-4.246942	丽	-0.30103
-3.734864	丽红
-4.246942	历程	-0.30103
-4.246942	历来	-0.30103
-4.246942	历任	-0.30103
-3.945911	历时	-0.30103
-3.292699	历史	-0.3273589
-3.734864	历数
-3.734864	利
-4.246942	利润	-0.30103
-4.246942	利税	-0.30103
-4.246942	利益	-0.30103
-3.945911	利用	-0.30103
-3.734864	例
-3.734864	例子
-4.246942	立案	-0.30103
-3.76982	立场	-0.39794
-3.644881	立即	-0.30103
-4.246942	立体	-0.30103
-4.246942	立文	-0.30103
-4.246942	立宪	-0.30103
-4.246942	立志	-0.30103
-4.246942	立足点	-0.30103
-4.246942	力	-0.30103
-4.246942	力度	-0.30103
-3.945911	力量	-0.30103
-3.734864	力所能及
-3.945911	联邦	-0.30103
-3.292699	联合	-0.30103
-3.945911	联合国	-0.30103
-4.246942	联军	-0.30103
-3.644881	联盟	-0.30103
-3.644881	联系	-0.4771213
-3.734864	连
-3.734864	连带
-3.734864	连连
-4.246942	连声	-0.30103
-3.945911	连续	-0.30103
-3.945911	连夜	-0.30103
-3.734864	连云港
-3.76982	廉	-0.30103
-4.246942	廉洁	-0.30103
-3.945911	廉政	-0.30103
-3.734864	脸
-3.734864	脸上
-4.246942	练	-0.30103
-3.734864	练功
-4.246942	粮霸	-0.30103
-3.945911	粮价	-0.30103
-3.547971	粮食	-0.3521825
-4.246942	凉	-0.30103
-3.76982	良好	-0.30103
-4.246942	良田	-0.30103
-3.547971	两	-0.30103
-3.76982	两岸	-0.30103
-4.246942	两侧	-0.30103
-4.246942	两次	-0.30103
-3.76982	两个	-0.30103
-4.246942	两个月	-0.30103
-3.042822	两国	-0.4436975
-4.246942	两季稻	-0.30103
-4.246942	两颗	-0.30103
-3.734864	两口
-3.76982	两年	-0.30103
-3.76982	两千	-0.30103
-3.734864	两三
-4.246942	两天	-0.30103
-4.246942	两腿	-0.30103
-3.945911	两位	-0.30103
-3.734864	两小时
-4.246942	两袖清风	-0.30103
-3.734864	两种
-3.734864	辆
-4.246942	亮相	-0.30103
-4.246942	疗法	-0.30103
-3.734864	辽东
-3.76982	辽阔	-0.60206
-3.734864	辽宁省
-2.042822	了	-0.3448089
-3.401844	了解	-0.3802112
-3.734864	镣伐
-4.246942	列队	-0.30103
-4.246942	列入	-0.30103
-4.246942	裂	-0.30103
-4.246942	劣势	-0.30103
-4.246942	林	-0.30103
-4.246942	林肯	-0.30103
-3.734864	林立
-3.945911	林业	-0.30103
-4.246942	临汾	-0.30103
-4.246942	临时	-0.30103
-4.246942	临走	-0.30103
-3.734864	淋
-4.246942	零八	-0.30103
-3.945911	零点	-0.30103
-4.246942	零售	-0.30103
-3.734864	零五
-3.734864	零下
-3.734864	伶仃岛
-4.246942	羚	-0.30103
-3.945911	凌晨	-0.30103
-4.246942	灵魂	-0.30103
-3.734864	灵验
-3.734864	领
-3.401844	领导	-0.3357921
-3.46879	领导人	-0.3424226
-3.734864	领路人
-4.246942	领略	-0.30103
-3.734864	领取
-4.246942	领土	-0.30103
-4.246942	领先	-0.30103
-3.292699	领域	-0.5118834
-3.644881	另	-0.30103
-4.246942	令	-0.30103
-3.76982	令人	-0.30103
-4.246942	榴弹炮	-0.30103
-3.734864	硫
-4.246942	留	-0.30103
-3.76982	留给	-0.30103
-3.644881	留下	-0.4771213
-3.734864	留影
-3.734864	留在
-3.734864	刘
-3.734864	流出
-4.246942	流窜	-0.30103
-3.734864	流氓
-3.76982	流通	-0.39794
-3.401844	六	-0.30103
-3.76982	六个	-0.30103
-4.246942	六零	-0.30103
-4.246942	六千	-0.30103
-4.246942	六日	-0.30103
-4.246942	六三	-0.30103
-3.945911	六十	-0.30103
-4.246942	六十三	-0.30103
-3.945911	六月	-0.30103
-3.734864	龙舟
-3.734864	隆冬
-3.945911	隆福	-0.4771212
-3.734864	隆隆
-3.734864	隆胸
-3.76982	隆重	-0.30103
-4.246942	垄断	-0.30103
-3.76982	楼	-0.30103
-4.246942	楼房	-0.30103
-4.246942	漏	-0.30103
-4.246942	漏洞	-0.30103
-4.246942	漏税	-0.30103
-4.246942	卢比	-0.30103
-4.246942	卢布	-0.30103
-3.734864	露
-3.734864	露出
-3.734864	露着
-3.945911	路口	-0.30103
-4.246942	路人	-0.30103
-4.246942	路网	-0.30103
-3.734864	鹿特丹
-4.246942	陆	-0.30103
-3.734864	陆奥宗光
-4.246942	旅店	-0.30103
-3.76982	旅客	-0.30103
-3.76982	旅游	-0.30103
-3.734864	履让
-3.734864	履行
-3.734864	履约
-4.246942	屡	-0.30103
-3.734864	屡屡
-3.734864	律师
-3.547971	率	-0.3521825
-4.246942	率先	-0.30103
-4.246942	绿	-0.30103
-3.734864	绿化
-4.246942	绿色	-0.30103
-4.246942	绿叶	-0.30103
-3.734864	绿绮园
-4.246942	掠过	-0.30103
-4.246942	轮	-0.30103
-4.246942	轮椅	-0.30103
-3.734864	论
-4.246942	罗巴伊纳	-0.30103
-3.945911	罗林斯	-0.30103
-3.734864	罗马尼亚
-4.246942	落	-0.30103
-3.76982	落后	-0.60206
-3.945911	落实	-0.30103
-3.76982	妈妈	-0.30103
-3.945911	麻城	-0.30103
-4.246942	麻木	-0.30103
-3.734864	麻醉
-4.246942	玛克	-0.30103
-3.734864	玛卿
-3.734864	玛雅
-3.734864	码头
-3.76982	马	-0.30103
-4.246942	马奥尼	-0.30103
-3.734864	马恩列
-4.246942	马耳他	-0.30103
-4.246942	马来西亚	-0.30103
-3.945911	马上	-0.30103
-4.246942	马嘶	-0.30103
-3.734864	马尾
-4.246942	吗	-0.30103
-3.46879	买	-0.30103
-3.945911	麦	-0.30103
-3.734864	麦区
-4.246942	卖	-0.30103
-3.734864	迈
-4.246942	满	-0.30103
-4.246942	满面春风	-0.30103
-3.644881	满意	-0.4771213
-4.246942	满载	-0.30103
-4.246942	满足	-0.30103
-4.246942	蔓延	-0.30103
-4.246942	曼德拉	-0.30103
-3.734864	慢
-4.246942	慢慢	-0.30103
-4.246942	慢声细语	-0.30103
-4.246942	漫	-0.30103
-3.734864	漫不经心
-3.734864	漫游
-4.246942	盲目	-0.30103
-3.734864	盲人
-3.734864	忙
-3.734864	猫
-4.246942	茅草	-0.30103
-3.734864	茅屋
-4.246942	毛	-0.30103
-3.734864	毛毛虫
-3.734864	毛毯
-3.734864	毛选
-3.734864	毛衣
-4.246942	毛泽东	-0.30103
-4.246942	毛竹	-0.30103
-4.246942	矛盾	-0.30103
-4.246942	茂芳	-0.30103
-3.734864	冒
-3.205549	贸易	-0.30103
-4.246942	贸易额	-0.30103
-4.246942	贸易量	-0.30103
-4.246942	么	-0.30103
-4.246942	枚	-0.30103
-4.246942	梅花	-0.30103
-3.734864	煤炭
-3.644881	没	-0.30103
-4.246942	没用	-0.30103
-3.100813	没有	-0.30103
-4.246942	媒介	-0.30103
-3.401844	每	-0.3357921
-3.734864	每次
-4.246942	每个	-0.30103
-4.246942	每家每户	-0.30103
-3.46879	每年	-0.30103
-4.246942	每日	-0.30103
-3.547971	每天	-0.30103
-4.246942	每月	-0.30103
-3.547971	美	-0.3521825
-4.246942	美德	-0.30103
-3.292699	美国	-0.30103
-3.945911	美好	-0.30103
-4.246942	美酒	-0.30103
-3.945911	美丽	-0.30103
-4.246942	美术	-0.30103
-4.246942	美学	-0.30103
-3.76982	美元	-0.60206
-3.734864	门
-4.246942	门店	-0.30103
-4.246942	门洞	-0.30103
-4.246942	门口	-0.30103
-3.734864	门前
-3.945911	门柱	-0.30103
-3.205549	们	-0.3756636
-3.734864	蒙
-3.734864	蒙古
-3.945911	蒙古包	-0.30103
-3.734864	蒙古国
-3.644881	蒙古族	-0.30103
-3.945911	蒙特卡洛	-0.30103
-4.246942	盟	-0.30103
-4.246942	盟军	-0.30103
-3.734864	盟主
-4.246942	梦想	-0.30103
-3.734864	迷
-3.292699	米	-0.3273589
-4.246942	米面	-0.30103
-4.246942	米质	-0.30103
-3.945911	秘书长	-0.30103
-3.734864	密布
-4.246942	密集	-0.30103
-4.246942	密密的	-0.30103
-3.644881	密切	-0.3679768
-3.734864	棉花
-4.246942	棉铃虫	-0.30103
-3.734864	棉签
-4.246942	绵	-0.30103
-3.945911	免	-0.30103
-3.734864	免费
-3.945911	免税	-0.30103
-3.734864	免疫
-4.246942	面的	-0.30103
-4.246942	面对	-0.30103
-3.76982	面积	-0.30103
-3.76982	面临	-0.30103
-3.734864	面前
-4.246942	描绘	-0.30103
-3.734864	描写
-3.945911	庙	-0.4771213
-4.246942	灭火	-0.30103
-4.246942	灭菌	-0.30103
-4.246942	民工	-0.30103
-4.246942	民间	-0.30103
-4.246942	民意	-0.30103
-4.246942	民阵	-0.30103
-4.246942	民众	-0.30103
-3.945911	民主	-0.30103
-3.945911	民族	-0.30103
-4.246942	敏感	-0.30103
-4.246942	明明灭灭	-0.30103
-4.246942	明年	-0.30103
-4.246942	明天	-0.30103
-3.46879	明显	-0.30103
-4.246942	鸣叫	-0.30103
-3.07085	名	-0.30103
-4.246942	名菜	-0.30103
-3.734864	名列
-3.734864	名义
-3.945911	命令	-0.30103
-3.734864	命名
-4.246942	命运	-0.30103
-4.246942	谬论	-0.30103
-3.945911	摸	-0.30103
-4.246942	摸底	-0.30103
-4.246942	摸爬	-0.30103
-3.734864	摸透
-4.246942	模范	-0.30103
-4.246942	模式	-0.30103
-3.734864	模特
-4.246942	模特儿	-0.30103
-4.246942	模型	-0.30103
-4.246942	磨难	-0.30103
-4.246942	摩擦	-0.30103
-4.246942	摩纳哥	-0.30103
-3.734864	莫尼克
-4.246942	莫斯科	-0.30103
-3.945911	墨	-0.4771212
-4.246942	墨迹	-0.30103
-4.246942	墨西哥	-0.30103
-4.246942	默尔恩	-0.30103
-4.246942	默默	-0.30103
-3.734864	默默无闻
-4.246942	陌生	-0.30103
-3.734864	谋
-3.734864	谋取
-3.945911	某	-0.30103
-4.246942	某某	-0.30103
-3.547971	某些	-0.3521825
-3.734864	某种
-3.76982	亩	-0.30103
-4.246942	亩产	-0.30103
-3.734864	姆
-4.246942	姆西克	-0.30103
-4.246942	母	-0.30103
-4.246942	母爱	-0.30103
-4.246942	母亲	-0.30103
-3.734864	木偶
-3.945911	目标	-0.30103
-4.246942	目睹	-0.30103
-3.644881	目前	-0.30103
-4.246942	牧场	-0.30103
-4.246942	牧民	-0.30103
-4.246942	牧区	-0.30103
-4.246942	牧羊	-0.30103
-3.644881	穆加贝	-0.3679768
-4.246942	穆萨	-0.30103
-4.246942	拿	-0.30103
-3.734864	拿出
-4.246942	拿来	-0.30103
-4.246942	拿下	-0.30103
-3.734864	拿着
-4.246942	哪	-0.30103
-4.246942	哪个	-0.30103
-3.945911	哪里	-0.4771213
-3.734864	哪门子
-3.734864	哪怕
-3.205549	那	-0.30103
-3.734864	那次
-3.945911	那达慕	-0.30103
-3.945911	那儿	-0.30103
-3.734864	那个
-4.246942	那里	-0.30103
-4.246942	那么	-0.30103
-4.246942	那时	-0.30103
-4.246942	那是	-0.30103
-4.246942	那天	-0.30103
-3.734864	那位
-4.246942	那些	-0.30103
-3.644881	那样	-0.30103
-4.246942	纳米	-0.30103
-4.246942	纳入	-0.30103
-4.246942	乃	-0.30103
-3.734864	乃兰
-4.246942	乃至	-0.30103
-3.734864	奶茶
-4.246942	耐心	-0.30103
-3.734864	耐性
-3.76982	南	-0.30103
-3.734864	南北
-3.734864	南昌
-4.246942	南端	-0.30103
-3.644881	南非	-0.3679768
-4.246942	南疆	-0.30103
-4.246942	南京	-0.30103
-3.734864	南美
-4.246942	南斯拉夫	-0.30103
-4.246942	男单	-0.30103
-3.734864	男耕
-4.246942	男孩	-0.30103
-4.246942	男女	-0.30103
-3.734864	男性
-4.246942	男子	-0.30103
-3.76982	难	-0.30103
-4.246942	难度	-0.30103
-4.246942	难关	-0.30103
-4.246942	难免	-0.30103
-3.945911	难民	-0.30103
-4.246942	难民潮	-0.30103
-3.734864	难上加难
-3.945911	难以	-0.30103
-3.734864	挠头
-4.246942	脑	-0.30103
-3.734864	脑海
-4.246942	脑血栓	-0.30103
-4.246942	脑溢血	-0.30103
-3.76982	呢	-0.60206
-4.246942	呢大衣	-0.30103
-3.734864	呢质
-3.205549	内	-0.3467875
-3.945911	内部	-0.4771213
-3.734864	内地
-4.246942	内蒙古	-0.30103
-3.945911	内容	-0.4771212
-3.734864	内外
-4.246942	内务	-0.30103
-3.945911	内战	-0.4771212
-3.246942	能	-0.3245111
-4.246942	能否	-0.30103
-3.945911	能够	-0.30103
-3.945911	能力	-0.30103
-3.734864	能屈能伸
-3.945911	能源	-0.30103
-4.246942	泥泞	-0.30103
-3.734864	泥沙
-3.734864	尼尔森
-3.734864	拟定
-3.205549	你	-0.3222193
-4.246942	你的	-0.30103
-3.76982	你们	-0.30103
-4.246942	你们的	-0.30103
-4.246942	逆转	-0.30103
-4.246942	溺爱	-0.30103
-2.849001	年	-0.3296751
-3.734864	年产
-3.945911	年代	-0.30103
-3.76982	年底	-0.30103
-3.945911	年关	-0.30103
-4.246942	年迈	-0.30103
-4.246942	年轻	-0.30103
-4.246942	年轻人	-0.30103
-3.734864	年头
-4.246942	鸟飞	-0.30103
-4.246942	鸟类	-0.30103
-3.734864	尿液
-4.246942	镍	-0.30103
-4.246942	您	-0.30103
-3.734864	凝聚
-4.246942	牛刀	-0.30103
-4.246942	牛二	-0.30103
-4.246942	牛群	-0.30103
-4.246942	牛羊	-0.30103
-3.945911	纽约	-0.30103
-3.734864	浓墨重彩
-4.246942	浓缩	-0.30103
-4.246942	农	-0.30103
-4.246942	农产品	-0.30103
-3.945911	农场	-0.30103
-3.76982	农村	-0.30103
-3.734864	农户
-4.246942	农机	-0.30103
-4.246942	农具	-0.30103
-3.343852	农民	-0.3309932
-3.76982	农牧	-0.60206
-4.246942	农奴制	-0.30103
-4.246942	农药	-0.30103
-3.644881	农业	-0.30103
-4.246942	农业国	-0.30103
-3.734864	奴颜婢膝
-3.16776	努力	-0.3424227
-3.734864	怒不可遏
-3.945911	怒江	-0.30103
-3.734864	女
-3.945911	女儿	-0.30103
-3.734864	女方
-3.734864	女工
-4.246942	女孩	-0.30103
-4.246942	女篮	-0.30103
-3.734864	女人
-3.734864	女桑
-4.246942	女同学	-0.30103
-4.246942	女王	-0.30103
-3.734864	女性
-4.246942	女演员	-0.30103
-3.945911	女子	-0.30103
-4.246942	女娲	-0.30103
-4.246942	暖气	-0.30103
-4.246942	暖水流	-0.30103
-4.246942	挪用	-0.30103
-4.246942	诺贝尔	-0.30103
-4.246942	欧	-0.30103
-3.644881	欧共体	-0.3679768
-4.246942	欧美	-0.30103
-3.734864	欧亚
-3.07085	欧洲	-0.3521825
-3.734864	殴打
-3.734864	呕心沥血
-4.246942	偶尔	-0.30103
-3.76982	偶然	-0.39794
-3.734864	偶像
-3.734864	偶有
-4.246942	趴	-0.30103
-4.246942	帕蒂尔	-0.30103
-3.945911	怕	-0.30103
-3.734864	怕疼
-3.76982	拍	-0.30103
-3.734864	拍卖
-3.945911	排	-0.30103
-3.76982	排除	-0.30103
-4.246942	排定	-0.30103
-4.246942	排队	-0.30103
-4.246942	排放	-0.30103
-4.246942	排球	-0.30103
-3.734864	牌
-3.76982	派	-0.30103
-3.945911	派别	-0.30103
-4.246942	派出	-0.30103
-3.734864	派出所
-3.945911	派遣	-0.30103
-3.734864	潘
-4.246942	盘旋	-0.30103
-4.246942	盼	-0.30103
-4.246942	盼望	-0.30103
-4.246942	判刑	-0.30103
-3.945911	旁	-0.30103
-4.246942	旁边	-0.30103
-4.246942	咆哮	-0.30103
-4.246942	刨	-0.30103
-4.246942	炮战	-0.30103
-3.734864	跑船
-4.246942	跑到	-0.30103
-4.246942	泡汤	-0.30103
-3.734864	泡漩
-3.945911	培训	-0.30103
-3.734864	培养
-4.246942	培育	-0.30103
-4.246942	陪	-0.30103
-3.734864	陪着
-4.246942	配	-0.30103
-3.76982	配合	-0.39794
-4.246942	配偶	-0.30103
-3.76982	配套	-0.30103
-4.246942	配置	-0.30103
-3.644881	佩雷斯	-0.3679768
-4.246942	喷泉	-0.30103
-3.734864	盆地
-4.246942	盆盈钵满	-0.30103
-4.246942	蓬勃	-0.30103
-4.246942	棚	-0.30103
-4.246942	棚屋	-0.30103
-3.644881	朋友	-0.3679768
-4.246942	捧着	-0.30103
-3.734864	碰上
-4.246942	批	-0.30103
-4.246942	批发	-0.30103
-4.246942	批量	-0.30103
-3.945911	批评	-0.30103
-3.945911	批准	-0.30103
-4.246942	披荆斩棘	-0.30103
-3.734864	皮埃莱特
-3.734864	皮肤
-4.246942	皮衣	-0.30103
-4.246942	篇	-0.30103
-3.734864	篇章
-4.246942	偏	-0.30103
-3.734864	片
-4.246942	片面	-0.30103
-3.734864	飘
-4.246942	漂亮	-0.30103
-3.945911	票	-0.30103
-4.246942	票据	-0.30103
-4.246942	票数	-0.30103
-4.246942	撇开	-0.30103
-4.246942	拼搏	-0.30103
-4.246942	频繁	-0.30103
-4.246942	频频	-0.30103
-3.734864	贫富
-4.246942	贫困	-0.30103
-4.246942	品尝	-0.30103
-4.246942	品格	-0.30103
-3.734864	品牌
-3.76982	品种	-0.30103
-3.945911	苹果	-0.4771212
-3.734864	平
-3.945911	平等	-0.4771212
-3.547971	平方	-0.544068
-3.76982	平均	-0.30103
-4.246942	平生	-0.30103
-3.734864	平时
-4.246942	平台	-0.30103
-4.246942	平稳	-0.30103
-4.246942	平行	-0.30103
-4.246942	平舆县	-0.30103
-4.246942	平原	-0.30103
-4.246942	凭	-0.30103
-4.246942	凭着	-0.30103
-4.246942	评	-0.30103
-4.246942	评定	-0.30103
-4.246942	评价	-0.30103
-3.945911	评论	-0.30103
-3.945911	评选	-0.30103
-4.246942	屏幕	-0.30103
-3.945911	颇	-0.30103
-3.734864	破
-4.246942	破案	-0.30103
-3.734864	破袄
-4.246942	破败	-0.30103
-4.246942	破产	-0.30103
-3.945911	破坏	-0.30103
-3.734864	破土
-4.246942	迫在眉睫	-0.30103
-4.246942	剖片	-0.30103
-3.734864	扑尔敏
-3.945911	扑救	-0.30103
-4.246942	扑灭	-0.30103
-4.246942	铺	-0.30103
-3.734864	铺位
-4.246942	葡萄牙	-0.30103
-3.734864	菩萨
-3.734864	蒲
-3.945911	普遍	-0.4771213
-3.734864	普及
-4.246942	普兰	-0.30103
-3.734864	普通
-4.246942	浦东	-0.30103
-4.246942	谱曲	-0.30103
-3.734864	谱写
-3.734864	曝光
-4.246942	期	-0.30103
-4.246942	期待	-0.30103
-3.945911	期货	-0.4771213
-4.246942	期间	-0.30103
-4.246942	欺凌	-0.30103
-4.246942	妻子	-0.30103
-3.644881	七	-0.30103
-4.246942	七百	-0.30103
-4.246942	七二	-0.30103
-4.246942	七个	-0.30103
-3.734864	七千
-3.945911	七日	-0.30103
-3.644881	七十	-0.30103
-3.734864	七十五
-3.734864	七五七
-3.945911	七月	-0.30103
-3.945911	七运会	-0.30103
-4.246942	漆	-0.30103
-3.292699	其	-0.30103
-4.246942	其乐融融	-0.30103
-4.246942	其能	-0.30103
-3.644881	其他	-0.30103
-3.945911	其它	-0.30103
-3.547971	其中	-0.30103
-3.734864	奇闻逸事
-4.246942	奇效	-0.30103
-3.734864	歧视
-3.76982	齐	-0.30103
-3.734864	齐全
-4.246942	旗帜	-0.30103
-3.205549	起	-0.3222193
-3.945911	起伏	-0.30103
-3.343852	起来	-0.4771213
-3.734864	起码
-3.734864	起卒
-3.734864	企
-3.734864	企盼
-3.945911	企图	-0.30103
-3.46879	企业	-0.3424226
-3.734864	企业股
-3.734864	启动
-3.734864	启发
-4.246942	器	-0.30103
-4.246942	气	-0.30103
-3.945911	气候	-0.30103
-3.945911	气势	-0.30103
-3.734864	气温
-4.246942	气焰	-0.30103
-4.246942	气质	-0.30103
-4.246942	汽车	-0.30103
-4.246942	恰恰	-0.30103
-3.734864	牵引
-4.246942	千	-0.30103
-4.246942	千分点	-0.30103
-4.246942	千分之	-0.30103
-3.734864	千伏
-4.246942	千古	-0.30103
-3.734864	千克
-4.246942	千年	-0.30103
-4.246942	千瓦时	-0.30103
-4.246942	千万	-0.30103
-3.945911	迁	-0.30103
-4.246942	迁坟	-0.30103
-4.246942	签订	-0.30103
-3.734864	签发
-3.547971	签署	-0.3521825
-4.246942	签证	-0.30103
-3.734864	签字
-4.246942	乾隆	-0.30103
-3.343852	钱	-0.3309932
-3.76982	钱其琛	-0.39794
-3.205549	前	-0.3756636
-4.246942	前额	-0.30103
-4.246942	前几天	-0.30103
-3.945911	前进	-0.30103
-4.246942	前景	-0.30103
-4.246942	前来	-0.30103
-4.246942	前列	-0.30103
-4.246942	前面	-0.30103
-3.734864	前途
-4.246942	前往	-0.30103
-3.945911	前夕	-0.30103
-4.246942	潜	-0.30103
-4.246942	潜力	-0.30103
-3.734864	欠
-4.246942	欠款	-0.30103
-4.246942	欠税	-0.30103
-3.734864	枪口
-3.734864	呛
-4.246942	腔	-0.30103
-4.246942	强	-0.30103
-3.76982	强大	-0.30103
-3.734864	强度
-3.734864	强恩
-3.945911	强化	-0.30103
-4.246942	强烈	-0.30103
-4.246942	强迫	-0.30103
-3.734864	抢
-4.246942	抢劫	-0.30103
-3.945911	抢救	-0.30103
-3.734864	敲诈
-3.734864	敲钟
-4.246942	桥头	-0.30103
-4.246942	乔石	-0.30103
-4.246942	侨胞	-0.30103
-4.246942	侨汇	-0.30103
-3.734864	巧手
-4.246942	俏销	-0.30103
-4.246942	切齿	-0.30103
-4.246942	切换	-0.30103
-4.246942	切莫	-0.30103
-3.734864	且
-4.246942	侵	-0.30103
-3.734864	亲
-4.246942	亲家	-0.30103
-4.246942	亲密无间	-0.30103
-4.246942	亲切	-0.30103
-3.734864	亲情
-3.734864	亲人
-3.945911	亲身	-0.30103
-3.734864	亲王
-3.945911	亲眼	-0.30103
-3.734864	亲自
-3.734864	秦
-3.734864	秦穆公
-4.246942	勤奋	-0.30103
-4.246942	勤勤恳恳	-0.30103
-4.246942	寝室	-0.30103
-4.246942	沁润	-0.30103
-4.246942	青岛市	-0.30103
-3.46879	青年	-0.30103
-4.246942	青年人	-0.30103
-4.246942	青少年	-0.30103
-4.246942	青石	-0.30103
-4.246942	青瓦	-0.30103
-4.246942	青砖	-0.30103
-3.734864	青紫
-4.246942	轻度	-0.30103
-3.734864	轻轨
-3.734864	轻轻
-4.246942	轻伤	-0.30103
-3.734864	轻水
-4.246942	轻松	-0.30103
-4.246942	倾囊	-0.30103
-3.945911	清	-0.30103
-4.246942	清查	-0.30103
-4.246942	清晨	-0.30103
-4.246942	清除	-0.30103
-4.246942	清淡	-0.30103
-4.246942	清江	-0.30103
-3.734864	清理
-4.246942	清廉	-0.30103
-3.734864	清凉油
-4.246942	清名	-0.30103
-4.246942	清晰	-0.30103
-4.246942	清远	-0.30103
-3.734864	情报
-4.246942	情感	-0.30103
-3.76982	情节	-0.30103
-4.246942	情景	-0.30103
-3.46879	情况	-0.3424227
-3.734864	情形
-3.547971	请	-0.3521826
-3.76982	庆典	-0.30103
-4.246942	庆贺	-0.30103
-3.734864	庆洲
-3.734864	穷
-3.734864	秋后
-3.734864	秋衫
-4.246942	丘陵	-0.30103
-4.246942	球门	-0.30103
-4.246942	求	-0.30103
-4.246942	求助	-0.30103
-4.246942	趋势	-0.30103
-3.547971	区	-0.30103
-4.246942	区划	-0.30103
-3.945911	区域	-0.30103
-3.734864	曲
-3.734864	驱使
-3.734864	取
-3.205549	取得	-0.50515
-3.734864	取而代之
-4.246942	取胜	-0.30103
-4.246942	取消	-0.30103
-4.246942	娶	-0.30103
-3.945911	趣	-0.4771212
-3.292699	去	-0.3273589
-4.246942	去掉	-0.30103
-4.246942	去留	-0.30103
-3.401844	去年	-0.30103
-3.734864	权利
-4.246942	权力	-0.30103
-3.945911	权益	-0.30103
-3.76982	全	-0.30103
-3.401844	全部	-0.30103
-4.246942	全场	-0.30103
-4.246942	全长	-0.30103
-3.734864	全方位
-3.343852	全国	-0.30103
-4.246942	全会	-0.30103
-4.246942	全家	-0.30103
-3.734864	全局
-4.246942	全军	-0.30103
-4.246942	全力	-0.30103
-3.76982	全面	-0.30103
-4.246942	全年	-0.30103
-4.246942	全球	-0.30103
-3.734864	全身
-4.246942	全生	-0.30103
-3.547971	全省	-0.30103
-4.246942	全世界	-0.30103
-3.945911	全市	-0.30103
-4.246942	全体	-0.30103
-3.734864	全天候
-4.246942	全线	-0.30103
-4.246942	全兴	-0.30103
-4.246942	全运会	-0.30103
-4.246942	券	-0.30103
-3.734864	劝
-4.246942	缺	-0.30103
-3.945911	缺乏	-0.30103
-3.734864	缺少
-4.246942	缺水	-0.30103
-4.246942	缺氧	-0.30103
-3.644881	却	-0.30103
-3.945911	确保	-0.30103
-3.547971	确定	-0.30103
-3.76982	确实	-0.30103
-3.734864	群殴
-4.246942	群情	-0.30103
-3.132998	群众	-0.3617278
-4.246942	然而	-0.30103
-3.945911	然后	-0.4771212
-4.246942	燃起	-0.30103
-4.246942	燃气	-0.30103
-4.246942	燃烧	-0.30103
-3.46879	让	-0.39794
-3.734864	让贤
-4.246942	热	-0.30103
-4.246942	热爱	-0.30103
-3.734864	热点
-3.734864	热管
-3.734864	热乎乎
-4.246942	热浪	-0.30103
-3.547971	热烈	-0.3521825
-4.246942	热门	-0.30103
-4.246942	热闹	-0.30103
-4.246942	热情	-0.30103
-4.246942	热水器	-0.30103
-3.734864	热血
-3.945911	仁	-0.30103
-2.831968	人	-0.4366926
-3.734864	人才
-3.734864	人次
-4.246942	人大	-0.30103
-4.246942	人儿	-0.30103
-4.246942	人际	-0.30103
-3.76982	人家	-0.30103
-4.246942	人均	-0.30103
-3.401844	人口	-0.30103
-4.246942	人类	-0.30103
-4.246942	人流	-0.30103
-3.547971	人们	-0.30103
-2.945911	人民	-0.3679768
-4.246942	人民币	-0.30103
-3.734864	人去楼空
-3.734864	人生观
-3.76982	人士	-0.30103
-3.734864	人数
-4.246942	人体	-0.30103
-4.246942	人为	-0.30103
-3.734864	人文
-3.945911	人物	-0.30103
-3.46879	人员	-0.3424227
-4.246942	人造板	-0.30103
-3.644881	任	-0.30103
-3.547971	任何	-0.30103
-4.246942	任期	-0.30103
-4.246942	任丘市	-0.30103
-3.644881	任务	-0.69897
-4.246942	认	-0.30103
-4.246942	认购	-0.30103
-4.246942	认可	-0.30103
-4.246942	认识	-0.30103
-3.76982	认为	-0.39794
-3.644881	认真	-0.30103
-3.46879	仍	-0.30103
-4.246942	仍然	-0.30103
-3.343852	日	-0.3309932
-3.644881	日本	-0.30103
-4.246942	日程表	-0.30103
-4.246942	日内瓦	-0.30103
-3.945911	日前	-0.30103
-3.734864	日商
-3.945911	日益	-0.30103
-3.734864	日元
-4.246942	日中	-0.30103
-3.945911	日子	-0.30103
-4.246942	荣	-0.30103
-4.246942	荣福	-0.30103
-4.246942	荣茂	-0.30103
-4.246942	荣幸	-0.30103
-4.246942	荣毅仁	-0.30103
-3.734864	荣誉
-4.246942	融洽	-0.30103
-4.246942	容易	-0.30103
-4.246942	柔	-0.30103
-4.246942	柔道馆	-0.30103
-3.734864	柔软
-3.945911	肉	-0.30103
-3.734864	肉鸡
-4.246942	肉排	-0.30103
-3.734864	孺子牛
-3.547971	如	-0.30103
-4.246942	如果	-0.30103
-4.246942	如果说	-0.30103
-3.945911	如何	-0.30103
-4.246942	如今	-0.30103
-4.246942	如来佛	-0.30103
-3.734864	如期
-3.734864	如梭
-4.246942	如意	-0.30103
-4.246942	如醉如痴	-0.30103
-3.734864	乳汁
-3.76982	入	-0.39794
-4.246942	入境	-0.30103
-4.246942	入库	-0.30103
-4.246942	入侵	-0.30103
-3.734864	入伍
-3.945911	软	-0.30103
-4.246942	软启动	-0.30103
-3.76982	瑞士	-0.39794
-3.734864	润滑
-3.76982	若	-0.30103
-4.246942	若干	-0.30103
-3.734864	撒
-4.246942	撒落	-0.30103
-3.734864	撒手
-3.734864	撒网
-3.734864	洒
-4.246942	萨拉热窝	-0.30103
-3.644881	萨马兰奇	-0.30103
-3.734864	萨姆
-4.246942	塞	-0.30103
-4.246942	赛	-0.30103
-3.76982	赛区	-0.30103
-4.246942	赛特	-0.30103
-4.246942	赛艇	-0.30103
-3.246942	三	-0.30103
-3.644881	三百	-0.30103
-3.547971	三个	-0.30103
-3.76982	三国	-0.39794
-4.246942	三号	-0.30103
-4.246942	三级	-0.30103
-4.246942	三千	-0.30103
-3.734864	三拳两脚
-3.205549	三十	-0.3467875
-4.246942	三十二	-0.30103
-3.734864	三十七
-4.246942	三天	-0.30103
-4.246942	三万	-0.30103
-4.246942	三叶草	-0.30103
-4.246942	三夜	-0.30103
-3.945911	三月	-0.30103
-3.734864	三资
-3.734864	散
-3.734864	桑塔那
-4.246942	嗓子	-0.30103
-3.734864	丧胆
-4.246942	丧气	-0.30103
-4.246942	搔首弄姿	-0.30103
-3.734864	扫
-3.734864	扫雷
-3.734864	扫盲
-3.76982	扫描	-0.39794
-4.246942	嫂子	-0.30103
-3.734864	色
-3.76982	色彩	-0.30103
-4.246942	森吉德玛	-0.30103
-3.76982	森林	-0.30103
-4.246942	僧多粥少	-0.30103
-3.945911	杀	-0.30103
-4.246942	杀虫	-0.30103
-4.246942	杀害	-0.30103
-4.246942	杀人	-0.30103
-3.734864	杀手
-3.734864	刹那间
-4.246942	沙暴	-0.30103
-3.734864	沙俄
-4.246942	沙特	-0.30103
-4.246942	沙溪口	-0.30103
-3.76982	啥	-0.30103
-4.246942	筛选	-0.30103
-4.246942	珊	-0.30103
-4.246942	山	-0.30103
-4.246942	山东	-0.30103
-3.945911	山东省	-0.30103
-4.246942	山峰	-0.30103
-3.734864	山口
-4.246942	山里	-0.30103
-3.945911	山民	-0.30103
-3.734864	山姆
-4.246942	山区	-0.30103
-4.246942	山上	-0.30103
-4.246942	山西	-0.30103
-3.734864	山羊
-4.246942	删除	-0.30103
-3.734864	闪亮
-3.734864	擅自
-4.246942	善恶	-0.30103
-3.734864	善良
-4.246942	善于	-0.30103
-3.76982	汕头	-0.39794
-4.246942	汕头市	-0.30103
-3.734864	伤亡
-4.246942	伤员	-0.30103
-4.246942	商店	-0.30103
-4.246942	商贩	-0.30103
-3.945911	商量	-0.30103
-3.547971	商品	-0.3521825
-4.246942	商品部	-0.30103
-4.246942	商品房	-0.30103
-4.246942	商人	-0.30103
-3.76982	商业	-0.39794
-3.734864	商业化
-2.514548	上	-0.4293484
-3.734864	上班
-4.246942	上半年	-0.30103
-3.734864	上部
-3.734864	上窜
-3.07085	上海	-0.4259687
-3.734864	上将
-3.734864	上交
-4.246942	上来	-0.30103
-4.246942	上年	-0.30103
-3.734864	上去
-4.246942	上身	-0.30103
-4.246942	上述	-0.30103
-3.76982	上午	-0.30103
-4.246942	上学	-0.30103
-4.246942	上扬	-0.30103
-4.246942	上一次	-0.30103
-4.246942	上涨	-0.30103
-4.246942	尚	-0.30103
-3.734864	稍
-3.734864	烧
-4.246942	烧毁	-0.30103
-4.246942	少	-0.30103
-3.734864	少年
-4.246942	少数	-0.30103
-4.246942	少数民族	-0.30103
-3.734864	少饨
-3.734864	舍得
-3.734864	摄氏度
-4.246942	摄影	-0.30103
-3.734864	摄影机
-4.246942	摄制	-0.30103
-3.734864	射洪县
-4.246942	射门	-0.30103
-4.246942	涉及	-0.30103
-4.246942	涉外	-0.30103
-3.07085	社会	-0.3735807
-3.343852	社会主义	-0.3679768
-3.945911	设	-0.4771213
-3.734864	设备
-3.734864	设计
-3.76982	设立	-0.30103
-4.246942	设施	-0.30103
-4.246942	设置	-0.30103
-3.734864	申
-3.547971	申办	-0.3521825
-4.246942	申请	-0.30103
-3.734864	伸手
-4.246942	伸张	-0.30103
-4.246942	身	-0.30103
-3.734864	身边
-4.246942	身材	-0.30103
-4.246942	身高	-0.30103
-4.246942	身体	-0.30103
-4.246942	身心	-0.30103
-3.945911	深	-0.4771213
-3.734864	深感
-4.246942	深厚	-0.30103
-3.945911	深刻	-0.30103
-4.246942	深切	-0.30103
-4.246942	深入	-0.30103
-4.246942	深受	-0.30103
-3.734864	深水
-4.246942	深思	-0.30103
-4.246942	深圳	-0.30103
-4.246942	神话	-0.30103
-3.734864	神秘
-3.734864	神奇
-3.734864	审查
-4.246942	审计	-0.30103
-4.246942	审计员	-0.30103
-3.945911	审批	-0.4771212
-4.246942	审讯	-0.30103
-3.945911	甚至	-0.30103
-3.734864	肾结石
-4.246942	渗透	-0.30103
-3.945911	声	-0.4771212
-3.945911	声明	-0.4771212
-4.246942	声誉	-0.30103
-3.734864	生
-3.46879	生产	-0.3424227
-4.246942	生产力	-0.30103
-3.734864	生产线
-4.246942	生成	-0.30103
-3.734864	生动
-4.246942	生儿育女	-0.30103
-3.644881	生活	-0.3679768
-3.945911	生活中	-0.30103
-4.246942	生机	-0.30103
-3.734864	生计
-3.945911	生命	-0.30103
-3.945911	生日	-0.30103
-4.246942	生物	-0.30103
-4.246942	生效	-0.30103
-3.945911	生意	-0.30103
-3.945911	升旗	-0.4771213
-4.246942	升起	-0.30103
-3.46879	省	-0.30103
-4.246942	省长	-0.30103
-4.246942	省区	-0.30103
-4.246942	省市	-0.30103
-3.734864	盛产
-3.644881	盛会	-0.4771212
-4.246942	盛钦	-0.30103
-3.734864	盛喜
-4.246942	剩下	-0.30103
-3.734864	剩余物
-4.246942	胜利	-0.30103
-3.734864	圣母院
-4.246942	师大	-0.30103
-4.246942	师傅	-0.30103
-4.246942	师生	-0.30103
-3.734864	失
-4.246942	失败	-0.30103
-4.246942	失而复得	-0.30103
-3.734864	失恋
-3.945911	失去	-0.30103
-4.246942	失足	-0.30103
-4.246942	施	-0.30103
-3.547971	施工	-0.30103
-4.246942	施行	-0.30103
-3.734864	诗集
-4.246942	诗人	-0.30103
-4.246942	诗意	-0.30103
-3.343852	十	-0.3309932
-4.246942	十八	-0.30103
-4.246942	十大	-0.30103
-3.644881	十二	-0.3679768
-4.246942	十二亿	-0.30103
-3.46879	十分	-0.30103
-3.76982	十九	-0.30103
-3.945911	十年	-0.4771212
-3.734864	十七
-3.734864	十人
-4.246942	十三	-0.30103
-3.547971	十四	-0.30103
-4.246942	十四大	-0.30103
-4.246942	十四日	-0.30103
-4.246942	十天	-0.30103
-3.945911	十万	-0.30103
-3.76982	十五	-0.30103
-3.945911	十五日	-0.30103
-3.76982	十一	-0.30103
-4.246942	十月	-0.30103
-3.734864	十月份
-4.246942	石	-0.30103
-4.246942	石刻	-0.30103
-3.734864	石窟
-3.734864	石蜡
-2.904519	时	-0.5371192
-3.945911	时代	-0.30103
-3.644881	时而	-0.30103
-3.945911	时候	-0.4771212
-3.644881	时间	-0.30103
-4.246942	时间戳	-0.30103
-3.734864	时轮
-3.945911	时期	-0.30103
-4.246942	时值	-0.30103
-3.945911	什么	-0.30103
-3.734864	什么样
-3.945911	食品	-0.30103
-3.734864	食堂
-3.945911	食糖	-0.30103
-4.246942	实	-0.30103
-4.246942	实干	-0.30103
-3.76982	实际	-0.30103
-3.945911	实践	-0.4771213
-3.734864	实力
-4.246942	实施	-0.30103
-4.246942	实事求是	-0.30103
-3.292699	实现	-0.30103
-3.401844	实行	-0.30103
-4.246942	实在	-0.30103
-3.734864	史
-4.246942	史诗	-0.30103
-3.100813	使	-0.30103
-3.76982	使馆	-0.30103
-3.46879	使用	-0.3424227
-3.734864	驶
-4.246942	始	-0.30103
-4.246942	始终	-0.30103
-4.246942	始终如一	-0.30103
-4.246942	士气	-0.30103
-4.246942	世	-0.30103
-3.734864	世代
-4.246942	世纪	-0.30103
-3.07085	世界	-0.3735807
-4.246942	世界级	-0.30103
-3.945911	世界上	-0.30103
-4.246942	世俗	-0.30103
-3.76982	事	-0.39794
-3.734864	事出
-3.734864	事故
-3.76982	事件	-0.39794
-3.644881	事情	-0.69897
-3.734864	事实
-3.945911	事务	-0.30103
-3.644881	事业	-0.30103
-4.246942	誓词	-0.30103
-4.246942	势力	-0.30103
-4.246942	势头	-0.30103
-2.251306	是	-0.3247679
-3.734864	是不是
-3.734864	是否
-3.945911	适应	-0.30103
-3.734864	适用
-4.246942	侍立	-0.30103
-4.246942	饰	-0.30103
-3.945911	市	-0.30103
-2.831968	市场	-0.455932
-3.945911	市区	-0.4771212
-4.246942	市委	-0.30103
-4.246942	市政府	-0.30103
-4.246942	视而不见	-0.30103
-4.246942	视角	-0.30103
-4.246942	视为	-0.30103
-3.734864	试
-4.246942	试点	-0.30103
-3.734864	试试
-3.644881	试验	-0.4771212
-4.246942	收	-0.30103
-3.734864	收藏
-3.734864	收到
-4.246942	收费	-0.30103
-3.734864	收购
-3.734864	收号
-4.246942	收集	-0.30103
-4.246942	收取	-0.30103
-3.76982	收入	-0.30103
-4.246942	收下	-0.30103
-4.246942	手	-0.30103
-3.644881	手段	-0.69897
-4.246942	手工活	-0.30103
-4.246942	手雷	-0.30103
-4.246942	手里	-0.30103
-4.246942	手上	-0.30103
-4.246942	手术	-0.30103
-3.734864	手术台
-3.734864	手续
-3.734864	手续费
-4.246942	手艺	-0.30103
-3.734864	手掌
-4.246942	手中	-0.30103
-3.644881	首	-0.4771212
-3.644881	首次	-0.30103
-3.76982	首都	-0.39794
-3.76982	首脑	-0.30103
-4.246942	首批	-0.30103
-4.246942	首先	-0.30103
-4.246942	首要	-0.30103
-4.246942	守善	-0.30103
-4.246942	授牌	-0.30103
-4.246942	售假	-0.30103
-3.547971	受	-0.30103
-3.644881	受到	-0.3679768
-4.246942	受害者	-0.30103
-3.734864	受骗
-4.246942	受伤	-0.30103
-4.246942	受损	-0.30103
-3.46879	蔬菜	-0.3424227
-4.246942	抒情	-0.30103
-3.734864	输出
-4.246942	输入	-0.30103
-3.734864	输送
-3.734864	叔叔
-3.734864	舒尔兹
-4.246942	舒展	-0.30103
-3.945911	书	-0.30103
-4.246942	书法	-0.30103
-4.246942	书法家	-0.30103
-3.734864	书画
-3.945911	书记	-0.30103
-4.246942	书记处	-0.30103
-4.246942	熟练	-0.30103
-4.246942	熟识	-0.30103
-3.734864	熟悉
-4.246942	署名	-0.30103
-4.246942	属	-0.30103
-3.76982	属于	-0.30103
-3.734864	术
-3.734864	树
-4.246942	树立	-0.30103
-4.246942	束缚	-0.30103
-3.644881	数	-0.30103
-4.246942	数不清	-0.30103
-4.246942	数额	-0.30103
-3.734864	数据
-4.246942	衰	-0.30103
-4.246942	帅府	-0.30103
-4.246942	双	-0.30103
-3.100813	双方	-0.3174205
-4.246942	双杠	-0.30103
-4.246942	双亲	-0.30103
-4.246942	双重	-0.30103
-4.246942	爽快	-0.30103
-3.644881	谁	-0.30103
-3.46879	水	-0.30103
-4.246942	水草	-0.30103
-3.945911	水产	-0.30103
-4.246942	水稻	-0.30103
-3.76982	水电站	-0.39794
-4.246942	水壶	-0.30103
-4.246942	水利	-0.30103
-3.292699	水平	-0.60206
-4.246942	水禽	-0.30103
-4.246942	水田	-0.30103
-4.246942	水域	-0.30103
-3.734864	水准
-4.246942	税	-0.30103
-3.76982	税收	-0.30103
-4.246942	税源	-0.30103
-3.734864	瞬间
-3.76982	顺利	-0.30103
-2.702873	说	-0.5929166
-4.246942	说不定	-0.30103
-4.246942	说不清	-0.30103
-4.246942	说法	-0.30103
-3.734864	说话
-3.734864	说明
-3.734864	说情
-4.246942	说说笑笑	-0.30103
-3.734864	硕然
-4.246942	斯蒂尔	-0.30103
-4.246942	斯特恩	-0.30103
-4.246942	思辨	-0.30103
-4.246942	思路	-0.30103
-4.246942	思念	-0.30103
-4.246942	思卿	-0.30103
-3.644881	思想	-0.30103
-4.246942	私人	-0.30103
-3.734864	私营
-3.734864	司机
-4.246942	司令	-0.30103
-4.246942	司令员	-0.30103
-3.734864	丝毫
-3.734864	死而后已
-4.246942	死胡同	-0.30103
-3.734864	死神
-4.246942	死水	-0.30103
-3.46879	死亡	-0.60206
-4.246942	肆虐	-0.30103
-3.343852	四	-0.30103
-4.246942	四百	-0.30103
-3.644881	四川	-0.4771213
-4.246942	四川省	-0.30103
-3.734864	四点
-4.246942	四方区	-0.30103
-4.246942	四个	-0.30103
-4.246942	四个月	-0.30103
-4.246942	四九	-0.30103
-3.734864	四舅
-3.734864	四楼
-4.246942	四面	-0.30103
-4.246942	四面八方	-0.30103
-3.734864	四千
-3.547971	四十	-0.30103
-4.246942	四十二	-0.30103
-4.246942	四十五	-0.30103
-4.246942	四十一	-0.30103
-4.246942	四四	-0.30103
-3.76982	四万	-0.30103
-3.76982	四月	-0.30103
-3.734864	伺侯
-4.246942	似乎	-0.30103
-4.246942	饲养	-0.30103
-4.246942	松江省	-0.30103
-3.734864	松滋
-3.734864	耸立
-4.246942	送	-0.30103
-4.246942	送到	-0.30103
-4.246942	送给	-0.30103
-4.246942	宋	-0.30103
-4.246942	宋代	-0.30103
-4.246942	搜查	-0.30103
-3.734864	搜集
-4.246942	搜身	-0.30103
-3.734864	搜寻
-3.734864	艘
-4.246942	苏	-0.30103
-4.246942	苏东坡	-0.30103
-4.246942	素	-0.30103
-4.246942	素材	-0.30103
-3.734864	素娟
-4.246942	素质	-0.30103
-3.76982	速度	-0.39794
-3.945911	塑像	-0.30103
-4.246942	宿舍	-0.30103
-3.734864	诉
-3.734864	酸
-4.246942	算	-0.30103
-3.734864	算了
-4.246942	算是	-0.30103
-4.246942	虽	-0.30103
-4.246942	虽然	-0.30103
-4.246942	随	-0.30103
-4.246942	随随便便	-0.30103
-4.246942	随着	-0.30103
-3.76982	岁	-0.39794
-4.246942	遂	-0.30103
-4.246942	遂意	-0.30103
-3.945911	隧道	-0.4771212
-3.945911	孙	-0.30103
-4.246942	孙猴子	-0.30103
-3.734864	损害
-3.734864	损坏
-4.246942	损伤	-0.30103
-4.246942	损失	-0.30103
-4.246942	索林根	-0.30103
-3.46879	所	-0.30103
-3.734864	所见
-3.734864	所闻
-4.246942	所以	-0.30103
-3.547971	所有	-0.30103
-3.734864	所有权
-4.246942	所在	-0.30103
-4.246942	所在地	-0.30103
-3.734864	塌方
-2.67874	他	-0.3265841
-3.644881	他的	-0.30103
-3.016493	他们	-0.30103
-3.945911	他们的	-0.30103
-3.042822	它	-0.30103
-4.246942	它的	-0.30103
-3.734864	它们
-2.991669	她	-0.30103
-3.945911	她的	-0.30103
-4.246942	她们	-0.30103
-4.246942	踏踏实实	-0.30103
-4.246942	抬高	-0.30103
-4.246942	抬脚	-0.30103
-3.547971	台	-0.30103
-4.246942	台风	-0.30103
-4.246942	台前幕后	-0.30103
-3.945911	台湾	-0.30103
-4.246942	泰	-0.30103
-3.76982	泰国	-0.30103
-3.734864	泰晤士
-3.644881	太	-0.30103
-4.246942	太多	-0.30103
-3.734864	太空
-4.246942	太空棉	-0.30103
-3.945911	太平洋	-0.30103
-4.246942	太阳	-0.30103
-3.945911	态度	-0.4771212
-3.734864	坍塌
-4.246942	摊	-0.30103
-3.945911	摊主	-0.30103
-3.734864	摊子
-4.246942	贪污	-0.30103
-4.246942	贪心	-0.30103
-3.76982	谈	-0.30103
-3.246942	谈判	-0.3245111
-3.734864	坦诚
-3.734864	探查
-4.246942	探索	-0.30103
-3.734864	探讨
-4.246942	探寻	-0.30103
-4.246942	叹	-0.30103
-3.734864	唐家湾
-3.734864	唐山
-4.246942	糖球	-0.30103
-3.734864	掏
-4.246942	逃	-0.30103
-3.734864	淘汰
-3.734864	陶乐
-4.246942	讨论	-0.30103
-3.945911	讨论会	-0.30103
-4.246942	套	-0.30103
-3.734864	特
-3.644881	特别	-0.30103
-3.945911	特别是	-0.30103
-4.246942	特大	-0.30103
-3.945911	特点	-0.30103
-4.246942	特定	-0.30103
-4.246942	特区	-0.30103
-3.734864	特权
-3.945911	特色	-0.30103
-4.246942	特使	-0.30103
-4.246942	特有	-0.30103
-4.246942	特约	-0.30103
-4.246942	特征	-0.30103
-4.246942	腾飞	-0.30103
-3.734864	疼爱
-4.246942	梯形	-0.30103
-3.945911	提	-0.30103
-3.734864	提案
-3.547971	提出	-0.30103
-3.401844	提高	-0.30103
-3.945911	提供	-0.30103
-4.246942	提名	-0.30103
-4.246942	提起	-0.30103
-4.246942	提前	-0.30103
-4.246942	提问	-0.30103
-4.246942	提议	-0.30103
-4.246942	提着	-0.30103
-4.246942	体罚	-0.30103
-3.734864	体力
-4.246942	体委	-0.30103
-3.945911	体系	-0.30103
-3.734864	体现
-3.343852	体育	-0.3679768
-4.246942	体育史	-0.30103
-3.945911	体制	-0.30103
-3.945911	天	-0.4771213
-4.246942	天偿	-0.30103
-4.246942	天河	-0.30103
-3.76982	天津	-0.39794
-4.246942	天气	-0.30103
-3.945911	天然	-0.30103
-4.246942	天上	-0.30103
-4.246942	天真	-0.30103
-3.76982	填补	-0.39794
-4.246942	填海	-0.30103
-4.246942	填坑	-0.30103
-4.246942	甜	-0.30103
-3.734864	甜蜜
-3.76982	条	-0.30103
-3.547971	条件	-0.4259687
-3.945911	条例	-0.30103
-4.246942	条条	-0.30103
-3.945911	跳	-0.30103
-4.246942	跳跃	-0.30103
-3.945911	铁	-0.30103
-4.246942	铁饭碗	-0.30103
-3.734864	铁佛乡
-4.246942	铁匠	-0.30103
-3.205549	铁路	-0.3467875
-3.76982	听	-0.30103
-3.945911	听说	-0.30103
-3.734864	停泊
-3.734864	停车
-3.76982	停火	-0.30103
-4.246942	停薪留职	-0.30103
-4.246942	停止	-0.30103
-3.734864	挺
-3.945911	艇	-0.30103
-4.246942	通车	-0.30103
-3.644881	通道	-0.3679768
-3.734864	通风
-3.246942	通过	-0.30103
-3.734864	通俗
-4.246942	通行	-0.30103
-4.246942	通讯社	-0.30103
-4.246942	通知	-0.30103
-3.132998	同	-0.3617279
-3.945911	同胞	-0.30103
-4.246942	同年	-0.30103
-4.246942	同期	-0.30103
-3.734864	同日而语
-3.343852	同时	-0.3309932
-4.246942	同事	-0.30103
-4.246942	同行	-0.30103
-4.246942	同学	-0.30103
-4.246942	同样	-0.30103
-3.343852	同志	-0.3309932
-4.246942	同志们	-0.30103
-3.734864	铜佛
-3.734864	童
-4.246942	统计	-0.30103
-4.246942	统一	-0.30103
-3.734864	痛苦
-3.644881	偷	-0.30103
-3.945911	偷税	-0.30103
-3.945911	投	-0.4771213
-3.734864	投产
-4.246942	投放	-0.30103
-4.246942	投入	-0.30103
-4.246942	投身	-0.30103
-3.246942	投资	-0.3245111
-3.734864	头
-3.734864	头发
-3.734864	头上
-4.246942	头疼	-0.30103
-4.246942	头阵	-0.30103
-4.246942	透风	-0.30103
-4.246942	透露	-0.30103
-4.246942	突出	-0.30103
-3.547971	突破	-0.30103
-3.945911	突然	-0.30103
-4.246942	突兀	-0.30103
-3.945911	图画	-0.30103
-4.246942	图卢兹	-0.30103
-4.246942	图像	-0.30103
-4.246942	途经	-0.30103
-4.246942	途径	-0.30103
-3.76982	土	-0.30103
-4.246942	土地	-0.30103
-4.246942	土壤	-0.30103
-4.246942	吐哈	-0.30103
-4.246942	团队	-0.30103
-3.46879	团结	-0.3424227
-4.246942	团聚	-0.30103
-3.945911	团体	-0.30103
-3.734864	团圆
-4.246942	推迟	-0.30103
-3.945911	推出	-0.30103
-3.547971	推动	-0.30103
-3.734864	推广
-4.246942	推着	-0.30103
-4.246942	腿	-0.30103
-3.734864	退休
-4.246942	吞噬	-0.30103
-3.734864	吞吐
-4.246942	脱贫	-0.30103
-4.246942	脱水	-0.30103
-4.246942	妥善	-0.30103
-3.734864	拓展
-4.246942	挖	-0.30103
-3.734864	哇哇
-3.734864	娃
-4.246942	娃娃	-0.30103
-3.734864	瓦拉克
-3.734864	瓦努阿图
-4.246942	瓦文萨	-0.30103
-3.945911	袜	-0.4771213
-3.945911	袜子	-0.30103
-4.246942	歪风	-0.30103
-3.644881	外	-0.4771213
-3.401844	外长	-0.3357921
-3.547971	外国	-0.4259687
-3.734864	外号
-3.46879	外汇	-0.3424227
-3.547971	外交	-0.30103
-4.246942	外交部	-0.30103
-3.945911	外交官	-0.30103
-3.734864	外科
-3.734864	外贸
-3.734864	外相
-3.734864	外向
-3.734864	外销
-4.246942	外语	-0.30103
-4.246942	外资	-0.30103
-4.246942	湾	-0.30103
-3.734864	玩
-4.246942	顽强	-0.30103
-3.734864	完
-3.76982	完成	-0.39794
-4.246942	完了	-0.30103
-4.246942	完美	-0.30103
-3.644881	完全	-0.30103
-3.945911	完善	-0.30103
-3.734864	碗
-4.246942	碗筷	-0.30103
-3.945911	晚	-0.30103
-3.734864	晚辈
-3.734864	晚年
-4.246942	晚上	-0.30103
-4.246942	皖	-0.30103
-3.246942	万	-0.30103
-3.734864	万恶
-3.734864	万丰
-4.246942	万里	-0.30103
-4.246942	万全	-0.30103
-4.246942	万物	-0.30103
-4.246942	万亿	-0.30103
-3.644881	万元	-0.4771212
-3.734864	汪
-3.76982	王	-0.30103
-3.76982	王朔	-0.39794
-3.945911	网	-0.30103
-4.246942	往	-0.30103
-4.246942	往返	-0.30103
-3.734864	往往
-4.246942	旺季	-0.30103
-3.734864	望尘莫及
-4.246942	望着	-0.30103
-4.246942	忘	-0.30103
-3.945911	威胁	-0.4771212
-4.246942	微电脑	-0.30103
-4.246942	微观	-0.30103
-4.246942	微澜	-0.30103
-4.246942	微利	-0.30103
-4.246942	微量	-0.30103
-3.945911	微米	-0.30103
-4.246942	微弱	-0.30103
-3.734864	微微
-4.246942	危害	-0.30103
-3.945911	危机	-0.30103
-3.734864	危及
-4.246942	危险	-0.30103
-4.246942	危险品	-0.30103
-4.246942	危险性	-0.30103
-4.246942	韦尔纳	-0.30103
-3.945911	违背	-0.30103
-3.734864	违法
-3.945911	围绕	-0.30103
-4.246942	唯	-0.30103
-4.246942	唯恐	-0.30103
-4.246942	唯物	-0.30103
-4.246942	唯一	-0.30103
-4.246942	唯有	-0.30103
-2.623692	为	-0.3062942
-3.734864	为此
-4.246942	为何	-0.30103
-3.401844	为了	-0.3357921
-4.246942	为期	-0.30103
-3.734864	为人
-3.734864	为荣
-3.734864	为啥
-3.734864	为什么
-4.246942	为主	-0.30103
-4.246942	维长	-0.30103
-4.246942	维尔曼	-0.30103
-3.945911	维护	-0.30103
-4.246942	委托	-0.30103
-3.945911	委员	-0.30103
-3.945911	委员长	-0.30103
-3.76982	委员会	-0.30103
-4.246942	伟大	-0.30103
-4.246942	伟人	-0.30103
-4.246942	伪卡	-0.30103
-3.945911	尾	-0.30103
-3.547971	未	-0.4259687
-4.246942	未成年	-0.30103
-3.945911	未来	-0.30103
-4.246942	未免	-0.30103
-4.246942	味	-0.30103
-4.246942	味道	-0.30103
-4.246942	胃毒	-0.30103
-4.246942	魏	-0.30103
-4.246942	魏茨	-0.30103
-3.401844	位	-0.30103
-4.246942	位数	-0.30103
-4.246942	位于	-0.30103
-4.246942	位置	-0.30103
-3.734864	慰问
-4.246942	卫队	-0.30103
-3.945911	卫生	-0.30103
-4.246942	卫生部	-0.30103
-3.734864	卫生所
-3.734864	卫星
-3.734864	温饱
-4.246942	温家宝	-0.30103
-4.246942	温暖	-0.30103
-3.734864	温柔
-4.246942	温州	-0.30103
-4.246942	文波	-0.30103
-3.734864	文稿
-3.76982	文化	-0.39794
-4.246942	文化部	-0.30103
-4.246942	文件	-0.30103
-3.734864	文明
-4.246942	文坛	-0.30103
-4.246942	文献	-0.30103
-3.76982	文学	-0.30103
-4.246942	文学所	-0.30103
-3.734864	闻
-4.246942	纹片	-0.30103
-4.246942	吻合	-0.30103
-4.246942	稳	-0.30103
-4.246942	稳步	-0.30103
-3.343852	稳定	-0.4149733
-4.246942	问	-0.30103
-4.246942	问候	-0.30103
-2.945911	问题	-0.4771213
-3.734864	窝
-3.734864	窝煤
-3.016493	我	-0.3290587
-3.644881	我的	-0.30103
-3.100813	我国	-0.30103
-2.784544	我们	-0.3542755
-3.76982	我们的	-0.30103
-4.246942	握拳	-0.30103
-3.734864	沃顿
-4.246942	乌	-0.30103
-3.734864	乌哈腊尔
-3.734864	乌黑
-4.246942	乌军	-0.30103
-4.246942	乌克兰	-0.30103
-4.246942	乌拉圭	-0.30103
-4.246942	污染	-0.30103
-4.246942	污染物	-0.30103
-3.401844	无	-0.30103
-4.246942	无不	-0.30103
-3.734864	无处
-3.734864	无法
-3.734864	无稽之谈
-3.734864	无可奈何
-3.734864	无愧
-3.734864	无理取闹
-3.734864	无领
-3.945911	无论	-0.30103
-3.734864	无奈
-4.246942	无期	-0.30103
-4.246942	无声	-0.30103
-4.246942	无视	-0.30103
-4.246942	无数	-0.30103
-3.734864	无限
-3.734864	无线
-4.246942	无线电	-0.30103
-4.246942	无疑	-0.30103
-4.246942	无瑕	-0.30103
-3.734864	无恙
-3.734864	芜湖
-4.246942	吴	-0.30103
-4.246942	武昌	-0.30103
-4.246942	武钢	-0.30103
-4.246942	武汉	-0.30103
-4.246942	武进	-0.30103
-3.945911	武警	-0.4771213
-3.76982	武器	-0.30103
-3.76982	武装	-0.30103
-3.292699	五	-0.3590219
-3.644881	五百	-0.30103
-4.246942	五分钟	-0.30103
-3.734864	五个
-3.644881	五年	-0.30103
-3.734864	五千
-3.644881	五十	-0.30103
-3.734864	五十四
-4.246942	五十万	-0.30103
-4.246942	五十一	-0.30103
-4.246942	五星级	-0.30103
-3.644881	五月	-0.30103
-4.246942	舞剧	-0.30103
-4.246942	舞美	-0.30103
-3.734864	舞台
-4.246942	物	-0.30103
-3.945911	物价	-0.30103
-4.246942	物质	-0.30103
-3.644881	物资	-0.30103
-4.246942	务农	-0.30103
-3.734864	误
-4.246942	误国	-0.30103
-4.246942	昔日	-0.30103
-4.246942	昔时	-0.30103
-4.246942	熙熙攘攘	-0.30103
-4.246942	西	-0.30103
-3.734864	西北
-3.547971	西部	-0.4259687
-4.246942	西餐	-0.30103
-3.547971	西藏	-0.30103
-3.734864	西城
-3.76982	西方	-0.30103
-3.734864	西凤
-3.734864	西哈努克
-3.644881	西南	-0.30103
-4.246942	西欧	-0.30103
-3.734864	西亚
-3.644881	硒	-0.30103
-3.734864	吸
-4.246942	吸引	-0.30103
-3.734864	锡林郭勒
-4.246942	牺牲	-0.30103
-3.734864	稀饭
-3.945911	希克	-0.4771213
-3.734864	希腊
-3.205549	希望	-0.30103
-4.246942	悉尼	-0.30103
-4.246942	惜墨如金	-0.30103
-3.945911	袭击	-0.30103
-4.246942	席华	-0.30103
-4.246942	席位	-0.30103
-4.246942	媳妇	-0.30103
-3.945911	喜	-0.30103
-3.734864	喜爱
-3.734864	喜欢
-3.734864	喜怒哀乐
-3.734864	喜悦
-4.246942	洗	-0.30103
-4.246942	系	-0.30103
-4.246942	系列片	-0.30103
-3.76982	系统	-0.39794
-3.734864	戏剧
-3.945911	细胞	-0.30103
-4.246942	细微	-0.30103
-3.734864	细雨
-4.246942	细则	-0.30103
-3.76982	细致	-0.39794
-3.734864	狭长
-4.246942	狭窄	-0.30103
-3.132998	下	-0.3617279
-4.246942	下班	-0.30103
-4.246942	下跌	-0.30103
-3.945911	下降	-0.30103
-4.246942	下卷	-0.30103
-3.945911	下来	-0.30103
-4.246942	下去	-0.30103
-4.246942	下身	-0.30103
-4.246942	下属	-0.30103
-3.76982	下午	-0.30103
-4.246942	下游	-0.30103
-3.734864	下雨
-4.246942	下周	-0.30103
-3.734864	厦
-3.734864	夏
-4.246942	夏天	-0.30103
-4.246942	夏训	-0.30103
-4.246942	掀	-0.30103
-3.945911	先	-0.30103
-3.644881	先后	-0.30103
-3.46879	先进	-0.4771213
-4.246942	先期	-0.30103
-3.76982	先生	-0.30103
-3.734864	先炎
-3.734864	贤良
-3.734864	闲话
-4.246942	弦	-0.30103
-4.246942	显得	-0.30103
-3.734864	显示
-3.945911	显微镜	-0.30103
-3.945911	显著	-0.30103
-4.246942	现场	-0.30103
-4.246942	现成	-0.30103
-3.76982	现代	-0.30103
-3.644881	现代化	-0.3679768
-3.734864	现金
-4.246942	现实	-0.30103
-3.644881	现象	-0.3679768
-4.246942	现有	-0.30103
-3.547971	现在	-0.30103
-3.76982	献	-0.39794
-3.945911	献血	-0.30103
-3.547971	县	-0.30103
-4.246942	县长	-0.30103
-4.246942	县府	-0.30103
-4.246942	县委	-0.30103
-4.246942	县衙	-0.30103
-3.734864	羡慕
-3.734864	陷入
-3.734864	限
-4.246942	限度	-0.30103
-3.734864	限期
-4.246942	线索	-0.30103
-4.246942	线条	-0.30103
-3.734864	相
-4.246942	相比	-0.30103
-4.246942	相持	-0.30103
-3.734864	相当
-4.246942	相当于	-0.30103
-3.734864	相对
-3.46879	相互	-0.30103
-3.734864	相继
-4.246942	相声	-0.30103
-4.246942	相识	-0.30103
-3.945911	相同	-0.30103
-4.246942	相信	-0.30103
-3.644881	香港	-0.30103
-4.246942	乡	-0.30103
-4.246942	乡长	-0.30103
-4.246942	乡村	-0.30103
-4.246942	乡下	-0.30103
-3.945911	乡镇	-0.4771213
-3.734864	祥
-4.246942	祥和	-0.30103
-3.644881	想	-0.30103
-3.734864	想不通
-4.246942	想当然	-0.30103
-4.246942	想到	-0.30103
-4.246942	想法	-0.30103
-3.734864	想方设法
-3.734864	想象
-4.246942	想着	-0.30103
-3.734864	响
-4.246942	响亮	-0.30103
-3.945911	享受	-0.30103
-3.945911	项	-0.30103
-3.343852	项目	-0.3309932
-3.644881	像	-0.30103
-2.991669	向	-0.3136191
-3.734864	向导
-4.246942	向往	-0.30103
-4.246942	向着	-0.30103
-4.246942	萧	-0.30103
-4.246942	嚣张	-0.30103
-3.734864	销售
-4.246942	销售额	-0.30103
-3.734864	消斑
-4.246942	消沉	-0.30103
-4.246942	消除	-0.30103
-4.246942	消毒	-0.30103
-3.76982	消防	-0.39794
-4.246942	消费	-0.30103
-4.246942	消费品	-0.30103
-4.246942	消费者	-0.30103
-4.246942	消息	-0.30103
-4.246942	宵禁	-0.30103
-3.547971	小	-0.30103
-3.734864	小车
-3.734864	小村
-3.734864	小打小闹
-4.246942	小道	-0.30103
-4.246942	小孩	-0.30103
-3.945911	小伙子	-0.30103
-3.76982	小麦	-0.30103
-4.246942	小鸟	-0.30103
-3.734864	小女
-4.246942	小曲	-0.30103
-4.246942	小声	-0.30103
-3.547971	小时	-0.3521825
-4.246942	小说	-0.30103
-4.246942	小说集	-0.30103
-4.246942	小吴	-0.30103
-4.246942	小小的	-0.30103
-3.945911	小组	-0.30103
-4.246942	校	-0.30103
-4.246942	肖	-0.30103
-3.734864	笑
-3.734864	笑意
-4.246942	效果	-0.30103
-3.734864	效率
-3.644881	效益	-0.3679768
-4.246942	效忠	-0.30103
-3.76982	些	-0.39794
-3.734864	些许
-4.246942	歇脚	-0.30103
-3.945911	协调	-0.30103
-3.76982	协定	-0.30103
-3.945911	协会	-0.30103
-4.246942	协商	-0.30103
-3.401844	协议	-0.3802112
-3.945911	协助	-0.30103
-4.246942	斜纹	-0.30103
-3.76982	写	-0.30103
-4.246942	写法	-0.30103
-4.246942	写就	-0.30103
-3.734864	卸货
-4.246942	蟹苗	-0.30103
-4.246942	蟹农	-0.30103
-3.734864	泄露
-4.246942	谢瓦尔	-0.30103
-4.246942	欣赏	-0.30103
-3.734864	辛勤
-3.16776	新	-0.3203351
-3.945911	新产品	-0.30103
-3.46879	新的	-0.30103
-4.246942	新房	-0.30103
-3.945911	新华社	-0.30103
-3.76982	新加坡	-0.30103
-3.945911	新建	-0.30103
-3.945911	新近	-0.30103
-4.246942	新居	-0.30103
-4.246942	新年	-0.30103
-4.246942	新任	-0.30103
-3.734864	新生
-4.246942	新石器	-0.30103
-3.343852	新闻	-0.3309932
-3.734864	新闻界
-4.246942	新鲜	-0.30103
-3.945911	新增	-0.30103
-3.945911	心	-0.30103
-4.246942	心儿	-0.30103
-4.246942	心理	-0.30103
-3.734864	心目中
-4.246942	心情	-0.30103
-4.246942	心形	-0.30103
-4.246942	心脏	-0.30103
-4.246942	心脏病	-0.30103
-4.246942	心中	-0.30103
-3.644881	信贷	-0.3679768
-4.246942	信号	-0.30103
-4.246942	信教	-0.30103
-4.246942	信任	-0.30103
-3.76982	信息	-0.30103
-4.246942	信仰	-0.30103
-4.246942	星	-0.30103
-4.246942	星光	-0.30103
-4.246942	兴	-0.30103
-3.945911	兴奋剂	-0.4771213
-3.734864	兴风作浪
-3.644881	兴建	-0.30103
-4.246942	兴平	-0.30103
-3.945911	兴起	-0.30103
-3.734864	兴全
-4.246942	兴旺	-0.30103
-3.734864	兴致
-4.246942	刑事	-0.30103
-3.734864	型
-4.246942	型号	-0.30103
-3.46879	形成	-0.39794
-4.246942	形式	-0.30103
-3.76982	形势	-0.30103
-3.734864	形态
-4.246942	形象	-0.30103
-3.945911	行	-0.30103
-4.246942	行车	-0.30103
-3.547971	行动	-0.4259687
-4.246942	行路	-0.30103
-3.945911	行为	-0.30103
-4.246942	行星	-0.30103
-3.945911	行业	-0.30103
-3.76982	行政	-0.30103
-4.246942	行政区	-0.30103
-3.945911	幸福	-0.30103
-3.644881	性	-0.4771213
-3.734864	性格
-4.246942	性能	-0.30103
-3.945911	性质	-0.30103
-4.246942	姓名	-0.30103
-3.945911	兄弟	-0.30103
-3.734864	凶杀
-4.246942	匈牙利	-0.30103
-4.246942	雄	-0.30103
-4.246942	雄才	-0.30103
-4.246942	雄风	-0.30103
-4.246942	雄厚	-0.30103
-4.246942	熊熊	-0.30103
-3.734864	休斯
-4.246942	休息	-0.30103
-4.246942	修复	-0.30103
-4.246942	修改	-0.30103
-4.246942	修建	-0.30103
-4.246942	修路	-0.30103
-3.734864	修养
-4.246942	秀色	-0.30103
-4.246942	袖珍国	-0.30103
-3.734864	绣
-4.246942	绣花	-0.30103
-4.246942	需求	-0.30103
-3.401844	需要	-0.3357921
-4.246942	虚饰	-0.30103
-4.246942	须	-0.30103
-3.945911	许多	-0.30103
-4.246942	许可证	-0.30103
-4.246942	蓄意	-0.30103
-4.246942	叙	-0.30103
-3.343852	叙利亚	-0.3309932
-4.246942	叙述	-0.30103
-4.246942	叙以	-0.30103
-4.246942	序幕	-0.30103
-3.945911	畜牧	-0.30103
-3.76982	宣布	-0.30103
-3.644881	宣传	-0.30103
-3.734864	宣传部
-3.76982	宣誓	-0.39794
-3.734864	选购
-3.76982	选举	-0.30103
-4.246942	选手	-0.30103
-3.945911	选择	-0.30103
-3.734864	学
-3.734864	学部
-3.734864	学海
-3.734864	学会
-4.246942	学科	-0.30103
-4.246942	学社	-0.30103
-4.246942	学生	-0.30103
-3.76982	学习	-0.39794
-3.76982	学校	-0.30103
-4.246942	学员	-0.30103
-4.246942	学院	-0.30103
-4.246942	学者	-0.30103
-4.246942	学智	-0.30103
-3.945911	雪	-0.30103
-4.246942	雪地	-0.30103
-4.246942	雪山	-0.30103
-3.945911	血	-0.30103
-4.246942	血斑	-0.30103
-4.246942	血管	-0.30103
-4.246942	血库	-0.30103
-3.945911	血肉	-0.30103
-4.246942	血液	-0.30103
-3.734864	循化县
-4.246942	循环	-0.30103
-4.246942	寻	-0.30103
-3.734864	寻呼
-3.76982	寻求	-0.30103
-4.246942	寻思	-0.30103
-4.246942	寻找	-0.30103
-4.246942	训练班	-0.30103
-3.734864	迅捷
-4.246942	迅猛	-0.30103
-3.945911	迅速	-0.30103
-3.734864	压
-4.246942	压倒	-0.30103
-4.246942	压力	-0.30103
-4.246942	压迫	-0.30103
-4.246942	压水井	-0.30103
-3.76982	鸭	-0.60206
-3.734864	呀
-3.734864	亚欧
-4.246942	亚太	-0.30103
-4.246942	亚细亚	-0.30103
-3.734864	亚运
-3.76982	亚洲	-0.30103
-4.246942	焉	-0.30103
-3.734864	烟
-4.246942	盐城市	-0.30103
-4.246942	严词	-0.30103
-3.734864	严佛
-3.76982	严格	-0.30103
-4.246942	严禁	-0.30103
-4.246942	严正	-0.30103
-3.945911	严重	-0.30103
-3.343852	研究	-0.30103
-4.246942	研究生	-0.30103
-3.76982	研究所	-0.30103
-3.734864	研讨
-4.246942	研讨会	-0.30103
-3.945911	研制	-0.30103
-4.246942	岩洞	-0.30103
-3.945911	言	-0.30103
-4.246942	言谈	-0.30103
-4.246942	颜鲁公	-0.30103
-3.945911	颜色	-0.30103
-4.246942	颜书	-0.30103
-4.246942	沿	-0.30103
-4.246942	沿岸	-0.30103
-3.734864	沿海
-3.945911	沿线	-0.4771213
-3.734864	眼光
-3.734864	眼睛
-3.734864	眼下
-4.246942	眼珠	-0.30103
-4.246942	演唱	-0.30103
-4.246942	演出	-0.30103
-3.945911	演员	-0.30103
-3.945911	演奏	-0.30103
-3.734864	燕
-3.734864	秧歌
-3.76982	杨	-0.30103
-3.734864	扬州市
-4.246942	扬子江	-0.30103
-4.246942	羊肉串	-0.30103
-4.246942	养活	-0.30103
-4.246942	养鱼池	-0.30103
-3.734864	样
-3.734864	样品
-4.246942	邀	-0.30103
-3.76982	邀请	-0.30103
-3.734864	腰
-4.246942	摇	-0.30103
-4.246942	摇滚	-0.30103
-4.246942	摇晃	-0.30103
-4.246942	摇头	-0.30103
-4.246942	遥遥	-0.30103
-3.734864	药品
-2.741791	要	-0.3229319
-4.246942	要案	-0.30103
-3.734864	要件
-3.343852	要求	-0.3309932
-4.246942	要是	-0.30103
-4.246942	椰树	-0.30103
-3.734864	爷
-3.734864	野
-4.246942	野草	-0.30103
-4.246942	野生	-0.30103
-4.246942	野小子	-0.30103
-2.831968	也	-0.3187588
-4.246942	也就	-0.30103
-3.734864	也就是
-3.945911	也门	-0.30103
-3.644881	也是	-0.30103
-3.734864	也许
-3.644881	业	-0.3679768
-4.246942	业务	-0.30103
-3.945911	叶	-0.30103
-4.246942	叶利钦	-0.30103
-3.734864	叶子
-3.734864	夜色
-4.246942	夜市	-0.30103
-3.734864	液体
-4.246942	液位	-0.30103
-2.945911	一	-0.312311
-3.644881	一百	-0.30103
-3.734864	一般
-4.246942	一半	-0.30103
-4.246942	一辈子	-0.30103
-3.945911	一本	-0.30103
-3.734864	一笔
-3.734864	一边倒
-3.945911	一部	-0.30103
-4.246942	一部分	-0.30103
-3.734864	一草一木
-3.734864	一侧
-4.246942	一册	-0.30103
-3.945911	一层	-0.30103
-4.246942	一层层	-0.30103
-4.246942	一场	-0.30103
-4.246942	一筹莫展	-0.30103
-4.246942	一处	-0.30103
-4.246942	一幢	-0.30103
-3.343852	一次	-0.3309932
-4.246942	一大早	-0.30103
-3.734864	一代
-3.76982	一旦	-0.30103
-4.246942	一道	-0.30103
-4.246942	一点	-0.30103
-3.76982	一定	-0.39794
-4.246942	一度	-0.30103
-3.945911	一段	-0.30103
-3.734864	一队
-3.945911	一对	-0.30103
-4.246942	一二	-0.30103
-3.734864	一方
-3.945911	一方面	-0.30103
-2.784544	一个	-0.30103
-3.734864	一股
-3.76982	一贯	-0.30103
-3.734864	一国
-3.734864	一号
-3.734864	一盒
-3.734864	一晃
-3.644881	一会儿	-0.30103
-3.945911	一家	-0.30103
-4.246942	一架	-0.30103
-4.246942	一件	-0.30103
-4.246942	一斤	-0.30103
-3.734864	一九八四
-3.644881	一九九二	-0.69897
-4.246942	一九九九	-0.30103
-3.734864	一九九零
-3.945911	一九九六	-0.30103
-3.945911	一九九三	-0.4771213
-3.734864	一九九四
-4.246942	一九九五	-0.30103
-3.945911	一九九一	-0.4771213
-4.246942	一九零零	-0.30103
-3.734864	一九七九
-4.246942	一九五九	-0.30103
-4.246942	一句	-0.30103
-3.734864	一卷卷
-4.246942	一刻	-0.30103
-4.246942	一口	-0.30103
-3.734864	一辆
-3.945911	一流	-0.30103
-3.945911	一律	-0.30103
-3.945911	一米	-0.30103
-3.734864	一面
-3.46879	一名	-0.30103
-3.945911	一年	-0.30103
-4.246942	一年四季	-0.30103
-3.76982	一派	-0.30103
-4.246942	一炮	-0.30103
-3.734864	一捧捧
-3.945911	一批	-0.30103
-4.246942	一篇	-0.30103
-3.945911	一片	-0.30103
-4.246942	一票	-0.30103
-4.246942	一起	-0.30103
-3.644881	一千	-0.3679768
-4.246942	一切	-0.30103
-3.734864	一群
-3.46879	一日	-0.30103
-3.734864	一身
-3.734864	一声
-4.246942	一生	-0.30103
-3.734864	一十
-4.246942	一时	-0.30103
-3.734864	一丝
-3.734864	一艘
-4.246942	一套	-0.30103
-4.246942	一体化	-0.30103
-3.945911	一条	-0.30103
-4.246942	一条龙	-0.30103
-4.246942	一团	-0.30103
-3.734864	一碗
-4.246942	一万	-0.30103
-3.547971	一位	-0.30103
-3.734864	一席
-3.644881	一系列	-0.30103
-3.76982	一下	-0.30103
-4.246942	一下子	-0.30103
-4.246942	一线	-0.30103
-3.76982	一项	-0.39794
-3.07085	一些	-0.31627
-3.644881	一行	-0.30103
-3.945911	一样	-0.30103
-4.246942	一页	-0.30103
-4.246942	一夜	-0.30103
-4.246942	一一	-0.30103
-4.246942	一亿	-0.30103
-3.734864	一跃
-4.246942	一月	-0.30103
-3.734864	一阵
-4.246942	一阵阵	-0.30103
-3.945911	一支	-0.30103
-3.945911	一直	-0.30103
-3.945911	一只	-0.30103
-3.945911	一致	-0.30103
-3.401844	一种	-0.30103
-4.246942	一组	-0.30103
