~h "sil"
<BEGINHMM>
<NUMSTATES> 5
<STATE> 2
<MEAN> 42
 8.867044e+001 4.835319e+000 3.901049e+000 5.031812e+000 9.594858e-001 2.368744e+000 3.476568e+000 4.354160e-001 4.168122e+000 6.736196e-001 3.585842e+000 6.489497e-001 -6.518383e-010 -5.255753e-010 7.217728e-003 4.333153e-003 -9.006218e-004 2.481375e-005 -3.423686e-004 6.342099e-004 5.530095e-004 5.141474e-004 4.503139e-004 -3.128886e-005 -8.969382e-005 2.312859e-004 -1.718400e-005 7.545796e-004 -4.023786e-004 -1.108950e-004 -2.664615e-005 -5.061639e-005 -2.587696e-006 -3.432036e-005 -3.220877e-005 -8.002036e-006 -1.946965e-005 -1.131887e-005 -1.604807e-005 -1.007272e-005 1.631041e-005 -1.341038e-004
<VARIANCE> 42
 3.497852e+002 3.777234e+001 1.723274e+001 1.319153e+001 5.328403e+000 4.231486e+000 2.805403e+000 2.408511e+000 2.527487e+000 2.525651e+000 2.525060e+000 3.050863e+000 9.823081e-001 9.825315e-001 9.564363e+000 2.815739e+000 1.082964e+000 8.226411e-001 5.710449e-001 4.244060e-001 3.541313e-001 3.087166e-001 2.995604e-001 2.818170e-001 2.930172e-001 2.792942e-001 1.602138e-002 2.690798e-002 3.028952e+000 1.173509e+000 4.855361e-001 3.605525e-001 2.805217e-001 2.183339e-001 1.977648e-001 1.725952e-001 1.675566e-001 1.558105e-001 1.587956e-001 1.441567e-001 1.007106e-003 2.825980e-003
<GCONST> 6.097822e+001
<STATE> 3
<MEAN> 42
 8.867044e+001 4.835319e+000 3.901049e+000 5.031812e+000 9.594858e-001 2.368744e+000 3.476568e+000 4.354160e-001 4.168122e+000 6.736196e-001 3.585842e+000 6.489497e-001 -6.518383e-010 -5.255753e-010 7.217728e-003 4.333153e-003 -9.006218e-004 2.481375e-005 -3.423686e-004 6.342099e-004 5.530095e-004 5.141474e-004 4.503139e-004 -3.128886e-005 -8.969382e-005 2.312859e-004 -1.718400e-005 7.545796e-004 -4.023786e-004 -1.108950e-004 -2.664615e-005 -5.061639e-005 -2.587696e-006 -3.432036e-005 -3.220877e-005 -8.002036e-006 -1.946965e-005 -1.131887e-005 -1.604807e-005 -1.007272e-005 1.631041e-005 -1.341038e-004
<VARIANCE> 42
 3.497852e+002 3.777234e+001 1.723274e+001 1.319153e+001 5.328403e+000 4.231486e+000 2.805403e+000 2.408511e+000 2.527487e+000 2.525651e+000 2.525060e+000 3.050863e+000 9.823081e-001 9.825315e-001 9.564363e+000 2.815739e+000 1.082964e+000 8.226411e-001 5.710449e-001 4.244060e-001 3.541313e-001 3.087166e-001 2.995604e-001 2.818170e-001 2.930172e-001 2.792942e-001 1.602138e-002 2.690798e-002 3.028952e+000 1.173509e+000 4.855361e-001 3.605525e-001 2.805217e-001 2.183339e-001 1.977648e-001 1.725952e-001 1.675566e-001 1.558105e-001 1.587956e-001 1.441567e-001 1.007106e-003 2.825980e-003
<GCONST> 6.097822e+001
<STATE> 4
<MEAN> 42
 8.867044e+001 4.835319e+000 3.901049e+000 5.031812e+000 9.594858e-001 2.368744e+000 3.476568e+000 4.354160e-001 4.168122e+000 6.736196e-001 3.585842e+000 6.489497e-001 -6.518383e-010 -5.255753e-010 7.217728e-003 4.333153e-003 -9.006218e-004 2.481375e-005 -3.423686e-004 6.342099e-004 5.530095e-004 5.141474e-004 4.503139e-004 -3.128886e-005 -8.969382e-005 2.312859e-004 -1.718400e-005 7.545796e-004 -4.023786e-004 -1.108950e-004 -2.664615e-005 -5.061639e-005 -2.587696e-006 -3.432036e-005 -3.220877e-005 -8.002036e-006 -1.946965e-005 -1.131887e-005 -1.604807e-005 -1.007272e-005 1.631041e-005 -1.341038e-004
<VARIANCE> 42
 3.497852e+002 3.777234e+001 1.723274e+001 1.319153e+001 5.328403e+000 4.231486e+000 2.805403e+000 2.408511e+000 2.527487e+000 2.525651e+000 2.525060e+000 3.050863e+000 9.823081e-001 9.825315e-001 9.564363e+000 2.815739e+000 1.082964e+000 8.226411e-001 5.710449e-001 4.244060e-001 3.541313e-001 3.087166e-001 2.995604e-001 2.818170e-001 2.930172e-001 2.792942e-001 1.602138e-002 2.690798e-002 3.028952e+000 1.173509e+000 4.855361e-001 3.605525e-001 2.805217e-001 2.183339e-001 1.977648e-001 1.725952e-001 1.675566e-001 1.558105e-001 1.587956e-001 1.441567e-001 1.007106e-003 2.825980e-003
<GCONST> 6.097822e+001
<TRANSP> 5
 0.000000e+000 1.000000e+000 0.000000e+000 0.000000e+000 0.000000e+000
 0.000000e+000 6.000000e-001 4.000000e-001 0.000000e+000 0.000000e+000
 0.000000e+000 0.000000e+000 6.000000e-001 4.000000e-001 0.000000e+000
 0.000000e+000 0.000000e+000 0.000000e+000 6.000000e-001 4.000000e-001
 0.000000e+000 0.000000e+000 0.000000e+000 0.000000e+000 0.000000e+000
<ENDHMM>
~h "zh"
<BEGINHMM>
<NUMSTATES> 5
<STATE> 2
<MEAN> 42
 8.867044e+001 4.835319e+000 3.901049e+000 5.031812e+000 9.594858e-001 2.368744e+000 3.476568e+000 4.354160e-001 4.168122e+000 6.736196e-001 3.585842e+000 6.489497e-001 -6.518383e-010 -5.255753e-010 7.217728e-003 4.333153e-003 -9.006218e-004 2.481375e-005 -3.423686e-004 6.342099e-004 5.530095e-004 5.141474e-004 4.503139e-004 -3.128886e-005 -8.969382e-005 2.312859e-004 -1.718400e-005 7.545796e-004 -4.023786e-004 -1.108950e-004 -2.664615e-005 -5.061639e-005 -2.587696e-006 -3.432036e-005 -3.220877e-005 -8.002036e-006 -1.946965e-005 -1.131887e-005 -1.604807e-005 -1.007272e-005 1.631041e-005 -1.341038e-004
<VARIANCE> 42
 3.497852e+002 3.777234e+001 1.723274e+001 1.319153e+001 5.328403e+000 4.231486e+000 2.805403e+000 2.408511e+000 2.527487e+000 2.525651e+000 2.525060e+000 3.050863e+000 9.823081e-001 9.825315e-001 9.564363e+000 2.815739e+000 1.082964e+000 8.226411e-001 5.710449e-001 4.244060e-001 3.541313e-001 3.087166e-001 2.995604e-001 2.818170e-001 2.930172e-001 2.792942e-001 1.602138e-002 2.690798e-002 3.028952e+000 1.173509e+000 4.855361e-001 3.605525e-001 2.805217e-001 2.183339e-001 1.977648e-001 1.725952e-001 1.675566e-001 1.558105e-001 1.587956e-001 1.441567e-001 1.007106e-003 2.825980e-003
<GCONST> 6.097822e+001
<STATE> 3
<MEAN> 42
 8.867044e+001 4.835319e+000 3.901049e+000 5.031812e+000 9.594858e-001 2.368744e+000 3.476568e+000 4.354160e-001 4.168122e+000 6.736196e-001 3.585842e+000 6.489497e-001 -6.518383e-010 -5.255753e-010 7.217728e-003 4.333153e-003 -9.006218e-004 2.481375e-005 -3.423686e-004 6.342099e-004 5.530095e-004 5.141474e-004 4.503139e-004 -3.128886e-005 -8.969382e-005 2.312859e-004 -1.718400e-005 7.545796e-004 -4.023786e-004 -1.108950e-004 -2.664615e-005 -5.061639e-005 -2.587696e-006 -3.432036e-005 -3.220877e-005 -8.002036e-006 -1.946965e-005 -1.131887e-005 -1.604807e-005 -1.007272e-005 1.631041e-005 -1.341038e-004
<VARIANCE> 42
 3.497852e+002 3.777234e+001 1.723274e+001 1.319153e+001 5.328403e+000 4.231486e+000 2.805403e+000 2.408511e+000 2.527487e+000 2.525651e+000 2.525060e+000 3.050863e+000 9.823081e-001 9.825315e-001 9.564363e+000 2.815739e+000 1.082964e+000 8.226411e-001 5.710449e-001 4.244060e-001 3.541313e-001 3.087166e-001 2.995604e-001 2.818170e-001 2.930172e-001 2.792942e-001 1.602138e-002 2.690798e-002 3.028952e+000 1.173509e+000 4.855361e-001 3.605525e-001 2.805217e-001 2.183339e-001 1.977648e-001 1.725952e-001 1.675566e-001 1.558105e-001 1.587956e-001 1.441567e-001 1.007106e-003 2.825980e-003
<GCONST> 6.097822e+001
<STATE> 4
<MEAN> 42
 8.867044e+001 4.835319e+000 3.901049e+000 5.031812e+000 9.594858e-001 2.368744e+000 3.476568e+000 4.354160e-001 4.168122e+000 6.736196e-001 3.585842e+000 6.489497e-001 -6.518383e-010 -5.255753e-010 7.217728e-003 4.333153e-003 -9.006218e-004 2.481375e-005 -3.423686e-004 6.342099e-004 5.530095e-004 5.141474e-004 4.503139e-004 -3.128886e-005 -8.969382e-005 2.312859e-004 -1.718400e-005 7.545796e-004 -4.023786e-004 -1.108950e-004 -2.664615e-005 -5.061639e-005 -2.587696e-006 -3.432036e-005 -3.220877e-005 -8.002036e-006 -1.946965e-005 -1.131887e-005 -1.604807e-005 -1.007272e-005 1.631041e-005 -1.341038e-004
<VARIANCE> 42
 3.497852e+002 3.777234e+001 1.723274e+001 1.319153e+001 5.328403e+000 4.231486e+000 2.805403e+000 2.408511e+000 2.527487e+000 2.525651e+000 2.525060e+000 3.050863e+000 9.823081e-001 9.825315e-001 9.564363e+000 2.815739e+000 1.082964e+000 8.226411e-001 5.710449e-001 4.244060e-001 3.541313e-001 3.087166e-001 2.995604e-001 2.818170e-001 2.930172e-001 2.792942e-001 1.602138e-002 2.690798e-002 3.028952e+000 1.173509e+000 4.855361e-001 3.605525e-001 2.805217e-001 2.183339e-001 1.977648e-001 1.725952e-001 1.675566e-001 1.558105e-001 1.587956e-001 1.441567e-001 1.007106e-003 2.825980e-003
<GCONST> 6.097822e+001
<TRANSP> 5
 0.000000e+000 1.000000e+000 0.000000e+000 0.000000e+000 0.000000e+000
 0.000000e+000 6.000000e-001 4.000000e-001 0.000000e+000 0.000000e+000
 0.000000e+000 0.000000e+000 6.000000e-001 4.000000e-001 0.000000e+000
 0.000000e+000 0.000000e+000 0.000000e+000 6.000000e-001 4.000000e-001
 0.000000e+000 0.000000e+000 0.000000e+000 0.000000e+000 0.000000e+000
<ENDHMM>
~h "iiiFT"
<BEGINHMM>
<NUMSTATES> 5
<STATE> 2
<MEAN> 42
 8.867044e+001 4.835319e+000 3.901049e+000 5.031812e+000 9.594858e-001 2.368744e+000 3.476568e+000 4.354160e-001 4.168122e+000 6.736196e-001 3.585842e+000 6.489497e-001 -6.518383e-010 -5.255753e-010 7.217728e-003 4.333153e-003 -9.006218e-004 2.481375e-005 -3.423686e-004 6.342099e-004 5.530095e-004 5.141474e-004 4.503139e-004 -3.128886e-005 -8.969382e-005 2.312859e-004 -1.718400e-005 7.545796e-004 -4.023786e-004 -1.108950e-004 -2.664615e-005 -5.061639e-005 -2.587696e-006 -3.432036e-005 -3.220877e-005 -8.002036e-006 -1.946965e-005 -1.131887e-005 -1.604807e-005 -1.007272e-005 1.631041e-005 -1.341038e-004
<VARIANCE> 42
 3.497852e+002 3.777234e+001 1.723274e+001 1.319153e+001 5.328403e+000 4.231486e+000 2.805403e+000 2.408511e+000 2.527487e+000 2.525651e+000 2.525060e+000 3.050863e+000 9.823081e-001 9.825315e-001 9.564363e+000 2.815739e+000 1.082964e+000 8.226411e-001 5.710449e-001 4.244060e-001 3.541313e-001 3.087166e-001 2.995604e-001 2.818170e-001 2.930172e-001 2.792942e-001 1.602138e-002 2.690798e-002 3.028952e+000 1.173509e+000 4.855361e-001 3.605525e-001 2.805217e-001 2.183339e-001 1.977648e-001 1.725952e-001 1.675566e-001 1.558105e-001 1.587956e-001 1.441567e-001 1.007106e-003 2.825980e-003
<GCONST> 6.097822e+001
<STATE> 3
<MEAN> 42
 8.867044e+001 4.835319e+000 3.901049e+000 5.031812e+000 9.594858e-001 2.368744e+000 3.476568e+000 4.354160e-001 4.168122e+000 6.736196e-001 3.585842e+000 6.489497e-001 -6.518383e-010 -5.255753e-010 7.217728e-003 4.333153e-003 -9.006218e-004 2.481375e-005 -3.423686e-004 6.342099e-004 5.530095e-004 5.141474e-004 4.503139e-004 -3.128886e-005 -8.969382e-005 2.312859e-004 -1.718400e-005 7.545796e-004 -4.023786e-004 -1.108950e-004 -2.664615e-005 -5.061639e-005 -2.587696e-006 -3.432036e-005 -3.220877e-005 -8.002036e-006 -1.946965e-005 -1.131887e-005 -1.604807e-005 -1.007272e-005 1.631041e-005 -1.341038e-004
<VARIANCE> 42
 3.497852e+002 3.777234e+001 1.723274e+001 1.319153e+001 5.328403e+000 4.231486e+000 2.805403e+000 2.408511e+000 2.527487e+000 2.525651e+000 2.525060e+000 3.050863e+000 9.823081e-001 9.825315e-001 9.564363e+000 2.815739e+000 1.082964e+000 8.226411e-001 5.710449e-001 4.244060e-001 3.541313e-001 3.087166e-001 2.995604e-001 2.818170e-001 2.930172e-001 2.792942e-001 1.602138e-002 2.690798e-002 3.028952e+000 1.173509e+000 4.855361e-001 3.605525e-001 2.805217e-001 2.183339e-001 1.977648e-001 1.725952e-001 1.675566e-001 1.558105e-001 1.587956e-001 1.441567e-001 1.007106e-003 2.825980e-003
<GCONST> 6.097822e+001
<STATE> 4
<MEAN> 42
 8.867044e+001 4.835319e+000 3.901049e+000 5.031812e+000 9.594858e-001 2.368744e+000 3.476568e+000 4.354160e-001 4.168122e+000 6.736196e-001 3.585842e+000 6.489497e-001 -6.518383e-010 -5.255753e-010 7.217728e-003 4.333153e-003 -9.006218e-004 2.481375e-005 -3.423686e-004 6.342099e-004 5.530095e-004 5.141474e-004 4.503139e-004 -3.128886e-005 -8.969382e-005 2.312859e-004 -1.718400e-005 7.545796e-004 -4.023786e-004 -1.108950e-004 -2.664615e-005 -5.061639e-005 -2.587696e-006 -3.432036e-005 -3.220877e-005 -8.002036e-006 -1.946965e-005 -1.131887e-005 -1.604807e-005 -1.007272e-005 1.631041e-005 -1.341038e-004
<VARIANCE> 42
 3.497852e+002 3.777234e+001 1.723274e+001 1.319153e+001 5.328403e+000 4.231486e+000 2.805403e+000 2.408511e+000 2.527487e+000 2.525651e+000 2.525060e+000 3.050863e+000 9.823081e-001 9.825315e-001 9.564363e+000 2.815739e+000 1.082964e+000 8.226411e-001 5.710449e-001 4.244060e-001 3.541313e-001 3.087166e-001 2.995604e-001 2.818170e-001 2.930172e-001 2.792942e-001 1.602138e-002 2.690798e-002 3.028952e+000 1.173509e+000 4.855361e-001 3.605525e-001 2.805217e-001 2.183339e-001 1.977648e-001 1.725952e-001 1.675566e-001 1.558105e-001 1.587956e-001 1.441567e-001 1.007106e-003 2.825980e-003
<GCONST> 6.097822e+001
<TRANSP> 5
 0.000000e+000 1.000000e+000 0.000000e+000 0.000000e+000 0.000000e+000
 0.000000e+000 6.000000e-001 4.000000e-001 0.000000e+000 0.000000e+000
 0.000000e+000 0.000000e+000 6.000000e-001 4.000000e-001 0.000000e+000
 0.000000e+000 0.000000e+000 0.000000e+000 6.000000e-001 4.000000e-001
 0.000000e+000 0.000000e+000 0.000000e+000 0.000000e+000 0.000000e+000
<ENDHMM>
~h "vv"
<BEGINHMM>
<NUMSTATES> 5
<STATE> 2
<MEAN> 42
 8.867044e+001 4.835319e+000 3.901049e+000 5.031812e+000 9.594858e-001 2.368744e+000 3.476568e+000 4.354160e-001 4.168122e+000 6.736196e-001 3.585842e+000 6.489497e-001 -6.518383e-010 -5.255753e-010 7.217728e-003 4.333153e-003 -9.006218e-004 2.481375e-005 -3.423686e-004 6.342099e-004 5.530095e-004 5.141474e-004 4.503139e-004 -3.128886e-005 -8.969382e-005 2.312859e-004 -1.718400e-005 7.545796e-004 -4.023786e-004 -1.108950e-004 -2.664615e-005 -5.061639e-005 -2.587696e-006 -3.432036e-005 -3.220877e-005 -8.002036e-006 -1.946965e-005 -1.131887e-005 -1.604807e-005 -1.007272e-005 1.631041e-005 -1.341038e-004
<VARIANCE> 42
 3.497852e+002 3.777234e+001 1.723274e+001 1.319153e+001 5.328403e+000 4.231486e+000 2.805403e+000 2.408511e+000 2.527487e+000 2.525651e+000 2.525060e+000 3.050863e+000 9.823081e-001 9.825315e-001 9.564363e+000 2.815739e+000 1.082964e+000 8.226411e-001 5.710449e-001 4.244060e-001 3.541313e-001 3.087166e-001 2.995604e-001 2.818170e-001 2.930172e-001 2.792942e-001 1.602138e-002 2.690798e-002 3.028952e+000 1.173509e+000 4.855361e-001 3.605525e-001 2.805217e-001 2.183339e-001 1.977648e-001 1.725952e-001 1.675566e-001 1.558105e-001 1.587956e-001 1.441567e-001 1.007106e-003 2.825980e-003
<GCONST> 6.097822e+001
<STATE> 3
<MEAN> 42
 8.867044e+001 4.835319e+000 3.901049e+000 5.031812e+000 9.594858e-001 2.368744e+000 3.476568e+000 4.354160e-001 4.168122e+000 6.736196e-001 3.585842e+000 6.489497e-001 -6.518383e-010 -5.255753e-010 7.217728e-003 4.333153e-003 -9.006218e-004 2.481375e-005 -3.423686e-004 6.342099e-004 5.530095e-004 5.141474e-004 4.503139e-004 -3.128886e-005 -8.969382e-005 2.312859e-004 -1.718400e-005 7.545796e-004 -4.023786e-004 -1.108950e-004 -2.664615e-005 -5.061639e-005 -2.587696e-006 -3.432036e-005 -3.220877e-005 -8.002036e-006 -1.946965e-005 -1.131887e-005 -1.604807e-005 -1.007272e-005 1.631041e-005 -1.341038e-004
<VARIANCE> 42
 3.497852e+002 3.777234e+001 1.723274e+001 1.319153e+001 5.328403e+000 4.231486e+000 2.805403e+000 2.408511e+000 2.527487e+000 2.525651e+000 2.525060e+000 3.050863e+000 9.823081e-001 9.825315e-001 9.564363e+000 2.815739e+000 1.082964e+000 8.226411e-001 5.710449e-001 4.244060e-001 3.541313e-001 3.087166e-001 2.995604e-001 2.818170e-001 2.930172e-001 2.792942e-001 1.602138e-002 2.690798e-002 3.028952e+000 1.173509e+000 4.855361e-001 3.605525e-001 2.805217e-001 2.183339e-001 1.977648e-001 1.725952e-001 1.675566e-001 1.558105e-001 1.587956e-001 1.441567e-001 1.007106e-003 2.825980e-003
<GCONST> 6.097822e+001
<STATE> 4
<MEAN> 42
 8.867044e+001 4.835319e+000 3.901049e+000 5.031812e+000 9.594858e-001 2.368744e+000 3.476568e+000 4.354160e-001 4.168122e+000 6.736196e-001 3.585842e+000 6.489497e-001 -6.518383e-010 -5.255753e-010 7.217728e-003 4.333153e-003 -9.006218e-004 2.481375e-005 -3.423686e-004 6.342099e-004 5.530095e-004 5.141474e-004 4.503139e-004 -3.128886e-005 -8.969382e-005 2.312859e-004 -1.718400e-005 7.545796e-004 -4.023786e-004 -1.108950e-004 -2.664615e-005 -5.061639e-005 -2.587696e-006 -3.432036e-005 -3.220877e-005 -8.002036e-006 -1.946965e-005 -1.131887e-005 -1.604807e-005 -1.007272e-005 1.631041e-005 -1.341038e-004
<VARIANCE> 42
 3.497852e+002 3.777234e+001 1.723274e+001 1.319153e+001 5.328403e+000 4.231486e+000 2.805403e+000 2.408511e+000 2.527487e+000 2.525651e+000 2.525060e+000 3.050863e+000 9.823081e-001 9.825315e-001 9.564363e+000 2.815739e+000 1.082964e+000 8.226411e-001 5.710449e-001 4.244060e-001 3.541313e-001 3.087166e-001 2.995604e-001 2.818170e-001 2.930172e-001 2.792942e-001 1.602138e-002 2.690798e-002 3.028952e+000 1.173509e+000 4.855361e-001 3.605525e-001 2.805217e-001 2.183339e-001 1.977648e-001 1.725952e-001 1.675566e-001 1.558105e-001 1.587956e-001 1.441567e-001 1.007106e-003 2.825980e-003
<GCONST> 6.097822e+001
<TRANSP> 5
 0.000000e+000 1.000000e+000 0.000000e+000 0.000000e+000 0.000000e+000
 0.000000e+000 6.000000e-001 4.000000e-001 0.000000e+000 0.000000e+000
 0.000000e+000 0.000000e+000 6.000000e-001 4.000000e-001 0.000000e+000
 0.000000e+000 0.000000e+000 0.000000e+000 6.000000e-001 4.000000e-001
 0.000000e+000 0.000000e+000 0.000000e+000 0.000000e+000 0.000000e+000
<ENDHMM>
~h "veHT"
<BEGINHMM>
<NUMSTATES> 5
<STATE> 2
<MEAN> 42
 8.867044e+001 4.835319e+000 3.901049e+000 5.031812e+000 9.594858e-001 2.368744e+000 3.476568e+000 4.354160e-001 4.168122e+000 6.736196e-001 3.585842e+000 6.489497e-001 -6.518383e-010 -5.255753e-010 7.217728e-003 4.333153e-003 -9.006218e-004 2.481375e-005 -3.423686e-004 6.342099e-004 5.530095e-004 5.141474e-004 4.503139e-004 -3.128886e-005 -8.969382e-005 2.312859e-004 -1.718400e-005 7.545796e-004 -4.023786e-004 -1.108950e-004 -2.664615e-005 -5.061639e-005 -2.587696e-006 -3.432036e-005 -3.220877e-005 -8.002036e-006 -1.946965e-005 -1.131887e-005 -1.604807e-005 -1.007272e-005 1.631041e-005 -1.341038e-004
<VARIANCE> 42
 3.497852e+002 3.777234e+001 1.723274e+001 1.319153e+001 5.328403e+000 4.231486e+000 2.805403e+000 2.408511e+000 2.527487e+000 2.525651e+000 2.525060e+000 3.050863e+000 9.823081e-001 9.825315e-001 9.564363e+000 2.815739e+000 1.082964e+000 8.226411e-001 5.710449e-001 4.244060e-001 3.541313e-001 3.087166e-001 2.995604e-001 2.818170e-001 2.930172e-001 2.792942e-001 1.602138e-002 2.690798e-002 3.028952e+000 1.173509e+000 4.855361e-001 3.605525e-001 2.805217e-001 2.183339e-001 1.977648e-001 1.725952e-001 1.675566e-001 1.558105e-001 1.587956e-001 1.441567e-001 1.007106e-003 2.825980e-003
<GCONST> 6.097822e+001
<STATE> 3
<MEAN> 42
 8.867044e+001 4.835319e+000 3.901049e+000 5.031812e+000 9.594858e-001 2.368744e+000 3.476568e+000 4.354160e-001 4.168122e+000 6.736196e-001 3.585842e+000 6.489497e-001 -6.518383e-010 -5.255753e-010 7.217728e-003 4.333153e-003 -9.006218e-004 2.481375e-005 -3.423686e-004 6.342099e-004 5.530095e-004 5.141474e-004 4.503139e-004 -3.128886e-005 -8.969382e-005 2.312859e-004 -1.718400e-005 7.545796e-004 -4.023786e-004 -1.108950e-004 -2.664615e-005 -5.061639e-005 -2.587696e-006 -3.432036e-005 -3.220877e-005 -8.002036e-006 -1.946965e-005 -1.131887e-005 -1.604807e-005 -1.007272e-005 1.631041e-005 -1.341038e-004
<VARIANCE> 42
 3.497852e+002 3.777234e+001 1.723274e+001 1.319153e+001 5.328403e+000 4.231486e+000 2.805403e+000 2.408511e+000 2.527487e+000 2.525651e+000 2.525060e+000 3.050863e+000 9.823081e-001 9.825315e-001 9.564363e+000 2.815739e+000 1.082964e+000 8.226411e-001 5.710449e-001 4.244060e-001 3.541313e-001 3.087166e-001 2.995604e-001 2.818170e-001 2.930172e-001 2.792942e-001 1.602138e-002 2.690798e-002 3.028952e+000 1.173509e+000 4.855361e-001 3.605525e-001 2.805217e-001 2.183339e-001 1.977648e-001 1.725952e-001 1.675566e-001 1.558105e-001 1.587956e-001 1.441567e-001 1.007106e-003 2.825980e-003
<GCONST> 6.097822e+001
<STATE> 4
<MEAN> 42
 8.867044e+001 4.835319e+000 3.901049e+000 5.031812e+000 9.594858e-001 2.368744e+000 3.476568e+000 4.354160e-001 4.168122e+000 6.736196e-001 3.585842e+000 6.489497e-001 -6.518383e-010 -5.255753e-010 7.217728e-003 4.333153e-003 -9.006218e-004 2.481375e-005 -3.423686e-004 6.342099e-004 5.530095e-004 5.141474e-004 4.503139e-004 -3.128886e-005 -8.969382e-005 2.312859e-004 -1.718400e-005 7.545796e-004 -4.023786e-004 -1.108950e-004 -2.664615e-005 -5.061639e-005 -2.587696e-006 -3.432036e-005 -3.220877e-005 -8.002036e-006 -1.946965e-005 -1.131887e-005 -1.604807e-005 -1.007272e-005 1.631041e-005 -1.341038e-004
<VARIANCE> 42
 3.497852e+002 3.777234e+001 1.723274e+001 1.319153e+001 5.328403e+000 4.231486e+000 2.805403e+000 2.408511e+000 2.527487e+000 2.525651e+000 2.525060e+000 3.050863e+000 9.823081e-001 9.825315e-001 9.564363e+000 2.815739e+000 1.082964e+000 8.226411e-001 5.710449e-001 4.244060e-001 3.541313e-001 3.087166e-001 2.995604e-001 2.818170e-001 2.930172e-001 2.792942e-001 1.602138e-002 2.690798e-002 3.028952e+000 1.173509e+000 4.855361e-001 3.605525e-001 2.805217e-001 2.183339e-001 1.977648e-001 1.725952e-001 1.675566e-001 1.558105e-001 1.587956e-001 1.441567e-001 1.007106e-003 2.825980e-003
<GCONST> 6.097822e+001
<TRANSP> 5
 0.000000e+000 1.000000e+000 0.000000e+000 0.000000e+000 0.000000e+000
 0.000000e+000 6.000000e-001 4.000000e-001 0.000000e+000 0.000000e+000
 0.000000e+000 0.000000e+000 6.000000e-001 4.000000e-001 0.000000e+000
 0.000000e+000 0.000000e+000 0.000000e+000 6.000000e-001 4.000000e-001
 0.000000e+000 0.000000e+000 0.000000e+000 0.000000e+000 0.000000e+000
<ENDHMM>
~h "ee"
<BEGINHMM>
<NUMSTATES> 5
<STATE> 2
<MEAN> 42
 8.867044e+001 4.835319e+000 3.901049e+000 5.031812e+000 9.594858e-001 2.368744e+000 3.476568e+000 4.354160e-001 4.168122e+000 6.736196e-001 3.585842e+000 6.489497e-001 -6.518383e-010 -5.255753e-010 7.217728e-003 4.333153e-003 -9.006218e-004 2.481375e-005 -3.423686e-004 6.342099e-004 5.530095e-004 5.141474e-004 4.503139e-004 -3.128886e-005 -8.969382e-005 2.312859e-004 -1.718400e-005 7.545796e-004 -4.023786e-004 -1.108950e-004 -2.664615e-005 -5.061639e-005 -2.587696e-006 -3.432036e-005 -3.220877e-005 -8.002036e-006 -1.946965e-005 -1.131887e-005 -1.604807e-005 -1.007272e-005 1.631041e-005 -1.341038e-004
<VARIANCE> 42
 3.497852e+002 3.777234e+001 1.723274e+001 1.319153e+001 5.328403e+000 4.231486e+000 2.805403e+000 2.408511e+000 2.527487e+000 2.525651e+000 2.525060e+000 3.050863e+000 9.823081e-001 9.825315e-001 9.564363e+000 2.815739e+000 1.082964e+000 8.226411e-001 5.710449e-001 4.244060e-001 3.541313e-001 3.087166e-001 2.995604e-001 2.818170e-001 2.930172e-001 2.792942e-001 1.602138e-002 2.690798e-002 3.028952e+000 1.173509e+000 4.855361e-001 3.605525e-001 2.805217e-001 2.183339e-001 1.977648e-001 1.725952e-001 1.675566e-001 1.558105e-001 1.587956e-001 1.441567e-001 1.007106e-003 2.825980e-003
<GCONST> 6.097822e+001
<STATE> 3
<MEAN> 42
 8.867044e+001 4.835319e+000 3.901049e+000 5.031812e+000 9.594858e-001 2.368744e+000 3.476568e+000 4.354160e-001 4.168122e+000 6.736196e-001 3.585842e+000 6.489497e-001 -6.518383e-010 -5.255753e-010 7.217728e-003 4.333153e-003 -9.006218e-004 2.481375e-005 -3.423686e-004 6.342099e-004 5.530095e-004 5.141474e-004 4.503139e-004 -3.128886e-005 -8.969382e-005 2.312859e-004 -1.718400e-005 7.545796e-004 -4.023786e-004 -1.108950e-004 -2.664615e-005 -5.061639e-005 -2.587696e-006 -3.432036e-005 -3.220877e-005 -8.002036e-006 -1.946965e-005 -1.131887e-005 -1.604807e-005 -1.007272e-005 1.631041e-005 -1.341038e-004
<VARIANCE> 42
 3.497852e+002 3.777234e+001 1.723274e+001 1.319153e+001 5.328403e+000 4.231486e+000 2.805403e+000 2.408511e+000 2.527487e+000 2.525651e+000 2.525060e+000 3.050863e+000 9.823081e-001 9.825315e-001 9.564363e+000 2.815739e+000 1.082964e+000 8.226411e-001 5.710449e-001 4.244060e-001 3.541313e-001 3.087166e-001 2.995604e-001 2.818170e-001 2.930172e-001 2.792942e-001 1.602138e-002 2.690798e-002 3.028952e+000 1.173509e+000 4.855361e-001 3.605525e-001 2.805217e-001 2.183339e-001 1.977648e-001 1.725952e-001 1.675566e-001 1.558105e-001 1.587956e-001 1.441567e-001 1.007106e-003 2.825980e-003
<GCONST> 6.097822e+001
<STATE> 4
<MEAN> 42
 8.867044e+001 4.835319e+000 3.901049e+000 5.031812e+000 9.594858e-001 2.368744e+000 3.476568e+000 4.354160e-001 4.168122e+000 6.736196e-001 3.585842e+000 6.489497e-001 -6.518383e-010 -5.255753e-010 7.217728e-003 4.333153e-003 -9.006218e-004 2.481375e-005 -3.423686e-004 6.342099e-004 5.530095e-004 5.141474e-004 4.503139e-004 -3.128886e-005 -8.969382e-005 2.312859e-004 -1.718400e-005 7.545796e-004 -4.023786e-004 -1.108950e-004 -2.664615e-005 -5.061639e-005 -2.587696e-006 -3.432036e-005 -3.220877e-005 -8.002036e-006 -1.946965e-005 -1.131887e-005 -1.604807e-005 -1.007272e-005 1.631041e-005 -1.341038e-004
<VARIANCE> 42
 3.497852e+002 3.777234e+001 1.723274e+001 1.319153e+001 5.328403e+000 4.231486e+000 2.805403e+000 2.408511e+000 2.527487e+000 2.525651e+000 2.525060e+000 3.050863e+000 9.823081e-001 9.825315e-001 9.564363e+000 2.815739e+000 1.082964e+000 8.226411e-001 5.710449e-001 4.244060e-001 3.541313e-001 3.087166e-001 2.995604e-001 2.818170e-001 2.930172e-001 2.792942e-001 1.602138e-002 2.690798e-002 3.028952e+000 1.173509e+000 4.855361e-001 3.605525e-001 2.805217e-001 2.183339e-001 1.977648e-001 1.725952e-001 1.675566e-001 1.558105e-001 1.587956e-001 1.441567e-001 1.007106e-003 2.825980e-003
<GCONST> 6.097822e+001
<TRANSP> 5
 0.000000e+000 1.000000e+000 0.000000e+000 0.000000e+000 0.000000e+000
 0.000000e+000 6.000000e-001 4.000000e-001 0.000000e+000 0.000000e+000
 0.000000e+000 0.000000e+000 6.000000e-001 4.000000e-001 0.000000e+000
 0.000000e+000 0.000000e+000 0.000000e+000 6.000000e-001 4.000000e-001
 0.000000e+000 0.000000e+000 0.000000e+000 0.000000e+000 0.000000e+000
<ENDHMM>
~h "eRT"
<BEGINHMM>
<NUMSTATES> 5
<STATE> 2
<MEAN> 42
 8.867044e+001 4.835319e+000 3.901049e+000 5.031812e+000 9.594858e-001 2.368744e+000 3.476568e+000 4.354160e-001 4.168122e+000 6.736196e-001 3.585842e+000 6.489497e-001 -6.518383e-010 -5.255753e-010 7.217728e-003 4.333153e-003 -9.006218e-004 2.481375e-005 -3.423686e-004 6.342099e-004 5.530095e-004 5.141474e-004 4.503139e-004 -3.128886e-005 -8.969382e-005 2.312859e-004 -1.718400e-005 7.545796e-004 -4.023786e-004 -1.108950e-004 -2.664615e-005 -5.061639e-005 -2.587696e-006 -3.432036e-005 -3.220877e-005 -8.002036e-006 -1.946965e-005 -1.131887e-005 -1.604807e-005 -1.007272e-005 1.631041e-005 -1.341038e-004
<VARIANCE> 42
 3.497852e+002 3.777234e+001 1.723274e+001 1.319153e+001 5.328403e+000 4.231486e+000 2.805403e+000 2.408511e+000 2.527487e+000 2.525651e+000 2.525060e+000 3.050863e+000 9.823081e-001 9.825315e-001 9.564363e+000 2.815739e+000 1.082964e+000 8.226411e-001 5.710449e-001 4.244060e-001 3.541313e-001 3.087166e-001 2.995604e-001 2.818170e-001 2.930172e-001 2.792942e-001 1.602138e-002 2.690798e-002 3.028952e+000 1.173509e+000 4.855361e-001 3.605525e-001 2.805217e-001 2.183339e-001 1.977648e-001 1.725952e-001 1.675566e-001 1.558105e-001 1.587956e-001 1.441567e-001 1.007106e-003 2.825980e-003
<GCONST> 6.097822e+001
<STATE> 3
<MEAN> 42
 8.867044e+001 4.835319e+000 3.901049e+000 5.031812e+000 9.594858e-001 2.368744e+000 3.476568e+000 4.354160e-001 4.168122e+000 6.736196e-001 3.585842e+000 6.489497e-001 -6.518383e-010 -5.255753e-010 7.217728e-003 4.333153e-003 -9.006218e-004 2.481375e-005 -3.423686e-004 6.342099e-004 5.530095e-004 5.141474e-004 4.503139e-004 -3.128886e-005 -8.969382e-005 2.312859e-004 -1.718400e-005 7.545796e-004 -4.023786e-004 -1.108950e-004 -2.664615e-005 -5.061639e-005 -2.587696e-006 -3.432036e-005 -3.220877e-005 -8.002036e-006 -1.946965e-005 -1.131887e-005 -1.604807e-005 -1.007272e-005 1.631041e-005 -1.341038e-004
<VARIANCE> 42
 3.497852e+002 3.777234e+001 1.723274e+001 1.319153e+001 5.328403e+000 4.231486e+000 2.805403e+000 2.408511e+000 2.527487e+000 2.525651e+000 2.525060e+000 3.050863e+000 9.823081e-001 9.825315e-001 9.564363e+000 2.815739e+000 1.082964e+000 8.226411e-001 5.710449e-001 4.244060e-001 3.541313e-001 3.087166e-001 2.995604e-001 2.818170e-001 2.930172e-001 2.792942e-001 1.602138e-002 2.690798e-002 3.028952e+000 1.173509e+000 4.855361e-001 3.605525e-001 2.805217e-001 2.183339e-001 1.977648e-001 1.725952e-001 1.675566e-001 1.558105e-001 1.587956e-001 1.441567e-001 1.007106e-003 2.825980e-003
<GCONST> 6.097822e+001
<STATE> 4
<MEAN> 42
 8.867044e+001 4.835319e+000 3.901049e+000 5.031812e+000 9.594858e-001 2.368744e+000 3.476568e+000 4.354160e-001 4.168122e+000 6.736196e-001 3.585842e+000 6.489497e-001 -6.518383e-010 -5.255753e-010 7.217728e-003 4.333153e-003 -9.006218e-004 2.481375e-005 -3.423686e-004 6.342099e-004 5.530095e-004 5.141474e-004 4.503139e-004 -3.128886e-005 -8.969382e-005 2.312859e-004 -1.718400e-005 7.545796e-004 -4.023786e-004 -1.108950e-004 -2.664615e-005 -5.061639e-005 -2.587696e-006 -3.432036e-005 -3.220877e-005 -8.002036e-006 -1.946965e-005 -1.131887e-005 -1.604807e-005 -1.007272e-005 1.631041e-005 -1.341038e-004
<VARIANCE> 42
 3.497852e+002 3.777234e+001 1.723274e+001 1.319153e+001 5.328403e+000 4.231486e+000 2.805403e+000 2.408511e+000 2.527487e+000 2.525651e+000 2.525060e+000 3.050863e+000 9.823081e-001 9.825315e-001 9.564363e+000 2.815739e+000 1.082964e+000 8.226411e-001 5.710449e-001 4.244060e-001 3.541313e-001 3.087166e-001 2.995604e-001 2.818170e-001 2.930172e-001 2.792942e-001 1.602138e-002 2.690798e-002 3.028952e+000 1.173509e+000 4.855361e-001 3.605525e-001 2.805217e-001 2.183339e-001 1.977648e-001 1.725952e-001 1.675566e-001 1.558105e-001 1.587956e-001 1.441567e-001 1.007106e-003 2.825980e-003
<GCONST> 6.097822e+001
<TRANSP> 5
 0.000000e+000 1.000000e+000 0.000000e+000 0.000000e+000 0.000000e+000
 0.000000e+000 6.000000e-001 4.000000e-001 0.000000e+000 0.000000e+000
 0.000000e+000 0.000000e+000 6.000000e-001 4.000000e-001 0.000000e+000
 0.000000e+000 0.000000e+000 0.000000e+000 6.000000e-001 4.000000e-001
 0.000000e+000 0.000000e+000 0.000000e+000 0.000000e+000 0.000000e+000
<ENDHMM>
~h "g"
<BEGINHMM>
<NUMSTATES> 5
<STATE> 2
<MEAN> 42
 8.867044e+001 4.835319e+000 3.901049e+000 5.031812e+000 9.594858e-001 2.368744e+000 3.476568e+000 4.354160e-001 4.168122e+000 6.736196e-001 3.585842e+000 6.489497e-001 -6.518383e-010 -5.255753e-010 7.217728e-003 4.333153e-003 -9.006218e-004 2.481375e-005 -3.423686e-004 6.342099e-004 5.530095e-004 5.141474e-004 4.503139e-004 -3.128886e-005 -8.969382e-005 2.312859e-004 -1.718400e-005 7.545796e-004 -4.023786e-004 -1.108950e-004 -2.664615e-005 -5.061639e-005 -2.587696e-006 -3.432036e-005 -3.220877e-005 -8.002036e-006 -1.946965e-005 -1.131887e-005 -1.604807e-005 -1.007272e-005 1.631041e-005 -1.341038e-004
<VARIANCE> 42
 3.497852e+002 3.777234e+001 1.723274e+001 1.319153e+001 5.328403e+000 4.231486e+000 2.805403e+000 2.408511e+000 2.527487e+000 2.525651e+000 2.525060e+000 3.050863e+000 9.823081e-001 9.825315e-001 9.564363e+000 2.815739e+000 1.082964e+000 8.226411e-001 5.710449e-001 4.244060e-001 3.541313e-001 3.087166e-001 2.995604e-001 2.818170e-001 2.930172e-001 2.792942e-001 1.602138e-002 2.690798e-002 3.028952e+000 1.173509e+000 4.855361e-001 3.605525e-001 2.805217e-001 2.183339e-001 1.977648e-001 1.725952e-001 1.675566e-001 1.558105e-001 1.587956e-001 1.441567e-001 1.007106e-003 2.825980e-003
<GCONST> 6.097822e+001
<STATE> 3
<MEAN> 42
 8.867044e+001 4.835319e+000 3.901049e+000 5.031812e+000 9.594858e-001 2.368744e+000 3.476568e+000 4.354160e-001 4.168122e+000 6.736196e-001 3.585842e+000 6.489497e-001 -6.518383e-010 -5.255753e-010 7.217728e-003 4.333153e-003 -9.006218e-004 2.481375e-005 -3.423686e-004 6.342099e-004 5.530095e-004 5.141474e-004 4.503139e-004 -3.128886e-005 -8.969382e-005 2.312859e-004 -1.718400e-005 7.545796e-004 -4.023786e-004 -1.108950e-004 -2.664615e-005 -5.061639e-005 -2.587696e-006 -3.432036e-005 -3.220877e-005 -8.002036e-006 -1.946965e-005 -1.131887e-005 -1.604807e-005 -1.007272e-005 1.631041e-005 -1.341038e-004
<VARIANCE> 42
 3.497852e+002 3.777234e+001 1.723274e+001 1.319153e+001 5.328403e+000 4.231486e+000 2.805403e+000 2.408511e+000 2.527487e+000 2.525651e+000 2.525060e+000 3.050863e+000 9.823081e-001 9.825315e-001 9.564363e+000 2.815739e+000 1.082964e+000 8.226411e-001 5.710449e-001 4.244060e-001 3.541313e-001 3.087166e-001 2.995604e-001 2.818170e-001 2.930172e-001 2.792942e-001 1.602138e-002 2.690798e-002 3.028952e+000 1.173509e+000 4.855361e-001 3.605525e-001 2.805217e-001 2.183339e-001 1.977648e-001 1.725952e-001 1.675566e-001 1.558105e-001 1.587956e-001 1.441567e-001 1.007106e-003 2.825980e-003
<GCONST> 6.097822e+001
<STATE> 4
<MEAN> 42
 8.867044e+001 4.835319e+000 3.901049e+000 5.031812e+000 9.594858e-001 2.368744e+000 3.476568e+000 4.354160e-001 4.168122e+000 6.736196e-001 3.585842e+000 6.489497e-001 -6.518383e-010 -5.255753e-010 7.217728e-003 4.333153e-003 -9.006218e-004 2.481375e-005 -3.423686e-004 6.342099e-004 5.530095e-004 5.141474e-004 4.503139e-004 -3.128886e-005 -8.969382e-005 2.312859e-004 -1.718400e-005 7.545796e-004 -4.023786e-004 -1.108950e-004 -2.664615e-005 -5.061639e-005 -2.587696e-006 -3.432036e-005 -3.220877e-005 -8.002036e-006 -1.946965e-005 -1.131887e-005 -1.604807e-005 -1.007272e-005 1.631041e-005 -1.341038e-004
<VARIANCE> 42
 3.497852e+002 3.777234e+001 1.723274e+001 1.319153e+001 5.328403e+000 4.231486e+000 2.805403e+000 2.408511e+000 2.527487e+000 2.525651e+000 2.525060e+000 3.050863e+000 9.823081e-001 9.825315e-001 9.564363e+000 2.815739e+000 1.082964e+000 8.226411e-001 5.710449e-001 4.244060e-001 3.541313e-001 3.087166e-001 2.995604e-001 2.818170e-001 2.930172e-001 2.792942e-001 1.602138e-002 2.690798e-002 3.028952e+000 1.173509e+000 4.855361e-001 3.605525e-001 2.805217e-001 2.183339e-001 1.977648e-001 1.725952e-001 1.675566e-001 1.558105e-001 1.587956e-001 1.441567e-001 1.007106e-003 2.825980e-003
<GCONST> 6.097822e+001
<TRANSP> 5
 0.000000e+000 1.000000e+000 0.000000e+000 0.000000e+000 0.000000e+000
 0.000000e+000 6.000000e-001 4.000000e-001 0.000000e+000 0.000000e+000
 0.000000e+000 0.000000e+000 6.000000e-001 4.000000e-001 0.000000e+000
 0.000000e+000 0.000000e+000 0.000000e+000 6.000000e-001 4.000000e-001
 0.000000e+000 0.000000e+000 0.000000e+000 0.000000e+000 0.000000e+000
<ENDHMM>
~h "uoRT"
<BEGINHMM>
<NUMSTATES> 5
<STATE> 2
<MEAN> 42
 8.867044e+001 4.835319e+000 3.901049e+000 5.031812e+000 9.594858e-001 2.368744e+000 3.476568e+000 4.354160e-001 4.168122e+000 6.736196e-001 3.585842e+000 6.489497e-001 -6.518383e-010 -5.255753e-010 7.217728e-003 4.333153e-003 -9.006218e-004 2.481375e-005 -3.423686e-004 6.342099e-004 5.530095e-004 5.141474e-004 4.503139e-004 -3.128886e-005 -8.969382e-005 2.312859e-004 -1.718400e-005 7.545796e-004 -4.023786e-004 -1.108950e-004 -2.664615e-005 -5.061639e-005 -2.587696e-006 -3.432036e-005 -3.220877e-005 -8.002036e-006 -1.946965e-005 -1.131887e-005 -1.604807e-005 -1.007272e-005 1.631041e-005 -1.341038e-004
<VARIANCE> 42
 3.497852e+002 3.777234e+001 1.723274e+001 1.319153e+001 5.328403e+000 4.231486e+000 2.805403e+000 2.408511e+000 2.527487e+000 2.525651e+000 2.525060e+000 3.050863e+000 9.823081e-001 9.825315e-001 9.564363e+000 2.815739e+000 1.082964e+000 8.226411e-001 5.710449e-001 4.244060e-001 3.541313e-001 3.087166e-001 2.995604e-001 2.818170e-001 2.930172e-001 2.792942e-001 1.602138e-002 2.690798e-002 3.028952e+000 1.173509e+000 4.855361e-001 3.605525e-001 2.805217e-001 2.183339e-001 1.977648e-001 1.725952e-001 1.675566e-001 1.558105e-001 1.587956e-001 1.441567e-001 1.007106e-003 2.825980e-003
<GCONST> 6.097822e+001
<STATE> 3
<MEAN> 42
 8.867044e+001 4.835319e+000 3.901049e+000 5.031812e+000 9.594858e-001 2.368744e+000 3.476568e+000 4.354160e-001 4.168122e+000 6.736196e-001 3.585842e+000 6.489497e-001 -6.518383e-010 -5.255753e-010 7.217728e-003 4.333153e-003 -9.006218e-004 2.481375e-005 -3.423686e-004 6.342099e-004 5.530095e-004 5.141474e-004 4.503139e-004 -3.128886e-005 -8.969382e-005 2.312859e-004 -1.718400e-005 7.545796e-004 -4.023786e-004 -1.108950e-004 -2.664615e-005 -5.061639e-005 -2.587696e-006 -3.432036e-005 -3.220877e-005 -8.002036e-006 -1.946965e-005 -1.131887e-005 -1.604807e-005 -1.007272e-005 1.631041e-005 -1.341038e-004
<VARIANCE> 42
 3.497852e+002 3.777234e+001 1.723274e+001 1.319153e+001 5.328403e+000 4.231486e+000 2.805403e+000 2.408511e+000 2.527487e+000 2.525651e+000 2.525060e+000 3.050863e+000 9.823081e-001 9.825315e-001 9.564363e+000 2.815739e+000 1.082964e+000 8.226411e-001 5.710449e-001 4.244060e-001 3.541313e-001 3.087166e-001 2.995604e-001 2.818170e-001 2.930172e-001 2.792942e-001 1.602138e-002 2.690798e-002 3.028952e+000 1.173509e+000 4.855361e-001 3.605525e-001 2.805217e-001 2.183339e-001 1.977648e-001 1.725952e-001 1.675566e-001 1.558105e-001 1.587956e-001 1.441567e-001 1.007106e-003 2.825980e-003
<GCONST> 6.097822e+001
<STATE> 4
<MEAN> 42
 8.867044e+001 4.835319e+000 3.901049e+000 5.031812e+000 9.594858e-001 2.368744e+000 3.476568e+000 4.354160e-001 4.168122e+000 6.736196e-001 3.585842e+000 6.489497e-001 -6.518383e-010 -5.255753e-010 7.217728e-003 4.333153e-003 -9.006218e-004 2.481375e-005 -3.423686e-004 6.342099e-004 5.530095e-004 5.141474e-004 4.503139e-004 -3.128886e-005 -8.969382e-005 2.312859e-004 -1.718400e-005 7.545796e-004 -4.023786e-004 -1.108950e-004 -2.664615e-005 -5.061639e-005 -2.587696e-006 -3.432036e-005 -3.220877e-005 -8.002036e-006 -1.946965e-005 -1.131887e-005 -1.604807e-005 -1.007272e-005 1.631041e-005 -1.341038e-004
<VARIANCE> 42
 3.497852e+002 3.777234e+001 1.723274e+001 1.319153e+001 5.328403e+000 4.231486e+000 2.805403e+000 2.408511e+000 2.527487e+000 2.525651e+000 2.525060e+000 3.050863e+000 9.823081e-001 9.825315e-001 9.564363e+000 2.815739e+000 1.082964e+000 8.226411e-001 5.710449e-001 4.244060e-001 3.541313e-001 3.087166e-001 2.995604e-001 2.818170e-001 2.930172e-001 2.792942e-001 1.602138e-002 2.690798e-002 3.028952e+000 1.173509e+000 4.855361e-001 3.605525e-001 2.805217e-001 2.183339e-001 1.977648e-001 1.725952e-001 1.675566e-001 1.558105e-001 1.587956e-001 1.441567e-001 1.007106e-003 2.825980e-003
<GCONST> 6.097822e+001
<TRANSP> 5
 0.000000e+000 1.000000e+000 0.000000e+000 0.000000e+000 0.000000e+000
 0.000000e+000 6.000000e-001 4.000000e-001 0.000000e+000 0.000000e+000
 0.000000e+000 0.000000e+000 6.000000e-001 4.000000e-001 0.000000e+000
 0.000000e+000 0.000000e+000 0.000000e+000 6.000000e-001 4.000000e-001
 0.000000e+000 0.000000e+000 0.000000e+000 0.000000e+000 0.000000e+000
<ENDHMM>
~h "ongDT"
<BEGINHMM>
<NUMSTATES> 5
<STATE> 2
<MEAN> 42
 8.867044e+001 4.835319e+000 3.901049e+000 5.031812e+000 9.594858e-001 2.368744e+000 3.476568e+000 4.354160e-001 4.168122e+000 6.736196e-001 3.585842e+000 6.489497e-001 -6.518383e-010 -5.255753e-010 7.217728e-003 4.333153e-003 -9.006218e-004 2.481375e-005 -3.423686e-004 6.342099e-004 5.530095e-004 5.141474e-004 4.503139e-004 -3.128886e-005 -8.969382e-005 2.312859e-004 -1.718400e-005 7.545796e-004 -4.023786e-004 -1.108950e-004 -2.664615e-005 -5.061639e-005 -2.587696e-006 -3.432036e-005 -3.220877e-005 -8.002036e-006 -1.946965e-005 -1.131887e-005 -1.604807e-005 -1.007272e-005 1.631041e-005 -1.341038e-004
<VARIANCE> 42
 3.497852e+002 3.777234e+001 1.723274e+001 1.319153e+001 5.328403e+000 4.231486e+000 2.805403e+000 2.408511e+000 2.527487e+000 2.525651e+000 2.525060e+000 3.050863e+000 9.823081e-001 9.825315e-001 9.564363e+000 2.815739e+000 1.082964e+000 8.226411e-001 5.710449e-001 4.244060e-001 3.541313e-001 3.087166e-001 2.995604e-001 2.818170e-001 2.930172e-001 2.792942e-001 1.602138e-002 2.690798e-002 3.028952e+000 1.173509e+000 4.855361e-001 3.605525e-001 2.805217e-001 2.183339e-001 1.977648e-001 1.725952e-001 1.675566e-001 1.558105e-001 1.587956e-001 1.441567e-001 1.007106e-003 2.825980e-003
<GCONST> 6.097822e+001
<STATE> 3
<MEAN> 42
 8.867044e+001 4.835319e+000 3.901049e+000 5.031812e+000 9.594858e-001 2.368744e+000 3.476568e+000 4.354160e-001 4.168122e+000 6.736196e-001 3.585842e+000 6.489497e-001 -6.518383e-010 -5.255753e-010 7.217728e-003 4.333153e-003 -9.006218e-004 2.481375e-005 -3.423686e-004 6.342099e-004 5.530095e-004 5.141474e-004 4.503139e-004 -3.128886e-005 -8.969382e-005 2.312859e-004 -1.718400e-005 7.545796e-004 -4.023786e-004 -1.108950e-004 -2.664615e-005 -5.061639e-005 -2.587696e-006 -3.432036e-005 -3.220877e-005 -8.002036e-006 -1.946965e-005 -1.131887e-005 -1.604807e-005 -1.007272e-005 1.631041e-005 -1.341038e-004
<VARIANCE> 42
 3.497852e+002 3.777234e+001 1.723274e+001 1.319153e+001 5.328403e+000 4.231486e+000 2.805403e+000 2.408511e+000 2.527487e+000 2.525651e+000 2.525060e+000 3.050863e+000 9.823081e-001 9.825315e-001 9.564363e+000 2.815739e+000 1.082964e+000 8.226411e-001 5.710449e-001 4.244060e-001 3.541313e-001 3.087166e-001 2.995604e-001 2.818170e-001 2.930172e-001 2.792942e-001 1.602138e-002 2.690798e-002 3.028952e+000 1.173509e+000 4.855361e-001 3.605525e-001 2.805217e-001 2.183339e-001 1.977648e-001 1.725952e-001 1.675566e-001 1.558105e-001 1.587956e-001 1.441567e-001 1.007106e-003 2.825980e-003
<GCONST> 6.097822e+001
<STATE> 4
<MEAN> 42
 8.867044e+001 4.835319e+000 3.901049e+000 5.031812e+000 9.594858e-001 2.368744e+000 3.476568e+000 4.354160e-001 4.168122e+000 6.736196e-001 3.585842e+000 6.489497e-001 -6.518383e-010 -5.255753e-010 7.217728e-003 4.333153e-003 -9.006218e-004 2.481375e-005 -3.423686e-004 6.342099e-004 5.530095e-004 5.141474e-004 4.503139e-004 -3.128886e-005 -8.969382e-005 2.312859e-004 -1.718400e-005 7.545796e-004 -4.023786e-004 -1.108950e-004 -2.664615e-005 -5.061639e-005 -2.587696e-006 -3.432036e-005 -3.220877e-005 -8.002036e-006 -1.946965e-005 -1.131887e-005 -1.604807e-005 -1.007272e-005 1.631041e-005 -1.341038e-004
<VARIANCE> 42
 3.497852e+002 3.777234e+001 1.723274e+001 1.319153e+001 5.328403e+000 4.231486e+000 2.805403e+000 2.408511e+000 2.527487e+000 2.525651e+000 2.525060e+000 3.050863e+000 9.823081e-001 9.825315e-001 9.564363e+000 2.815739e+000 1.082964e+000 8.226411e-001 5.710449e-001 4.244060e-001 3.541313e-001 3.087166e-001 2.995604e-001 2.818170e-001 2.930172e-001 2.792942e-001 1.602138e-002 2.690798e-002 3.028952e+000 1.173509e+000 4.855361e-001 3.605525e-001 2.805217e-001 2.183339e-001 1.977648e-001 1.725952e-001 1.675566e-001 1.558105e-001 1.587956e-001 1.441567e-001 1.007106e-003 2.825980e-003
<GCONST> 6.097822e+001
<TRANSP> 5
 0.000000e+000 1.000000e+000 0.000000e+000 0.000000e+000 0.000000e+000
 0.000000e+000 6.000000e-001 4.000000e-001 0.000000e+000 0.000000e+000
 0.000000e+000 0.000000e+000 6.000000e-001 4.000000e-001 0.000000e+000
 0.000000e+000 0.000000e+000 0.000000e+000 6.000000e-001 4.000000e-001
 0.000000e+000 0.000000e+000 0.000000e+000 0.000000e+000 0.000000e+000
<ENDHMM>
~h "uFT"
<BEGINHMM>
<NUMSTATES> 5
<STATE> 2
<MEAN> 42
 8.867044e+001 4.835319e+000 3.901049e+000 5.031812e+000 9.594858e-001 2.368744e+000 3.476568e+000 4.354160e-001 4.168122e+000 6.736196e-001 3.585842e+000 6.489497e-001 -6.518383e-010 -5.255753e-010 7.217728e-003 4.333153e-003 -9.006218e-004 2.481375e-005 -3.423686e-004 6.342099e-004 5.530095e-004 5.141474e-004 4.503139e-004 -3.128886e-005 -8.969382e-005 2.312859e-004 -1.718400e-005 7.545796e-004 -4.023786e-004 -1.108950e-004 -2.664615e-005 -5.061639e-005 -2.587696e-006 -3.432036e-005 -3.220877e-005 -8.002036e-006 -1.946965e-005 -1.131887e-005 -1.604807e-005 -1.007272e-005 1.631041e-005 -1.341038e-004
<VARIANCE> 42
 3.497852e+002 3.777234e+001 1.723274e+001 1.319153e+001 5.328403e+000 4.231486e+000 2.805403e+000 2.408511e+000 2.527487e+000 2.525651e+000 2.525060e+000 3.050863e+000 9.823081e-001 9.825315e-001 9.564363e+000 2.815739e+000 1.082964e+000 8.226411e-001 5.710449e-001 4.244060e-001 3.541313e-001 3.087166e-001 2.995604e-001 2.818170e-001 2.930172e-001 2.792942e-001 1.602138e-002 2.690798e-002 3.028952e+000 1.173509e+000 4.855361e-001 3.605525e-001 2.805217e-001 2.183339e-001 1.977648e-001 1.725952e-001 1.675566e-001 1.558105e-001 1.587956e-001 1.441567e-001 1.007106e-003 2.825980e-003
<GCONST> 6.097822e+001
<STATE> 3
<MEAN> 42
 8.867044e+001 4.835319e+000 3.901049e+000 5.031812e+000 9.594858e-001 2.368744e+000 3.476568e+000 4.354160e-001 4.168122e+000 6.736196e-001 3.585842e+000 6.489497e-001 -6.518383e-010 -5.255753e-010 7.217728e-003 4.333153e-003 -9.006218e-004 2.481375e-005 -3.423686e-004 6.342099e-004 5.530095e-004 5.141474e-004 4.503139e-004 -3.128886e-005 -8.969382e-005 2.312859e-004 -1.718400e-005 7.545796e-004 -4.023786e-004 -1.108950e-004 -2.664615e-005 -5.061639e-005 -2.587696e-006 -3.432036e-005 -3.220877e-005 -8.002036e-006 -1.946965e-005 -1.131887e-005 -1.604807e-005 -1.007272e-005 1.631041e-005 -1.341038e-004
<VARIANCE> 42
 3.497852e+002 3.777234e+001 1.723274e+001 1.319153e+001 5.328403e+000 4.231486e+000 2.805403e+000 2.408511e+000 2.527487e+000 2.525651e+000 2.525060e+000 3.050863e+000 9.823081e-001 9.825315e-001 9.564363e+000 2.815739e+000 1.082964e+000 8.226411e-001 5.710449e-001 4.244060e-001 3.541313e-001 3.087166e-001 2.995604e-001 2.818170e-001 2.930172e-001 2.792942e-001 1.602138e-002 2.690798e-002 3.028952e+000 1.173509e+000 4.855361e-001 3.605525e-001 2.805217e-001 2.183339e-001 1.977648e-001 1.725952e-001 1.675566e-001 1.558105e-001 1.587956e-001 1.441567e-001 1.007106e-003 2.825980e-003
<GCONST> 6.097822e+001
<STATE> 4
<MEAN> 42
 8.867044e+001 4.835319e+000 3.901049e+000 5.031812e+000 9.594858e-001 2.368744e+000 3.476568e+000 4.354160e-001 4.168122e+000 6.736196e-001 3.585842e+000 6.489497e-001 -6.518383e-010 -5.255753e-010 7.217728e-003 4.333153e-003 -9.006218e-004 2.481375e-005 -3.423686e-004 6.342099e-004 5.530095e-004 5.141474e-004 4.503139e-004 -3.128886e-005 -8.969382e-005 2.312859e-004 -1.718400e-005 7.545796e-004 -4.023786e-004 -1.108950e-004 -2.664615e-005 -5.061639e-005 -2.587696e-006 -3.432036e-005 -3.220877e-005 -8.002036e-006 -1.946965e-005 -1.131887e-005 -1.604807e-005 -1.007272e-005 1.631041e-005 -1.341038e-004
<VARIANCE> 42
 3.497852e+002 3.777234e+001 1.723274e+001 1.319153e+001 5.328403e+000 4.231486e+000 2.805403e+000 2.408511e+000 2.527487e+000 2.525651e+000 2.525060e+000 3.050863e+000 9.823081e-001 9.825315e-001 9.564363e+000 2.815739e+000 1.082964e+000 8.226411e-001 5.710449e-001 4.244060e-001 3.541313e-001 3.087166e-001 2.995604e-001 2.818170e-001 2.930172e-001 2.792942e-001 1.602138e-002 2.690798e-002 3.028952e+000 1.173509e+000 4.855361e-001 3.605525e-001 2.805217e-001 2.183339e-001 1.977648e-001 1.725952e-001 1.675566e-001 1.558105e-001 1.587956e-001 1.441567e-001 1.007106e-003 2.825980e-003
<GCONST> 6.097822e+001
<TRANSP> 5
 0.000000e+000 1.000000e+000 0.000000e+000 0.000000e+000 0.000000e+000
 0.000000e+000 6.000000e-001 4.000000e-001 0.000000e+000 0.000000e+000
 0.000000e+000 0.000000e+000 6.000000e-001 4.000000e-001 0.000000e+000
 0.000000e+000 0.000000e+000 0.000000e+000 6.000000e-001 4.000000e-001
 0.000000e+000 0.000000e+000 0.000000e+000 0.000000e+000 0.000000e+000
<ENDHMM>
~h "x"
<BEGINHMM>
<NUMSTATES> 5
<STATE> 2
<MEAN> 42
 8.867044e+001 4.835319e+000 3.901049e+000 5.031812e+000 9.594858e-001 2.368744e+000 3.476568e+000 4.354160e-001 4.168122e+000 6.736196e-001 3.585842e+000 6.489497e-001 -6.518383e-010 -5.255753e-010 7.217728e-003 4.333153e-003 -9.006218e-004 2.481375e-005 -3.423686e-004 6.342099e-004 5.530095e-004 5.141474e-004 4.503139e-004 -3.128886e-005 -8.969382e-005 2.312859e-004 -1.718400e-005 7.545796e-004 -4.023786e-004 -1.108950e-004 -2.664615e-005 -5.061639e-005 -2.587696e-006 -3.432036e-005 -3.220877e-005 -8.002036e-006 -1.946965e-005 -1.131887e-005 -1.604807e-005 -1.007272e-005 1.631041e-005 -1.341038e-004
<VARIANCE> 42
 3.497852e+002 3.777234e+001 1.723274e+001 1.319153e+001 5.328403e+000 4.231486e+000 2.805403e+000 2.408511e+000 2.527487e+000 2.525651e+000 2.525060e+000 3.050863e+000 9.823081e-001 9.825315e-001 9.564363e+000 2.815739e+000 1.082964e+000 8.226411e-001 5.710449e-001 4.244060e-001 3.541313e-001 3.087166e-001 2.995604e-001 2.818170e-001 2.930172e-001 2.792942e-001 1.602138e-002 2.690798e-002 3.028952e+000 1.173509e+000 4.855361e-001 3.605525e-001 2.805217e-001 2.183339e-001 1.977648e-001 1.725952e-001 1.675566e-001 1.558105e-001 1.587956e-001 1.441567e-001 1.007106e-003 2.825980e-003
<GCONST> 6.097822e+001
<STATE> 3
<MEAN> 42
 8.867044e+001 4.835319e+000 3.901049e+000 5.031812e+000 9.594858e-001 2.368744e+000 3.476568e+000 4.354160e-001 4.168122e+000 6.736196e-001 3.585842e+000 6.489497e-001 -6.518383e-010 -5.255753e-010 7.217728e-003 4.333153e-003 -9.006218e-004 2.481375e-005 -3.423686e-004 6.342099e-004 5.530095e-004 5.141474e-004 4.503139e-004 -3.128886e-005 -8.969382e-005 2.312859e-004 -1.718400e-005 7.545796e-004 -4.023786e-004 -1.108950e-004 -2.664615e-005 -5.061639e-005 -2.587696e-006 -3.432036e-005 -3.220877e-005 -8.002036e-006 -1.946965e-005 -1.131887e-005 -1.604807e-005 -1.007272e-005 1.631041e-005 -1.341038e-004
<VARIANCE> 42
 3.497852e+002 3.777234e+001 1.723274e+001 1.319153e+001 5.328403e+000 4.231486e+000 2.805403e+000 2.408511e+000 2.527487e+000 2.525651e+000 2.525060e+000 3.050863e+000 9.823081e-001 9.825315e-001 9.564363e+000 2.815739e+000 1.082964e+000 8.226411e-001 5.710449e-001 4.244060e-001 3.541313e-001 3.087166e-001 2.995604e-001 2.818170e-001 2.930172e-001 2.792942e-001 1.602138e-002 2.690798e-002 3.028952e+000 1.173509e+000 4.855361e-001 3.605525e-001 2.805217e-001 2.183339e-001 1.977648e-001 1.725952e-001 1.675566e-001 1.558105e-001 1.587956e-001 1.441567e-001 1.007106e-003 2.825980e-003
<GCONST> 6.097822e+001
<STATE> 4
<MEAN> 42
 8.867044e+001 4.835319e+000 3.901049e+000 5.031812e+000 9.594858e-001 2.368744e+000 3.476568e+000 4.354160e-001 4.168122e+000 6.736196e-001 3.585842e+000 6.489497e-001 -6.518383e-010 -5.255753e-010 7.217728e-003 4.333153e-003 -9.006218e-004 2.481375e-005 -3.423686e-004 6.342099e-004 5.530095e-004 5.141474e-004 4.503139e-004 -3.128886e-005 -8.969382e-005 2.312859e-004 -1.718400e-005 7.545796e-004 -4.023786e-004 -1.108950e-004 -2.664615e-005 -5.061639e-005 -2.587696e-006 -3.432036e-005 -3.220877e-005 -8.002036e-006 -1.946965e-005 -1.131887e-005 -1.604807e-005 -1.007272e-005 1.631041e-005 -1.341038e-004
<VARIANCE> 42
 3.497852e+002 3.777234e+001 1.723274e+001 1.319153e+001 5.328403e+000 4.231486e+000 2.805403e+000 2.408511e+000 2.527487e+000 2.525651e+000 2.525060e+000 3.050863e+000 9.823081e-001 9.825315e-001 9.564363e+000 2.815739e+000 1.082964e+000 8.226411e-001 5.710449e-001 4.244060e-001 3.541313e-001 3.087166e-001 2.995604e-001 2.818170e-001 2.930172e-001 2.792942e-001 1.602138e-002 2.690798e-002 3.028952e+000 1.173509e+000 4.855361e-001 3.605525e-001 2.805217e-001 2.183339e-001 1.977648e-001 1.725952e-001 1.675566e-001 1.558105e-001 1.587956e-001 1.441567e-001 1.007106e-003 2.825980e-003
<GCONST> 6.097822e+001
<TRANSP> 5
 0.000000e+000 1.000000e+000 0.000000e+000 0.000000e+000 0.000000e+000
 0.000000e+000 6.000000e-001 4.000000e-001 0.000000e+000 0.000000e+000
 0.000000e+000 0.000000e+000 6.000000e-001 4.000000e-001 0.000000e+000
 0.000000e+000 0.000000e+000 0.000000e+000 6.000000e-001 4.000000e-001
 0.000000e+000 0.000000e+000 0.000000e+000 0.000000e+000 0.000000e+000
<ENDHMM>
~h "iHT"
<BEGINHMM>
<NUMSTATES> 5
<STATE> 2
<MEAN> 42
 8.867044e+001 4.835319e+000 3.901049e+000 5.031812e+000 9.594858e-001 2.368744e+000 3.476568e+000 4.354160e-001 4.168122e+000 6.736196e-001 3.585842e+000 6.489497e-001 -6.518383e-010 -5.255753e-010 7.217728e-003 4.333153e-003 -9.006218e-004 2.481375e-005 -3.423686e-004 6.342099e-004 5.530095e-004 5.141474e-004 4.503139e-004 -3.128886e-005 -8.969382e-005 2.312859e-004 -1.718400e-005 7.545796e-004 -4.023786e-004 -1.108950e-004 -2.664615e-005 -5.061639e-005 -2.587696e-006 -3.432036e-005 -3.220877e-005 -8.002036e-006 -1.946965e-005 -1.131887e-005 -1.604807e-005 -1.007272e-005 1.631041e-005 -1.341038e-004
<VARIANCE> 42
 3.497852e+002 3.777234e+001 1.723274e+001 1.319153e+001 5.328403e+000 4.231486e+000 2.805403e+000 2.408511e+000 2.527487e+000 2.525651e+000 2.525060e+000 3.050863e+000 9.823081e-001 9.825315e-001 9.564363e+000 2.815739e+000 1.082964e+000 8.226411e-001 5.710449e-001 4.244060e-001 3.541313e-001 3.087166e-001 2.995604e-001 2.818170e-001 2.930172e-001 2.792942e-001 1.602138e-002 2.690798e-002 3.028952e+000 1.173509e+000 4.855361e-001 3.605525e-001 2.805217e-001 2.183339e-001 1.977648e-001 1.725952e-001 1.675566e-001 1.558105e-001 1.587956e-001 1.441567e-001 1.007106e-003 2.825980e-003
<GCONST> 6.097822e+001
<STATE> 3
<MEAN> 42
 8.867044e+001 4.835319e+000 3.901049e+000 5.031812e+000 9.594858e-001 2.368744e+000 3.476568e+000 4.354160e-001 4.168122e+000 6.736196e-001 3.585842e+000 6.489497e-001 -6.518383e-010 -5.255753e-010 7.217728e-003 4.333153e-003 -9.006218e-004 2.481375e-005 -3.423686e-004 6.342099e-004 5.530095e-004 5.141474e-004 4.503139e-004 -3.128886e-005 -8.969382e-005 2.312859e-004 -1.718400e-005 7.545796e-004 -4.023786e-004 -1.108950e-004 -2.664615e-005 -5.061639e-005 -2.587696e-006 -3.432036e-005 -3.220877e-005 -8.002036e-006 -1.946965e-005 -1.131887e-005 -1.604807e-005 -1.007272e-005 1.631041e-005 -1.341038e-004
<VARIANCE> 42
 3.497852e+002 3.777234e+001 1.723274e+001 1.319153e+001 5.328403e+000 4.231486e+000 2.805403e+000 2.408511e+000 2.527487e+000 2.525651e+000 2.525060e+000 3.050863e+000 9.823081e-001 9.825315e-001 9.564363e+000 2.815739e+000 1.082964e+000 8.226411e-001 5.710449e-001 4.244060e-001 3.541313e-001 3.087166e-001 2.995604e-001 2.818170e-001 2.930172e-001 2.792942e-001 1.602138e-002 2.690798e-002 3.028952e+000 1.173509e+000 4.855361e-001 3.605525e-001 2.805217e-001 2.183339e-001 1.977648e-001 1.725952e-001 1.675566e-001 1.558105e-001 1.587956e-001 1.441567e-001 1.007106e-003 2.825980e-003
<GCONST> 6.097822e+001
<STATE> 4
<MEAN> 42
 8.867044e+001 4.835319e+000 3.901049e+000 5.031812e+000 9.594858e-001 2.368744e+000 3.476568e+000 4.354160e-001 4.168122e+000 6.736196e-001 3.585842e+000 6.489497e-001 -6.518383e-010 -5.255753e-010 7.217728e-003 4.333153e-003 -9.006218e-004 2.481375e-005 -3.423686e-004 6.342099e-004 5.530095e-004 5.141474e-004 4.503139e-004 -3.128886e-005 -8.969382e-005 2.312859e-004 -1.718400e-005 7.545796e-004 -4.023786e-004 -1.108950e-004 -2.664615e-005 -5.061639e-005 -2.587696e-006 -3.432036e-005 -3.220877e-005 -8.002036e-006 -1.946965e-005 -1.131887e-005 -1.604807e-005 -1.007272e-005 1.631041e-005 -1.341038e-004
<VARIANCE> 42
 3.497852e+002 3.777234e+001 1.723274e+001 1.319153e+001 5.328403e+000 4.231486e+000 2.805403e+000 2.408511e+000 2.527487e+000 2.525651e+000 2.525060e+000 3.050863e+000 9.823081e-001 9.825315e-001 9.564363e+000 2.815739e+000 1.082964e+000 8.226411e-001 5.710449e-001 4.244060e-001 3.541313e-001 3.087166e-001 2.995604e-001 2.818170e-001 2.930172e-001 2.792942e-001 1.602138e-002 2.690798e-002 3.028952e+000 1.173509e+000 4.855361e-001 3.605525e-001 2.805217e-001 2.183339e-001 1.977648e-001 1.725952e-001 1.675566e-001 1.558105e-001 1.587956e-001 1.441567e-001 1.007106e-003 2.825980e-003
<GCONST> 6.097822e+001
<TRANSP> 5
 0.000000e+000 1.000000e+000 0.000000e+000 0.000000e+000 0.000000e+000
 0.000000e+000 6.000000e-001 4.000000e-001 0.000000e+000 0.000000e+000
 0.000000e+000 0.000000e+000 6.000000e-001 4.000000e-001 0.000000e+000
 0.000000e+000 0.000000e+000 0.000000e+000 6.000000e-001 4.000000e-001
 0.000000e+000 0.000000e+000 0.000000e+000 0.000000e+000 0.000000e+000
<ENDHMM>
~h "f"
<BEGINHMM>
<NUMSTATES> 5
<STATE> 2
<MEAN> 42
 8.867044e+001 4.835319e+000 3.901049e+000 5.031812e+000 9.594858e-001 2.368744e+000 3.476568e+000 4.354160e-001 4.168122e+000 6.736196e-001 3.585842e+000 6.489497e-001 -6.518383e-010 -5.255753e-010 7.217728e-003 4.333153e-003 -9.006218e-004 2.481375e-005 -3.423686e-004 6.342099e-004 5.530095e-004 5.141474e-004 4.503139e-004 -3.128886e-005 -8.969382e-005 2.312859e-004 -1.718400e-005 7.545796e-004 -4.023786e-004 -1.108950e-004 -2.664615e-005 -5.061639e-005 -2.587696e-006 -3.432036e-005 -3.220877e-005 -8.002036e-006 -1.946965e-005 -1.131887e-005 -1.604807e-005 -1.007272e-005 1.631041e-005 -1.341038e-004
<VARIANCE> 42
 3.497852e+002 3.777234e+001 1.723274e+001 1.319153e+001 5.328403e+000 4.231486e+000 2.805403e+000 2.408511e+000 2.527487e+000 2.525651e+000 2.525060e+000 3.050863e+000 9.823081e-001 9.825315e-001 9.564363e+000 2.815739e+000 1.082964e+000 8.226411e-001 5.710449e-001 4.244060e-001 3.541313e-001 3.087166e-001 2.995604e-001 2.818170e-001 2.930172e-001 2.792942e-001 1.602138e-002 2.690798e-002 3.028952e+000 1.173509e+000 4.855361e-001 3.605525e-001 2.805217e-001 2.183339e-001 1.977648e-001 1.725952e-001 1.675566e-001 1.558105e-001 1.587956e-001 1.441567e-001 1.007106e-003 2.825980e-003
<GCONST> 6.097822e+001
<STATE> 3
<MEAN> 42
 8.867044e+001 4.835319e+000 3.901049e+000 5.031812e+000 9.594858e-001 2.368744e+000 3.476568e+000 4.354160e-001 4.168122e+000 6.736196e-001 3.585842e+000 6.489497e-001 -6.518383e-010 -5.255753e-010 7.217728e-003 4.333153e-003 -9.006218e-004 2.481375e-005 -3.423686e-004 6.342099e-004 5.530095e-004 5.141474e-004 4.503139e-004 -3.128886e-005 -8.969382e-005 2.312859e-004 -1.718400e-005 7.545796e-004 -4.023786e-004 -1.108950e-004 -2.664615e-005 -5.061639e-005 -2.587696e-006 -3.432036e-005 -3.220877e-005 -8.002036e-006 -1.946965e-005 -1.131887e-005 -1.604807e-005 -1.007272e-005 1.631041e-005 -1.341038e-004
<VARIANCE> 42
 3.497852e+002 3.777234e+001 1.723274e+001 1.319153e+001 5.328403e+000 4.231486e+000 2.805403e+000 2.408511e+000 2.527487e+000 2.525651e+000 2.525060e+000 3.050863e+000 9.823081e-001 9.825315e-001 9.564363e+000 2.815739e+000 1.082964e+000 8.226411e-001 5.710449e-001 4.244060e-001 3.541313e-001 3.087166e-001 2.995604e-001 2.818170e-001 2.930172e-001 2.792942e-001 1.602138e-002 2.690798e-002 3.028952e+000 1.173509e+000 4.855361e-001 3.605525e-001 2.805217e-001 2.183339e-001 1.977648e-001 1.725952e-001 1.675566e-001 1.558105e-001 1.587956e-001 1.441567e-001 1.007106e-003 2.825980e-003
<GCONST> 6.097822e+001
<STATE> 4
<MEAN> 42
 8.867044e+001 4.835319e+000 3.901049e+000 5.031812e+000 9.594858e-001 2.368744e+000 3.476568e+000 4.354160e-001 4.168122e+000 6.736196e-001 3.585842e+000 6.489497e-001 -6.518383e-010 -5.255753e-010 7.217728e-003 4.333153e-003 -9.006218e-004 2.481375e-005 -3.423686e-004 6.342099e-004 5.530095e-004 5.141474e-004 4.503139e-004 -3.128886e-005 -8.969382e-005 2.312859e-004 -1.718400e-005 7.545796e-004 -4.023786e-004 -1.108950e-004 -2.664615e-005 -5.061639e-005 -2.587696e-006 -3.432036e-005 -3.220877e-005 -8.002036e-006 -1.946965e-005 -1.131887e-005 -1.604807e-005 -1.007272e-005 1.631041e-005 -1.341038e-004
<VARIANCE> 42
 3.497852e+002 3.777234e+001 1.723274e+001 1.319153e+001 5.328403e+000 4.231486e+000 2.805403e+000 2.408511e+000 2.527487e+000 2.525651e+000 2.525060e+000 3.050863e+000 9.823081e-001 9.825315e-001 9.564363e+000 2.815739e+000 1.082964e+000 8.226411e-001 5.710449e-001 4.244060e-001 3.541313e-001 3.087166e-001 2.995604e-001 2.818170e-001 2.930172e-001 2.792942e-001 1.602138e-002 2.690798e-002 3.028952e+000 1.173509e+000 4.855361e-001 3.605525e-001 2.805217e-001 2.183339e-001 1.977648e-001 1.725952e-001 1.675566e-001 1.558105e-001 1.587956e-001 1.441567e-001 1.007106e-003 2.825980e-003
<GCONST> 6.097822e+001
<TRANSP> 5
 0.000000e+000 1.000000e+000 0.000000e+000 0.000000e+000 0.000000e+000
 0.000000e+000 6.000000e-001 4.000000e-001 0.000000e+000 0.000000e+000
 0.000000e+000 0.000000e+000 6.000000e-001 4.000000e-001 0.000000e+000
 0.000000e+000 0.000000e+000 0.000000e+000 6.000000e-001 4.000000e-001
 0.000000e+000 0.000000e+000 0.000000e+000 0.000000e+000 0.000000e+000
<ENDHMM>
~h "angHT"
<BEGINHMM>
<NUMSTATES> 5
<STATE> 2
<MEAN> 42
 8.867044e+001 4.835319e+000 3.901049e+000 5.031812e+000 9.594858e-001 2.368744e+000 3.476568e+000 4.354160e-001 4.168122e+000 6.736196e-001 3.585842e+000 6.489497e-001 -6.518383e-010 -5.255753e-010 7.217728e-003 4.333153e-003 -9.006218e-004 2.481375e-005 -3.423686e-004 6.342099e-004 5.530095e-004 5.141474e-004 4.503139e-004 -3.128886e-005 -8.969382e-005 2.312859e-004 -1.718400e-005 7.545796e-004 -4.023786e-004 -1.108950e-004 -2.664615e-005 -5.061639e-005 -2.587696e-006 -3.432036e-005 -3.220877e-005 -8.002036e-006 -1.946965e-005 -1.131887e-005 -1.604807e-005 -1.007272e-005 1.631041e-005 -1.341038e-004
<VARIANCE> 42
 3.497852e+002 3.777234e+001 1.723274e+001 1.319153e+001 5.328403e+000 4.231486e+000 2.805403e+000 2.408511e+000 2.527487e+000 2.525651e+000 2.525060e+000 3.050863e+000 9.823081e-001 9.825315e-001 9.564363e+000 2.815739e+000 1.082964e+000 8.226411e-001 5.710449e-001 4.244060e-001 3.541313e-001 3.087166e-001 2.995604e-001 2.818170e-001 2.930172e-001 2.792942e-001 1.602138e-002 2.690798e-002 3.028952e+000 1.173509e+000 4.855361e-001 3.605525e-001 2.805217e-001 2.183339e-001 1.977648e-001 1.725952e-001 1.675566e-001 1.558105e-001 1.587956e-001 1.441567e-001 1.007106e-003 2.825980e-003
<GCONST> 6.097822e+001
<STATE> 3
<MEAN> 42
 8.867044e+001 4.835319e+000 3.901049e+000 5.031812e+000 9.594858e-001 2.368744e+000 3.476568e+000 4.354160e-001 4.168122e+000 6.736196e-001 3.585842e+000 6.489497e-001 -6.518383e-010 -5.255753e-010 7.217728e-003 4.333153e-003 -9.006218e-004 2.481375e-005 -3.423686e-004 6.342099e-004 5.530095e-004 5.141474e-004 4.503139e-004 -3.128886e-005 -8.969382e-005 2.312859e-004 -1.718400e-005 7.545796e-004 -4.023786e-004 -1.108950e-004 -2.664615e-005 -5.061639e-005 -2.587696e-006 -3.432036e-005 -3.220877e-005 -8.002036e-006 -1.946965e-005 -1.131887e-005 -1.604807e-005 -1.007272e-005 1.631041e-005 -1.341038e-004
<VARIANCE> 42
 3.497852e+002 3.777234e+001 1.723274e+001 1.319153e+001 5.328403e+000 4.231486e+000 2.805403e+000 2.408511e+000 2.527487e+000 2.525651e+000 2.525060e+000 3.050863e+000 9.823081e-001 9.825315e-001 9.564363e+000 2.815739e+000 1.082964e+000 8.226411e-001 5.710449e-001 4.244060e-001 3.541313e-001 3.087166e-001 2.995604e-001 2.818170e-001 2.930172e-001 2.792942e-001 1.602138e-002 2.690798e-002 3.028952e+000 1.173509e+000 4.855361e-001 3.605525e-001 2.805217e-001 2.183339e-001 1.977648e-001 1.725952e-001 1.675566e-001 1.558105e-001 1.587956e-001 1.441567e-001 1.007106e-003 2.825980e-003
<GCONST> 6.097822e+001
<STATE> 4
<MEAN> 42
 8.867044e+001 4.835319e+000 3.901049e+000 5.031812e+000 9.594858e-001 2.368744e+000 3.476568e+000 4.354160e-001 4.168122e+000 6.736196e-001 3.585842e+000 6.489497e-001 -6.518383e-010 -5.255753e-010 7.217728e-003 4.333153e-003 -9.006218e-004 2.481375e-005 -3.423686e-004 6.342099e-004 5.530095e-004 5.141474e-004 4.503139e-004 -3.128886e-005 -8.969382e-005 2.312859e-004 -1.718400e-005 7.545796e-004 -4.023786e-004 -1.108950e-004 -2.664615e-005 -5.061639e-005 -2.587696e-006 -3.432036e-005 -3.220877e-005 -8.002036e-006 -1.946965e-005 -1.131887e-005 -1.604807e-005 -1.007272e-005 1.631041e-005 -1.341038e-004
<VARIANCE> 42
 3.497852e+002 3.777234e+001 1.723274e+001 1.319153e+001 5.328403e+000 4.231486e+000 2.805403e+000 2.408511e+000 2.527487e+000 2.525651e+000 2.525060e+000 3.050863e+000 9.823081e-001 9.825315e-001 9.564363e+000 2.815739e+000 1.082964e+000 8.226411e-001 5.710449e-001 4.244060e-001 3.541313e-001 3.087166e-001 2.995604e-001 2.818170e-001 2.930172e-001 2.792942e-001 1.602138e-002 2.690798e-002 3.028952e+000 1.173509e+000 4.855361e-001 3.605525e-001 2.805217e-001 2.183339e-001 1.977648e-001 1.725952e-001 1.675566e-001 1.558105e-001 1.587956e-001 1.441567e-001 1.007106e-003 2.825980e-003
<GCONST> 6.097822e+001
<TRANSP> 5
 0.000000e+000 1.000000e+000 0.000000e+000 0.000000e+000 0.000000e+000
 0.000000e+000 6.000000e-001 4.000000e-001 0.000000e+000 0.000000e+000
 0.000000e+000 0.000000e+000 6.000000e-001 4.000000e-001 0.000000e+000
 0.000000e+000 0.000000e+000 0.000000e+000 6.000000e-001 4.000000e-001
 0.000000e+000 0.000000e+000 0.000000e+000 0.000000e+000 0.000000e+000
<ENDHMM>
~h "z"
<BEGINHMM>
<NUMSTATES> 5
<STATE> 2
<MEAN> 42
 8.867044e+001 4.835319e+000 3.901049e+000 5.031812e+000 9.594858e-001 2.368744e+000 3.476568e+000 4.354160e-001 4.168122e+000 6.736196e-001 3.585842e+000 6.489497e-001 -6.518383e-010 -5.255753e-010 7.217728e-003 4.333153e-003 -9.006218e-004 2.481375e-005 -3.423686e-004 6.342099e-004 5.530095e-004 5.141474e-004 4.503139e-004 -3.128886e-005 -8.969382e-005 2.312859e-004 -1.718400e-005 7.545796e-004 -4.023786e-004 -1.108950e-004 -2.664615e-005 -5.061639e-005 -2.587696e-006 -3.432036e-005 -3.220877e-005 -8.002036e-006 -1.946965e-005 -1.131887e-005 -1.604807e-005 -1.007272e-005 1.631041e-005 -1.341038e-004
<VARIANCE> 42
 3.497852e+002 3.777234e+001 1.723274e+001 1.319153e+001 5.328403e+000 4.231486e+000 2.805403e+000 2.408511e+000 2.527487e+000 2.525651e+000 2.525060e+000 3.050863e+000 9.823081e-001 9.825315e-001 9.564363e+000 2.815739e+000 1.082964e+000 8.226411e-001 5.710449e-001 4.244060e-001 3.541313e-001 3.087166e-001 2.995604e-001 2.818170e-001 2.930172e-001 2.792942e-001 1.602138e-002 2.690798e-002 3.028952e+000 1.173509e+000 4.855361e-001 3.605525e-001 2.805217e-001 2.183339e-001 1.977648e-001 1.725952e-001 1.675566e-001 1.558105e-001 1.587956e-001 1.441567e-001 1.007106e-003 2.825980e-003
<GCONST> 6.097822e+001
<STATE> 3
<MEAN> 42
 8.867044e+001 4.835319e+000 3.901049e+000 5.031812e+000 9.594858e-001 2.368744e+000 3.476568e+000 4.354160e-001 4.168122e+000 6.736196e-001 3.585842e+000 6.489497e-001 -6.518383e-010 -5.255753e-010 7.217728e-003 4.333153e-003 -9.006218e-004 2.481375e-005 -3.423686e-004 6.342099e-004 5.530095e-004 5.141474e-004 4.503139e-004 -3.128886e-005 -8.969382e-005 2.312859e-004 -1.718400e-005 7.545796e-004 -4.023786e-004 -1.108950e-004 -2.664615e-005 -5.061639e-005 -2.587696e-006 -3.432036e-005 -3.220877e-005 -8.002036e-006 -1.946965e-005 -1.131887e-005 -1.604807e-005 -1.007272e-005 1.631041e-005 -1.341038e-004
<VARIANCE> 42
 3.497852e+002 3.777234e+001 1.723274e+001 1.319153e+001 5.328403e+000 4.231486e+000 2.805403e+000 2.408511e+000 2.527487e+000 2.525651e+000 2.525060e+000 3.050863e+000 9.823081e-001 9.825315e-001 9.564363e+000 2.815739e+000 1.082964e+000 8.226411e-001 5.710449e-001 4.244060e-001 3.541313e-001 3.087166e-001 2.995604e-001 2.818170e-001 2.930172e-001 2.792942e-001 1.602138e-002 2.690798e-002 3.028952e+000 1.173509e+000 4.855361e-001 3.605525e-001 2.805217e-001 2.183339e-001 1.977648e-001 1.725952e-001 1.675566e-001 1.558105e-001 1.587956e-001 1.441567e-001 1.007106e-003 2.825980e-003
<GCONST> 6.097822e+001
<STATE> 4
<MEAN> 42
 8.867044e+001 4.835319e+000 3.901049e+000 5.031812e+000 9.594858e-001 2.368744e+000 3.476568e+000 4.354160e-001 4.168122e+000 6.736196e-001 3.585842e+000 6.489497e-001 -6.518383e-010 -5.255753e-010 7.217728e-003 4.333153e-003 -9.006218e-004 2.481375e-005 -3.423686e-004 6.342099e-004 5.530095e-004 5.141474e-004 4.503139e-004 -3.128886e-005 -8.969382e-005 2.312859e-004 -1.718400e-005 7.545796e-004 -4.023786e-004 -1.108950e-004 -2.664615e-005 -5.061639e-005 -2.587696e-006 -3.432036e-005 -3.220877e-005 -8.002036e-006 -1.946965e-005 -1.131887e-005 -1.604807e-005 -1.007272e-005 1.631041e-005 -1.341038e-004
<VARIANCE> 42
 3.497852e+002 3.777234e+001 1.723274e+001 1.319153e+001 5.328403e+000 4.231486e+000 2.805403e+000 2.408511e+000 2.527487e+000 2.525651e+000 2.525060e+000 3.050863e+000 9.823081e-001 9.825315e-001 9.564363e+000 2.815739e+000 1.082964e+000 8.226411e-001 5.710449e-001 4.244060e-001 3.541313e-001 3.087166e-001 2.995604e-001 2.818170e-001 2.930172e-001 2.792942e-001 1.602138e-002 2.690798e-002 3.028952e+000 1.173509e+000 4.855361e-001 3.605525e-001 2.805217e-001 2.183339e-001 1.977648e-001 1.725952e-001 1.675566e-001 1.558105e-001 1.587956e-001 1.441567e-001 1.007106e-003 2.825980e-003
<GCONST> 6.097822e+001
<TRANSP> 5
 0.000000e+000 1.000000e+000 0.000000e+000 0.000000e+000 0.000000e+000
 0.000000e+000 6.000000e-001 4.000000e-001 0.000000e+000 0.000000e+000
 0.000000e+000 0.000000e+000 6.000000e-001 4.000000e-001 0.000000e+000
 0.000000e+000 0.000000e+000 0.000000e+000 6.000000e-001 4.000000e-001
 0.000000e+000 0.000000e+000 0.000000e+000 0.000000e+000 0.000000e+000
<ENDHMM>
~h "aiFT"
<BEGINHMM>
<NUMSTATES> 5
<STATE> 2
<MEAN> 42
 8.867044e+001 4.835319e+000 3.901049e+000 5.031812e+000 9.594858e-001 2.368744e+000 3.476568e+000 4.354160e-001 4.168122e+000 6.736196e-001 3.585842e+000 6.489497e-001 -6.518383e-010 -5.255753e-010 7.217728e-003 4.333153e-003 -9.006218e-004 2.481375e-005 -3.423686e-004 6.342099e-004 5.530095e-004 5.141474e-004 4.503139e-004 -3.128886e-005 -8.969382e-005 2.312859e-004 -1.718400e-005 7.545796e-004 -4.023786e-004 -1.108950e-004 -2.664615e-005 -5.061639e-005 -2.587696e-006 -3.432036e-005 -3.220877e-005 -8.002036e-006 -1.946965e-005 -1.131887e-005 -1.604807e-005 -1.007272e-005 1.631041e-005 -1.341038e-004
<VARIANCE> 42
 3.497852e+002 3.777234e+001 1.723274e+001 1.319153e+001 5.328403e+000 4.231486e+000 2.805403e+000 2.408511e+000 2.527487e+000 2.525651e+000 2.525060e+000 3.050863e+000 9.823081e-001 9.825315e-001 9.564363e+000 2.815739e+000 1.082964e+000 8.226411e-001 5.710449e-001 4.244060e-001 3.541313e-001 3.087166e-001 2.995604e-001 2.818170e-001 2.930172e-001 2.792942e-001 1.602138e-002 2.690798e-002 3.028952e+000 1.173509e+000 4.855361e-001 3.605525e-001 2.805217e-001 2.183339e-001 1.977648e-001 1.725952e-001 1.675566e-001 1.558105e-001 1.587956e-001 1.441567e-001 1.007106e-003 2.825980e-003
<GCONST> 6.097822e+001
<STATE> 3
<MEAN> 42
 8.867044e+001 4.835319e+000 3.901049e+000 5.031812e+000 9.594858e-001 2.368744e+000 3.476568e+000 4.354160e-001 4.168122e+000 6.736196e-001 3.585842e+000 6.489497e-001 -6.518383e-010 -5.255753e-010 7.217728e-003 4.333153e-003 -9.006218e-004 2.481375e-005 -3.423686e-004 6.342099e-004 5.530095e-004 5.141474e-004 4.503139e-004 -3.128886e-005 -8.969382e-005 2.312859e-004 -1.718400e-005 7.545796e-004 -4.023786e-004 -1.108950e-004 -2.664615e-005 -5.061639e-005 -2.587696e-006 -3.432036e-005 -3.220877e-005 -8.002036e-006 -1.946965e-005 -1.131887e-005 -1.604807e-005 -1.007272e-005 1.631041e-005 -1.341038e-004
<VARIANCE> 42
 3.497852e+002 3.777234e+001 1.723274e+001 1.319153e+001 5.328403e+000 4.231486e+000 2.805403e+000 2.408511e+000 2.527487e+000 2.525651e+000 2.525060e+000 3.050863e+000 9.823081e-001 9.825315e-001 9.564363e+000 2.815739e+000 1.082964e+000 8.226411e-001 5.710449e-001 4.244060e-001 3.541313e-001 3.087166e-001 2.995604e-001 2.818170e-001 2.930172e-001 2.792942e-001 1.602138e-002 2.690798e-002 3.028952e+000 1.173509e+000 4.855361e-001 3.605525e-001 2.805217e-001 2.183339e-001 1.977648e-001 1.725952e-001 1.675566e-001 1.558105e-001 1.587956e-001 1.441567e-001 1.007106e-003 2.825980e-003
<GCONST> 6.097822e+001
<STATE> 4
<MEAN> 42
 8.867044e+001 4.835319e+000 3.901049e+000 5.031812e+000 9.594858e-001 2.368744e+000 3.476568e+000 4.354160e-001 4.168122e+000 6.736196e-001 3.585842e+000 6.489497e-001 -6.518383e-010 -5.255753e-010 7.217728e-003 4.333153e-003 -9.006218e-004 2.481375e-005 -3.423686e-004 6.342099e-004 5.530095e-004 5.141474e-004 4.503139e-004 -3.128886e-005 -8.969382e-005 2.312859e-004 -1.718400e-005 7.545796e-004 -4.023786e-004 -1.108950e-004 -2.664615e-005 -5.061639e-005 -2.587696e-006 -3.432036e-005 -3.220877e-005 -8.002036e-006 -1.946965e-005 -1.131887e-005 -1.604807e-005 -1.007272e-005 1.631041e-005 -1.341038e-004
<VARIANCE> 42
 3.497852e+002 3.777234e+001 1.723274e+001 1.319153e+001 5.328403e+000 4.231486e+000 2.805403e+000 2.408511e+000 2.527487e+000 2.525651e+000 2.525060e+000 3.050863e+000 9.823081e-001 9.825315e-001 9.564363e+000 2.815739e+000 1.082964e+000 8.226411e-001 5.710449e-001 4.244060e-001 3.541313e-001 3.087166e-001 2.995604e-001 2.818170e-001 2.930172e-001 2.792942e-001 1.602138e-002 2.690798e-002 3.028952e+000 1.173509e+000 4.855361e-001 3.605525e-001 2.805217e-001 2.183339e-001 1.977648e-001 1.725952e-001 1.675566e-001 1.558105e-001 1.587956e-001 1.441567e-001 1.007106e-003 2.825980e-003
<GCONST> 6.097822e+001
<TRANSP> 5
 0.000000e+000 1.000000e+000 0.000000e+000 0.000000e+000 0.000000e+000
 0.000000e+000 6.000000e-001 4.000000e-001 0.000000e+000 0.000000e+000
 0.000000e+000 0.000000e+000 6.000000e-001 4.000000e-001 0.000000e+000
 0.000000e+000 0.000000e+000 0.000000e+000 6.000000e-001 4.000000e-001
 0.000000e+000 0.000000e+000 0.000000e+000 0.000000e+000 0.000000e+000
<ENDHMM>
~h "d"
<BEGINHMM>
<NUMSTATES> 5
<STATE> 2
<MEAN> 42
 8.867044e+001 4.835319e+000 3.901049e+000 5.031812e+000 9.594858e-001 2.368744e+000 3.476568e+000 4.354160e-001 4.168122e+000 6.736196e-001 3.585842e+000 6.489497e-001 -6.518383e-010 -5.255753e-010 7.217728e-003 4.333153e-003 -9.006218e-004 2.481375e-005 -3.423686e-004 6.342099e-004 5.530095e-004 5.141474e-004 4.503139e-004 -3.128886e-005 -8.969382e-005 2.312859e-004 -1.718400e-005 7.545796e-004 -4.023786e-004 -1.108950e-004 -2.664615e-005 -5.061639e-005 -2.587696e-006 -3.432036e-005 -3.220877e-005 -8.002036e-006 -1.946965e-005 -1.131887e-005 -1.604807e-005 -1.007272e-005 1.631041e-005 -1.341038e-004
<VARIANCE> 42
 3.497852e+002 3.777234e+001 1.723274e+001 1.319153e+001 5.328403e+000 4.231486e+000 2.805403e+000 2.408511e+000 2.527487e+000 2.525651e+000 2.525060e+000 3.050863e+000 9.823081e-001 9.825315e-001 9.564363e+000 2.815739e+000 1.082964e+000 8.226411e-001 5.710449e-001 4.244060e-001 3.541313e-001 3.087166e-001 2.995604e-001 2.818170e-001 2.930172e-001 2.792942e-001 1.602138e-002 2.690798e-002 3.028952e+000 1.173509e+000 4.855361e-001 3.605525e-001 2.805217e-001 2.183339e-001 1.977648e-001 1.725952e-001 1.675566e-001 1.558105e-001 1.587956e-001 1.441567e-001 1.007106e-003 2.825980e-003
<GCONST> 6.097822e+001
<STATE> 3
<MEAN> 42
 8.867044e+001 4.835319e+000 3.901049e+000 5.031812e+000 9.594858e-001 2.368744e+000 3.476568e+000 4.354160e-001 4.168122e+000 6.736196e-001 3.585842e+000 6.489497e-001 -6.518383e-010 -5.255753e-010 7.217728e-003 4.333153e-003 -9.006218e-004 2.481375e-005 -3.423686e-004 6.342099e-004 5.530095e-004 5.141474e-004 4.503139e-004 -3.128886e-005 -8.969382e-005 2.312859e-004 -1.718400e-005 7.545796e-004 -4.023786e-004 -1.108950e-004 -2.664615e-005 -5.061639e-005 -2.587696e-006 -3.432036e-005 -3.220877e-005 -8.002036e-006 -1.946965e-005 -1.131887e-005 -1.604807e-005 -1.007272e-005 1.631041e-005 -1.341038e-004
<VARIANCE> 42
 3.497852e+002 3.777234e+001 1.723274e+001 1.319153e+001 5.328403e+000 4.231486e+000 2.805403e+000 2.408511e+000 2.527487e+000 2.525651e+000 2.525060e+000 3.050863e+000 9.823081e-001 9.825315e-001 9.564363e+000 2.815739e+000 1.082964e+000 8.226411e-001 5.710449e-001 4.244060e-001 3.541313e-001 3.087166e-001 2.995604e-001 2.818170e-001 2.930172e-001 2.792942e-001 1.602138e-002 2.690798e-002 3.028952e+000 1.173509e+000 4.855361e-001 3.605525e-001 2.805217e-001 2.183339e-001 1.977648e-001 1.725952e-001 1.675566e-001 1.558105e-001 1.587956e-001 1.441567e-001 1.007106e-003 2.825980e-003
<GCONST> 6.097822e+001
<STATE> 4
<MEAN> 42
 8.867044e+001 4.835319e+000 3.901049e+000 5.031812e+000 9.594858e-001 2.368744e+000 3.476568e+000 4.354160e-001 4.168122e+000 6.736196e-001 3.585842e+000 6.489497e-001 -6.518383e-010 -5.255753e-010 7.217728e-003 4.333153e-003 -9.006218e-004 2.481375e-005 -3.423686e-004 6.342099e-004 5.530095e-004 5.141474e-004 4.503139e-004 -3.128886e-005 -8.969382e-005 2.312859e-004 -1.718400e-005 7.545796e-004 -4.023786e-004 -1.108950e-004 -2.664615e-005 -5.061639e-005 -2.587696e-006 -3.432036e-005 -3.220877e-005 -8.002036e-006 -1.946965e-005 -1.131887e-005 -1.604807e-005 -1.007272e-005 1.631041e-005 -1.341038e-004
<VARIANCE> 42
 3.497852e+002 3.777234e+001 1.723274e+001 1.319153e+001 5.328403e+000 4.231486e+000 2.805403e+000 2.408511e+000 2.527487e+000 2.525651e+000 2.525060e+000 3.050863e+000 9.823081e-001 9.825315e-001 9.564363e+000 2.815739e+000 1.082964e+000 8.226411e-001 5.710449e-001 4.244060e-001 3.541313e-001 3.087166e-001 2.995604e-001 2.818170e-001 2.930172e-001 2.792942e-001 1.602138e-002 2.690798e-002 3.028952e+000 1.173509e+000 4.855361e-001 3.605525e-001 2.805217e-001 2.183339e-001 1.977648e-001 1.725952e-001 1.675566e-001 1.558105e-001 1.587956e-001 1.441567e-001 1.007106e-003 2.825980e-003
<GCONST> 6.097822e+001
<TRANSP> 5
 0.000000e+000 1.000000e+000 0.000000e+000 0.000000e+000 0.000000e+000
 0.000000e+000 6.000000e-001 4.000000e-001 0.000000e+000 0.000000e+000
 0.000000e+000 0.000000e+000 6.000000e-001 4.000000e-001 0.000000e+000
 0.000000e+000 0.000000e+000 0.000000e+000 6.000000e-001 4.000000e-001
 0.000000e+000 0.000000e+000 0.000000e+000 0.000000e+000 0.000000e+000
<ENDHMM>
~h "ongHT"
<BEGINHMM>
<NUMSTATES> 5
<STATE> 2
<MEAN> 42
 8.867044e+001 4.835319e+000 3.901049e+000 5.031812e+000 9.594858e-001 2.368744e+000 3.476568e+000 4.354160e-001 4.168122e+000 6.736196e-001 3.585842e+000 6.489497e-001 -6.518383e-010 -5.255753e-010 7.217728e-003 4.333153e-003 -9.006218e-004 2.481375e-005 -3.423686e-004 6.342099e-004 5.530095e-004 5.141474e-004 4.503139e-004 -3.128886e-005 -8.969382e-005 2.312859e-004 -1.718400e-005 7.545796e-004 -4.023786e-004 -1.108950e-004 -2.664615e-005 -5.061639e-005 -2.587696e-006 -3.432036e-005 -3.220877e-005 -8.002036e-006 -1.946965e-005 -1.131887e-005 -1.604807e-005 -1.007272e-005 1.631041e-005 -1.341038e-004
<VARIANCE> 42
 3.497852e+002 3.777234e+001 1.723274e+001 1.319153e+001 5.328403e+000 4.231486e+000 2.805403e+000 2.408511e+000 2.527487e+000 2.525651e+000 2.525060e+000 3.050863e+000 9.823081e-001 9.825315e-001 9.564363e+000 2.815739e+000 1.082964e+000 8.226411e-001 5.710449e-001 4.244060e-001 3.541313e-001 3.087166e-001 2.995604e-001 2.818170e-001 2.930172e-001 2.792942e-001 1.602138e-002 2.690798e-002 3.028952e+000 1.173509e+000 4.855361e-001 3.605525e-001 2.805217e-001 2.183339e-001 1.977648e-001 1.725952e-001 1.675566e-001 1.558105e-001 1.587956e-001 1.441567e-001 1.007106e-003 2.825980e-003
<GCONST> 6.097822e+001
<STATE> 3
<MEAN> 42
 8.867044e+001 4.835319e+000 3.901049e+000 5.031812e+000 9.594858e-001 2.368744e+000 3.476568e+000 4.354160e-001 4.168122e+000 6.736196e-001 3.585842e+000 6.489497e-001 -6.518383e-010 -5.255753e-010 7.217728e-003 4.333153e-003 -9.006218e-004 2.481375e-005 -3.423686e-004 6.342099e-004 5.530095e-004 5.141474e-004 4.503139e-004 -3.128886e-005 -8.969382e-005 2.312859e-004 -1.718400e-005 7.545796e-004 -4.023786e-004 -1.108950e-004 -2.664615e-005 -5.061639e-005 -2.587696e-006 -3.432036e-005 -3.220877e-005 -8.002036e-006 -1.946965e-005 -1.131887e-005 -1.604807e-005 -1.007272e-005 1.631041e-005 -1.341038e-004
<VARIANCE> 42
 3.497852e+002 3.777234e+001 1.723274e+001 1.319153e+001 5.328403e+000 4.231486e+000 2.805403e+000 2.408511e+000 2.527487e+000 2.525651e+000 2.525060e+000 3.050863e+000 9.823081e-001 9.825315e-001 9.564363e+000 2.815739e+000 1.082964e+000 8.226411e-001 5.710449e-001 4.244060e-001 3.541313e-001 3.087166e-001 2.995604e-001 2.818170e-001 2.930172e-001 2.792942e-001 1.602138e-002 2.690798e-002 3.028952e+000 1.173509e+000 4.855361e-001 3.605525e-001 2.805217e-001 2.183339e-001 1.977648e-001 1.725952e-001 1.675566e-001 1.558105e-001 1.587956e-001 1.441567e-001 1.007106e-003 2.825980e-003
<GCONST> 6.097822e+001
<STATE> 4
<MEAN> 42
 8.867044e+001 4.835319e+000 3.901049e+000 5.031812e+000 9.594858e-001 2.368744e+000 3.476568e+000 4.354160e-001 4.168122e+000 6.736196e-001 3.585842e+000 6.489497e-001 -6.518383e-010 -5.255753e-010 7.217728e-003 4.333153e-003 -9.006218e-004 2.481375e-005 -3.423686e-004 6.342099e-004 5.530095e-004 5.141474e-004 4.503139e-004 -3.128886e-005 -8.969382e-005 2.312859e-004 -1.718400e-005 7.545796e-004 -4.023786e-004 -1.108950e-004 -2.664615e-005 -5.061639e-005 -2.587696e-006 -3.432036e-005 -3.220877e-005 -8.002036e-006 -1.946965e-005 -1.131887e-005 -1.604807e-005 -1.007272e-005 1.631041e-005 -1.341038e-004
<VARIANCE> 42
 3.497852e+002 3.777234e+001 1.723274e+001 1.319153e+001 5.328403e+000 4.231486e+000 2.805403e+000 2.408511e+000 2.527487e+000 2.525651e+000 2.525060e+000 3.050863e+000 9.823081e-001 9.825315e-001 9.564363e+000 2.815739e+000 1.082964e+000 8.226411e-001 5.710449e-001 4.244060e-001 3.541313e-001 3.087166e-001 2.995604e-001 2.818170e-001 2.930172e-001 2.792942e-001 1.602138e-002 2.690798e-002 3.028952e+000 1.173509e+000 4.855361e-001 3.605525e-001 2.805217e-001 2.183339e-001 1.977648e-001 1.725952e-001 1.675566e-001 1.558105e-001 1.587956e-001 1.441567e-001 1.007106e-003 2.825980e-003
<GCONST> 6.097822e+001
<TRANSP> 5
 0.000000e+000 1.000000e+000 0.000000e+000 0.000000e+000 0.000000e+000
 0.000000e+000 6.000000e-001 4.000000e-001 0.000000e+000 0.000000e+000
 0.000000e+000 0.000000e+000 6.000000e-001 4.000000e-001 0.000000e+000
 0.000000e+000 0.000000e+000 0.000000e+000 6.000000e-001 4.000000e-001
 0.000000e+000 0.000000e+000 0.000000e+000 0.000000e+000 0.000000e+000
<ENDHMM>
~h "oo"
<BEGINHMM>
<NUMSTATES> 5
<STATE> 2
<MEAN> 42
 8.867044e+001 4.835319e+000 3.901049e+000 5.031812e+000 9.594858e-001 2.368744e+000 3.476568e+000 4.354160e-001 4.168122e+000 6.736196e-001 3.585842e+000 6.489497e-001 -6.518383e-010 -5.255753e-010 7.217728e-003 4.333153e-003 -9.006218e-004 2.481375e-005 -3.423686e-004 6.342099e-004 5.530095e-004 5.141474e-004 4.503139e-004 -3.128886e-005 -8.969382e-005 2.312859e-004 -1.718400e-005 7.545796e-004 -4.023786e-004 -1.108950e-004 -2.664615e-005 -5.061639e-005 -2.587696e-006 -3.432036e-005 -3.220877e-005 -8.002036e-006 -1.946965e-005 -1.131887e-005 -1.604807e-005 -1.007272e-005 1.631041e-005 -1.341038e-004
<VARIANCE> 42
 3.497852e+002 3.777234e+001 1.723274e+001 1.319153e+001 5.328403e+000 4.231486e+000 2.805403e+000 2.408511e+000 2.527487e+000 2.525651e+000 2.525060e+000 3.050863e+000 9.823081e-001 9.825315e-001 9.564363e+000 2.815739e+000 1.082964e+000 8.226411e-001 5.710449e-001 4.244060e-001 3.541313e-001 3.087166e-001 2.995604e-001 2.818170e-001 2.930172e-001 2.792942e-001 1.602138e-002 2.690798e-002 3.028952e+000 1.173509e+000 4.855361e-001 3.605525e-001 2.805217e-001 2.183339e-001 1.977648e-001 1.725952e-001 1.675566e-001 1.558105e-001 1.587956e-001 1.441567e-001 1.007106e-003 2.825980e-003
<GCONST> 6.097822e+001
<STATE> 3
<MEAN> 42
 8.867044e+001 4.835319e+000 3.901049e+000 5.031812e+000 9.594858e-001 2.368744e+000 3.476568e+000 4.354160e-001 4.168122e+000 6.736196e-001 3.585842e+000 6.489497e-001 -6.518383e-010 -5.255753e-010 7.217728e-003 4.333153e-003 -9.006218e-004 2.481375e-005 -3.423686e-004 6.342099e-004 5.530095e-004 5.141474e-004 4.503139e-004 -3.128886e-005 -8.969382e-005 2.312859e-004 -1.718400e-005 7.545796e-004 -4.023786e-004 -1.108950e-004 -2.664615e-005 -5.061639e-005 -2.587696e-006 -3.432036e-005 -3.220877e-005 -8.002036e-006 -1.946965e-005 -1.131887e-005 -1.604807e-005 -1.007272e-005 1.631041e-005 -1.341038e-004
<VARIANCE> 42
 3.497852e+002 3.777234e+001 1.723274e+001 1.319153e+001 5.328403e+000 4.231486e+000 2.805403e+000 2.408511e+000 2.527487e+000 2.525651e+000 2.525060e+000 3.050863e+000 9.823081e-001 9.825315e-001 9.564363e+000 2.815739e+000 1.082964e+000 8.226411e-001 5.710449e-001 4.244060e-001 3.541313e-001 3.087166e-001 2.995604e-001 2.818170e-001 2.930172e-001 2.792942e-001 1.602138e-002 2.690798e-002 3.028952e+000 1.173509e+000 4.855361e-001 3.605525e-001 2.805217e-001 2.183339e-001 1.977648e-001 1.725952e-001 1.675566e-001 1.558105e-001 1.587956e-001 1.441567e-001 1.007106e-003 2.825980e-003
<GCONST> 6.097822e+001
<STATE> 4
<MEAN> 42
 8.867044e+001 4.835319e+000 3.901049e+000 5.031812e+000 9.594858e-001 2.368744e+000 3.476568e+000 4.354160e-001 4.168122e+000 6.736196e-001 3.585842e+000 6.489497e-001 -6.518383e-010 -5.255753e-010 7.217728e-003 4.333153e-003 -9.006218e-004 2.481375e-005 -3.423686e-004 6.342099e-004 5.530095e-004 5.141474e-004 4.503139e-004 -3.128886e-005 -8.969382e-005 2.312859e-004 -1.718400e-005 7.545796e-004 -4.023786e-004 -1.108950e-004 -2.664615e-005 -5.061639e-005 -2.587696e-006 -3.432036e-005 -3.220877e-005 -8.002036e-006 -1.946965e-005 -1.131887e-005 -1.604807e-005 -1.007272e-005 1.631041e-005 -1.341038e-004
<VARIANCE> 42
 3.497852e+002 3.777234e+001 1.723274e+001 1.319153e+001 5.328403e+000 4.231486e+000 2.805403e+000 2.408511e+000 2.527487e+000 2.525651e+000 2.525060e+000 3.050863e+000 9.823081e-001 9.825315e-001 9.564363e+000 2.815739e+000 1.082964e+000 8.226411e-001 5.710449e-001 4.244060e-001 3.541313e-001 3.087166e-001 2.995604e-001 2.818170e-001 2.930172e-001 2.792942e-001 1.602138e-002 2.690798e-002 3.028952e+000 1.173509e+000 4.855361e-001 3.605525e-001 2.805217e-001 2.183339e-001 1.977648e-001 1.725952e-001 1.675566e-001 1.558105e-001 1.587956e-001 1.441567e-001 1.007106e-003 2.825980e-003
<GCONST> 6.097822e+001
<TRANSP> 5
 0.000000e+000 1.000000e+000 0.000000e+000 0.000000e+000 0.000000e+000
 0.000000e+000 6.000000e-001 4.000000e-001 0.000000e+000 0.000000e+000
 0.000000e+000 0.000000e+000 6.000000e-001 4.000000e-001 0.000000e+000
 0.000000e+000 0.000000e+000 0.000000e+000 6.000000e-001 4.000000e-001
 0.000000e+000 0.000000e+000 0.000000e+000 0.000000e+000 0.000000e+000
<ENDHMM>
~h "ouHT"
<BEGINHMM>
<NUMSTATES> 5
<STATE> 2
<MEAN> 42
 8.867044e+001 4.835319e+000 3.901049e+000 5.031812e+000 9.594858e-001 2.368744e+000 3.476568e+000 4.354160e-001 4.168122e+000 6.736196e-001 3.585842e+000 6.489497e-001 -6.518383e-010 -5.255753e-010 7.217728e-003 4.333153e-003 -9.006218e-004 2.481375e-005 -3.423686e-004 6.342099e-004 5.530095e-004 5.141474e-004 4.503139e-004 -3.128886e-005 -8.969382e-005 2.312859e-004 -1.718400e-005 7.545796e-004 -4.023786e-004 -1.108950e-004 -2.664615e-005 -5.061639e-005 -2.587696e-006 -3.432036e-005 -3.220877e-005 -8.002036e-006 -1.946965e-005 -1.131887e-005 -1.604807e-005 -1.007272e-005 1.631041e-005 -1.341038e-004
<VARIANCE> 42
 3.497852e+002 3.777234e+001 1.723274e+001 1.319153e+001 5.328403e+000 4.231486e+000 2.805403e+000 2.408511e+000 2.527487e+000 2.525651e+000 2.525060e+000 3.050863e+000 9.823081e-001 9.825315e-001 9.564363e+000 2.815739e+000 1.082964e+000 8.226411e-001 5.710449e-001 4.244060e-001 3.541313e-001 3.087166e-001 2.995604e-001 2.818170e-001 2.930172e-001 2.792942e-001 1.602138e-002 2.690798e-002 3.028952e+000 1.173509e+000 4.855361e-001 3.605525e-001 2.805217e-001 2.183339e-001 1.977648e-001 1.725952e-001 1.675566e-001 1.558105e-001 1.587956e-001 1.441567e-001 1.007106e-003 2.825980e-003
<GCONST> 6.097822e+001
<STATE> 3
<MEAN> 42
 8.867044e+001 4.835319e+000 3.901049e+000 5.031812e+000 9.594858e-001 2.368744e+000 3.476568e+000 4.354160e-001 4.168122e+000 6.736196e-001 3.585842e+000 6.489497e-001 -6.518383e-010 -5.255753e-010 7.217728e-003 4.333153e-003 -9.006218e-004 2.481375e-005 -3.423686e-004 6.342099e-004 5.530095e-004 5.141474e-004 4.503139e-004 -3.128886e-005 -8.969382e-005 2.312859e-004 -1.718400e-005 7.545796e-004 -4.023786e-004 -1.108950e-004 -2.664615e-005 -5.061639e-005 -2.587696e-006 -3.432036e-005 -3.220877e-005 -8.002036e-006 -1.946965e-005 -1.131887e-005 -1.604807e-005 -1.007272e-005 1.631041e-005 -1.341038e-004
<VARIANCE> 42
 3.497852e+002 3.777234e+001 1.723274e+001 1.319153e+001 5.328403e+000 4.231486e+000 2.805403e+000 2.408511e+000 2.527487e+000 2.525651e+000 2.525060e+000 3.050863e+000 9.823081e-001 9.825315e-001 9.564363e+000 2.815739e+000 1.082964e+000 8.226411e-001 5.710449e-001 4.244060e-001 3.541313e-001 3.087166e-001 2.995604e-001 2.818170e-001 2.930172e-001 2.792942e-001 1.602138e-002 2.690798e-002 3.028952e+000 1.173509e+000 4.855361e-001 3.605525e-001 2.805217e-001 2.183339e-001 1.977648e-001 1.725952e-001 1.675566e-001 1.558105e-001 1.587956e-001 1.441567e-001 1.007106e-003 2.825980e-003
<GCONST> 6.097822e+001
<STATE> 4
<MEAN> 42
 8.867044e+001 4.835319e+000 3.901049e+000 5.031812e+000 9.594858e-001 2.368744e+000 3.476568e+000 4.354160e-001 4.168122e+000 6.736196e-001 3.585842e+000 6.489497e-001 -6.518383e-010 -5.255753e-010 7.217728e-003 4.333153e-003 -9.006218e-004 2.481375e-005 -3.423686e-004 6.342099e-004 5.530095e-004 5.141474e-004 4.503139e-004 -3.128886e-005 -8.969382e-005 2.312859e-004 -1.718400e-005 7.545796e-004 -4.023786e-004 -1.108950e-004 -2.664615e-005 -5.061639e-005 -2.587696e-006 -3.432036e-005 -3.220877e-005 -8.002036e-006 -1.946965e-005 -1.131887e-005 -1.604807e-005 -1.007272e-005 1.631041e-005 -1.341038e-004
<VARIANCE> 42
 3.497852e+002 3.777234e+001 1.723274e+001 1.319153e+001 5.328403e+000 4.231486e+000 2.805403e+000 2.408511e+000 2.527487e+000 2.525651e+000 2.525060e+000 3.050863e+000 9.823081e-001 9.825315e-001 9.564363e+000 2.815739e+000 1.082964e+000 8.226411e-001 5.710449e-001 4.244060e-001 3.541313e-001 3.087166e-001 2.995604e-001 2.818170e-001 2.930172e-001 2.792942e-001 1.602138e-002 2.690798e-002 3.028952e+000 1.173509e+000 4.855361e-001 3.605525e-001 2.805217e-001 2.183339e-001 1.977648e-001 1.725952e-001 1.675566e-001 1.558105e-001 1.587956e-001 1.441567e-001 1.007106e-003 2.825980e-003
<GCONST> 6.097822e+001
<TRANSP> 5
 0.000000e+000 1.000000e+000 0.000000e+000 0.000000e+000 0.000000e+000
 0.000000e+000 6.000000e-001 4.000000e-001 0.000000e+000 0.000000e+000
 0.000000e+000 0.000000e+000 6.000000e-001 4.000000e-001 0.000000e+000
 0.000000e+000 0.000000e+000 0.000000e+000 6.000000e-001 4.000000e-001
 0.000000e+000 0.000000e+000 0.000000e+000 0.000000e+000 0.000000e+000
<ENDHMM>
~h "eFT"
<BEGINHMM>
<NUMSTATES> 5
<STATE> 2
<MEAN> 42
 8.867044e+001 4.835319e+000 3.901049e+000 5.031812e+000 9.594858e-001 2.368744e+000 3.476568e+000 4.354160e-001 4.168122e+000 6.736196e-001 3.585842e+000 6.489497e-001 -6.518383e-010 -5.255753e-010 7.217728e-003 4.333153e-003 -9.006218e-004 2.481375e-005 -3.423686e-004 6.342099e-004 5.530095e-004 5.141474e-004 4.503139e-004 -3.128886e-005 -8.969382e-005 2.312859e-004 -1.718400e-005 7.545796e-004 -4.023786e-004 -1.108950e-004 -2.664615e-005 -5.061639e-005 -2.587696e-006 -3.432036e-005 -3.220877e-005 -8.002036e-006 -1.946965e-005 -1.131887e-005 -1.604807e-005 -1.007272e-005 1.631041e-005 -1.341038e-004
<VARIANCE> 42
 3.497852e+002 3.777234e+001 1.723274e+001 1.319153e+001 5.328403e+000 4.231486e+000 2.805403e+000 2.408511e+000 2.527487e+000 2.525651e+000 2.525060e+000 3.050863e+000 9.823081e-001 9.825315e-001 9.564363e+000 2.815739e+000 1.082964e+000 8.226411e-001 5.710449e-001 4.244060e-001 3.541313e-001 3.087166e-001 2.995604e-001 2.818170e-001 2.930172e-001 2.792942e-001 1.602138e-002 2.690798e-002 3.028952e+000 1.173509e+000 4.855361e-001 3.605525e-001 2.805217e-001 2.183339e-001 1.977648e-001 1.725952e-001 1.675566e-001 1.558105e-001 1.587956e-001 1.441567e-001 1.007106e-003 2.825980e-003
<GCONST> 6.097822e+001
<STATE> 3
<MEAN> 42
 8.867044e+001 4.835319e+000 3.901049e+000 5.031812e+000 9.594858e-001 2.368744e+000 3.476568e+000 4.354160e-001 4.168122e+000 6.736196e-001 3.585842e+000 6.489497e-001 -6.518383e-010 -5.255753e-010 7.217728e-003 4.333153e-003 -9.006218e-004 2.481375e-005 -3.423686e-004 6.342099e-004 5.530095e-004 5.141474e-004 4.503139e-004 -3.128886e-005 -8.969382e-005 2.312859e-004 -1.718400e-005 7.545796e-004 -4.023786e-004 -1.108950e-004 -2.664615e-005 -5.061639e-005 -2.587696e-006 -3.432036e-005 -3.220877e-005 -8.002036e-006 -1.946965e-005 -1.131887e-005 -1.604807e-005 -1.007272e-005 1.631041e-005 -1.341038e-004
<VARIANCE> 42
 3.497852e+002 3.777234e+001 1.723274e+001 1.319153e+001 5.328403e+000 4.231486e+000 2.805403e+000 2.408511e+000 2.527487e+000 2.525651e+000 2.525060e+000 3.050863e+000 9.823081e-001 9.825315e-001 9.564363e+000 2.815739e+000 1.082964e+000 8.226411e-001 5.710449e-001 4.244060e-001 3.541313e-001 3.087166e-001 2.995604e-001 2.818170e-001 2.930172e-001 2.792942e-001 1.602138e-002 2.690798e-002 3.028952e+000 1.173509e+000 4.855361e-001 3.605525e-001 2.805217e-001 2.183339e-001 1.977648e-001 1.725952e-001 1.675566e-001 1.558105e-001 1.587956e-001 1.441567e-001 1.007106e-003 2.825980e-003
<GCONST> 6.097822e+001
<STATE> 4
<MEAN> 42
 8.867044e+001 4.835319e+000 3.901049e+000 5.031812e+000 9.594858e-001 2.368744e+000 3.476568e+000 4.354160e-001 4.168122e+000 6.736196e-001 3.585842e+000 6.489497e-001 -6.518383e-010 -5.255753e-010 7.217728e-003 4.333153e-003 -9.006218e-004 2.481375e-005 -3.423686e-004 6.342099e-004 5.530095e-004 5.141474e-004 4.503139e-004 -3.128886e-005 -8.969382e-005 2.312859e-004 -1.718400e-005 7.545796e-004 -4.023786e-004 -1.108950e-004 -2.664615e-005 -5.061639e-005 -2.587696e-006 -3.432036e-005 -3.220877e-005 -8.002036e-006 -1.946965e-005 -1.131887e-005 -1.604807e-005 -1.007272e-005 1.631041e-005 -1.341038e-004
<VARIANCE> 42
 3.497852e+002 3.777234e+001 1.723274e+001 1.319153e+001 5.328403e+000 4.231486e+000 2.805403e+000 2.408511e+000 2.527487e+000 2.525651e+000 2.525060e+000 3.050863e+000 9.823081e-001 9.825315e-001 9.564363e+000 2.815739e+000 1.082964e+000 8.226411e-001 5.710449e-001 4.244060e-001 3.541313e-001 3.087166e-001 2.995604e-001 2.818170e-001 2.930172e-001 2.792942e-001 1.602138e-002 2.690798e-002 3.028952e+000 1.173509e+000 4.855361e-001 3.605525e-001 2.805217e-001 2.183339e-001 1.977648e-001 1.725952e-001 1.675566e-001 1.558105e-001 1.587956e-001 1.441567e-001 1.007106e-003 2.825980e-003
<GCONST> 6.097822e+001
<TRANSP> 5
 0.000000e+000 1.000000e+000 0.000000e+000 0.000000e+000 0.000000e+000
 0.000000e+000 6.000000e-001 4.000000e-001 0.000000e+000 0.000000e+000
 0.000000e+000 0.000000e+000 6.000000e-001 4.000000e-001 0.000000e+000
 0.000000e+000 0.000000e+000 0.000000e+000 6.000000e-001 4.000000e-001
 0.000000e+000 0.000000e+000 0.000000e+000 0.000000e+000 0.000000e+000
<ENDHMM>
~h "l"
<BEGINHMM>
<NUMSTATES> 5
<STATE> 2
<MEAN> 42
 8.867044e+001 4.835319e+000 3.901049e+000 5.031812e+000 9.594858e-001 2.368744e+000 3.476568e+000 4.354160e-001 4.168122e+000 6.736196e-001 3.585842e+000 6.489497e-001 -6.518383e-010 -5.255753e-010 7.217728e-003 4.333153e-003 -9.006218e-004 2.481375e-005 -3.423686e-004 6.342099e-004 5.530095e-004 5.141474e-004 4.503139e-004 -3.128886e-005 -8.969382e-005 2.312859e-004 -1.718400e-005 7.545796e-004 -4.023786e-004 -1.108950e-004 -2.664615e-005 -5.061639e-005 -2.587696e-006 -3.432036e-005 -3.220877e-005 -8.002036e-006 -1.946965e-005 -1.131887e-005 -1.604807e-005 -1.007272e-005 1.631041e-005 -1.341038e-004
<VARIANCE> 42
 3.497852e+002 3.777234e+001 1.723274e+001 1.319153e+001 5.328403e+000 4.231486e+000 2.805403e+000 2.408511e+000 2.527487e+000 2.525651e+000 2.525060e+000 3.050863e+000 9.823081e-001 9.825315e-001 9.564363e+000 2.815739e+000 1.082964e+000 8.226411e-001 5.710449e-001 4.244060e-001 3.541313e-001 3.087166e-001 2.995604e-001 2.818170e-001 2.930172e-001 2.792942e-001 1.602138e-002 2.690798e-002 3.028952e+000 1.173509e+000 4.855361e-001 3.605525e-001 2.805217e-001 2.183339e-001 1.977648e-001 1.725952e-001 1.675566e-001 1.558105e-001 1.587956e-001 1.441567e-001 1.007106e-003 2.825980e-003
<GCONST> 6.097822e+001
<STATE> 3
<MEAN> 42
 8.867044e+001 4.835319e+000 3.901049e+000 5.031812e+000 9.594858e-001 2.368744e+000 3.476568e+000 4.354160e-001 4.168122e+000 6.736196e-001 3.585842e+000 6.489497e-001 -6.518383e-010 -5.255753e-010 7.217728e-003 4.333153e-003 -9.006218e-004 2.481375e-005 -3.423686e-004 6.342099e-004 5.530095e-004 5.141474e-004 4.503139e-004 -3.128886e-005 -8.969382e-005 2.312859e-004 -1.718400e-005 7.545796e-004 -4.023786e-004 -1.108950e-004 -2.664615e-005 -5.061639e-005 -2.587696e-006 -3.432036e-005 -3.220877e-005 -8.002036e-006 -1.946965e-005 -1.131887e-005 -1.604807e-005 -1.007272e-005 1.631041e-005 -1.341038e-004
<VARIANCE> 42
 3.497852e+002 3.777234e+001 1.723274e+001 1.319153e+001 5.328403e+000 4.231486e+000 2.805403e+000 2.408511e+000 2.527487e+000 2.525651e+000 2.525060e+000 3.050863e+000 9.823081e-001 9.825315e-001 9.564363e+000 2.815739e+000 1.082964e+000 8.226411e-001 5.710449e-001 4.244060e-001 3.541313e-001 3.087166e-001 2.995604e-001 2.818170e-001 2.930172e-001 2.792942e-001 1.602138e-002 2.690798e-002 3.028952e+000 1.173509e+000 4.855361e-001 3.605525e-001 2.805217e-001 2.183339e-001 1.977648e-001 1.725952e-001 1.675566e-001 1.558105e-001 1.587956e-001 1.441567e-001 1.007106e-003 2.825980e-003
<GCONST> 6.097822e+001
<STATE> 4
<MEAN> 42
 8.867044e+001 4.835319e+000 3.901049e+000 5.031812e+000 9.594858e-001 2.368744e+000 3.476568e+000 4.354160e-001 4.168122e+000 6.736196e-001 3.585842e+000 6.489497e-001 -6.518383e-010 -5.255753e-010 7.217728e-003 4.333153e-003 -9.006218e-004 2.481375e-005 -3.423686e-004 6.342099e-004 5.530095e-004 5.141474e-004 4.503139e-004 -3.128886e-005 -8.969382e-005 2.312859e-004 -1.718400e-005 7.545796e-004 -4.023786e-004 -1.108950e-004 -2.664615e-005 -5.061639e-005 -2.587696e-006 -3.432036e-005 -3.220877e-005 -8.002036e-006 -1.946965e-005 -1.131887e-005 -1.604807e-005 -1.007272e-005 1.631041e-005 -1.341038e-004
<VARIANCE> 42
 3.497852e+002 3.777234e+001 1.723274e+001 1.319153e+001 5.328403e+000 4.231486e+000 2.805403e+000 2.408511e+000 2.527487e+000 2.525651e+000 2.525060e+000 3.050863e+000 9.823081e-001 9.825315e-001 9.564363e+000 2.815739e+000 1.082964e+000 8.226411e-001 5.710449e-001 4.244060e-001 3.541313e-001 3.087166e-001 2.995604e-001 2.818170e-001 2.930172e-001 2.792942e-001 1.602138e-002 2.690798e-002 3.028952e+000 1.173509e+000 4.855361e-001 3.605525e-001 2.805217e-001 2.183339e-001 1.977648e-001 1.725952e-001 1.675566e-001 1.558105e-001 1.587956e-001 1.441567e-001 1.007106e-003 2.825980e-003
<GCONST> 6.097822e+001
<TRANSP> 5
 0.000000e+000 1.000000e+000 0.000000e+000 0.000000e+000 0.000000e+000
 0.000000e+000 6.000000e-001 4.000000e-001 0.000000e+000 0.000000e+000
 0.000000e+000 0.000000e+000 6.000000e-001 4.000000e-001 0.000000e+000
 0.000000e+000 0.000000e+000 0.000000e+000 6.000000e-001 4.000000e-001
 0.000000e+000 0.000000e+000 0.000000e+000 0.000000e+000 0.000000e+000
<ENDHMM>
~h "iFT"
<BEGINHMM>
<NUMSTATES> 5
<STATE> 2
<MEAN> 42
 8.867044e+001 4.835319e+000 3.901049e+000 5.031812e+000 9.594858e-001 2.368744e+000 3.476568e+000 4.354160e-001 4.168122e+000 6.736196e-001 3.585842e+000 6.489497e-001 -6.518383e-010 -5.255753e-010 7.217728e-003 4.333153e-003 -9.006218e-004 2.481375e-005 -3.423686e-004 6.342099e-004 5.530095e-004 5.141474e-004 4.503139e-004 -3.128886e-005 -8.969382e-005 2.312859e-004 -1.718400e-005 7.545796e-004 -4.023786e-004 -1.108950e-004 -2.664615e-005 -5.061639e-005 -2.587696e-006 -3.432036e-005 -3.220877e-005 -8.002036e-006 -1.946965e-005 -1.131887e-005 -1.604807e-005 -1.007272e-005 1.631041e-005 -1.341038e-004
<VARIANCE> 42
 3.497852e+002 3.777234e+001 1.723274e+001 1.319153e+001 5.328403e+000 4.231486e+000 2.805403e+000 2.408511e+000 2.527487e+000 2.525651e+000 2.525060e+000 3.050863e+000 9.823081e-001 9.825315e-001 9.564363e+000 2.815739e+000 1.082964e+000 8.226411e-001 5.710449e-001 4.244060e-001 3.541313e-001 3.087166e-001 2.995604e-001 2.818170e-001 2.930172e-001 2.792942e-001 1.602138e-002 2.690798e-002 3.028952e+000 1.173509e+000 4.855361e-001 3.605525e-001 2.805217e-001 2.183339e-001 1.977648e-001 1.725952e-001 1.675566e-001 1.558105e-001 1.587956e-001 1.441567e-001 1.007106e-003 2.825980e-003
<GCONST> 6.097822e+001
<STATE> 3
<MEAN> 42
 8.867044e+001 4.835319e+000 3.901049e+000 5.031812e+000 9.594858e-001 2.368744e+000 3.476568e+000 4.354160e-001 4.168122e+000 6.736196e-001 3.585842e+000 6.489497e-001 -6.518383e-010 -5.255753e-010 7.217728e-003 4.333153e-003 -9.006218e-004 2.481375e-005 -3.423686e-004 6.342099e-004 5.530095e-004 5.141474e-004 4.503139e-004 -3.128886e-005 -8.969382e-005 2.312859e-004 -1.718400e-005 7.545796e-004 -4.023786e-004 -1.108950e-004 -2.664615e-005 -5.061639e-005 -2.587696e-006 -3.432036e-005 -3.220877e-005 -8.002036e-006 -1.946965e-005 -1.131887e-005 -1.604807e-005 -1.007272e-005 1.631041e-005 -1.341038e-004
<VARIANCE> 42
 3.497852e+002 3.777234e+001 1.723274e+001 1.319153e+001 5.328403e+000 4.231486e+000 2.805403e+000 2.408511e+000 2.527487e+000 2.525651e+000 2.525060e+000 3.050863e+000 9.823081e-001 9.825315e-001 9.564363e+000 2.815739e+000 1.082964e+000 8.226411e-001 5.710449e-001 4.244060e-001 3.541313e-001 3.087166e-001 2.995604e-001 2.818170e-001 2.930172e-001 2.792942e-001 1.602138e-002 2.690798e-002 3.028952e+000 1.173509e+000 4.855361e-001 3.605525e-001 2.805217e-001 2.183339e-001 1.977648e-001 1.725952e-001 1.675566e-001 1.558105e-001 1.587956e-001 1.441567e-001 1.007106e-003 2.825980e-003
<GCONST> 6.097822e+001
<STATE> 4
<MEAN> 42
 8.867044e+001 4.835319e+000 3.901049e+000 5.031812e+000 9.594858e-001 2.368744e+000 3.476568e+000 4.354160e-001 4.168122e+000 6.736196e-001 3.585842e+000 6.489497e-001 -6.518383e-010 -5.255753e-010 7.217728e-003 4.333153e-003 -9.006218e-004 2.481375e-005 -3.423686e-004 6.342099e-004 5.530095e-004 5.141474e-004 4.503139e-004 -3.128886e-005 -8.969382e-005 2.312859e-004 -1.718400e-005 7.545796e-004 -4.023786e-004 -1.108950e-004 -2.664615e-005 -5.061639e-005 -2.587696e-006 -3.432036e-005 -3.220877e-005 -8.002036e-006 -1.946965e-005 -1.131887e-005 -1.604807e-005 -1.007272e-005 1.631041e-005 -1.341038e-004
<VARIANCE> 42
 3.497852e+002 3.777234e+001 1.723274e+001 1.319153e+001 5.328403e+000 4.231486e+000 2.805403e+000 2.408511e+000 2.527487e+000 2.525651e+000 2.525060e+000 3.050863e+000 9.823081e-001 9.825315e-001 9.564363e+000 2.815739e+000 1.082964e+000 8.226411e-001 5.710449e-001 4.244060e-001 3.541313e-001 3.087166e-001 2.995604e-001 2.818170e-001 2.930172e-001 2.792942e-001 1.602138e-002 2.690798e-002 3.028952e+000 1.173509e+000 4.855361e-001 3.605525e-001 2.805217e-001 2.183339e-001 1.977648e-001 1.725952e-001 1.675566e-001 1.558105e-001 1.587956e-001 1.441567e-001 1.007106e-003 2.825980e-003
<GCONST> 6.097822e+001
<TRANSP> 5
 0.000000e+000 1.000000e+000 0.000000e+000 0.000000e+000 0.000000e+000
 0.000000e+000 6.000000e-001 4.000000e-001 0.000000e+000 0.000000e+000
